tree
version=v4
num_class=3
num_tree_per_iteration=3
label_index=0
max_feature_idx=32
objective=multiclass num_class:3
feature_names=fixture.id fixture.timestamp fixture.periods.first fixture.periods.second fixture.venue.id fixture.status.elapsed fixture.status.extra league.id league.season teams.home.id teams.away.id home_last5_form away_last5_form home_last5_goals_scored away_last5_goals_scored home_last5_goals_conceded away_last5_goals_conceded home_absents away_absents injury_diff injury_total injury_flag match_rank xG_home xG_away shots_on_target_home shots_on_target_away possession_home possession_away duels_home duels_away corners_home corners_away
feature_infos=[65:1390871] [1438972200:1758395100] [1438972200:1758395100] [1438975800:1758398700] [0:22033] none [1:15] [39:140] [2015:2025] [33:1660] [33:1579] [0:15] [0:15] [0:26] [0:25] [0:23] [0:21] [0:350] [0:350] [-280:274] [0:675] [0:1] [1:39] none none none none [0.14999999999999999:0.83999999999999997] [0.16:0.84999999999999998] none none [0:26] [0:19]
tree_sizes=3327 3313 3398 3441 3440 3454 3444 3449 3453 3443 3440 3464 3446 3428 3450 3458 3438 3456 3447 3440 3446 3439 3424 3464 3429 3437 3455 3448 3437 3462 3450 3452 3444 3453 3422 3455 3469 3417 3447 3457 3431 3459 3447 3441 3467 3454 3423 3443 3433 3434 3469 3433 3440 3473 3464 3422 3471 3458 3457 3460 3446 3417 3456 3444 3406 3456 3459 3436 3475 3460 3434 3451 3458 3419 3452 3440 3444 3454 3429 3435 3459 3436 3411 3449 3451 3431 3457 3463 3420 3460 3435 3443 3438 3451 3426 3466 3455 3426 3456 3471 3422 3466 3470 3429 3444 3457 3406 3432 3442 3416 3445 3445 3431 3445 3453 3429 3446 3463 3416 3454 3449 3434 3467 3456 3411 3446 3471 3440 3466 3430 3421 3455 3471 3409 3459 3449 3393 3443 3458 3435 3435 3445 3412 3433 3465 3414 3465 3436 3414 3475 3456 3410 3457 3470 3430 3456 3445 3429 3442 3455 3426 3458 3448 3410 3436 3470 3417 3441 3466 3396 3442 3440 3429 3459 3450 3414 3423 3462 3404 3424 3437 3410 3459 3454 3427 3445 3423 3427 3478 3428 3427 3434 3411 3406 3428 3446 3423 3458 3455 3416 3456 3441 3407 3445 3440 3400 3451 3424 3410 3427 3422 3401 3436 3428 3426 3420 3452 3417 3447 3428 3408 3442 3443 3415 3446 3451 3425 3465 3428 3415 3442 3439 3409 3452 3453 3423 3443 3428 3396 3413 3441 3408 3449 3448 3414 3430 3438 3393 3440 3463 3402 3438 3434 3429 3438 3433 3408 3416 3441 3403 3427 3441 3407 3433 3434 3428 3424 3447 3405 3445 3445 3412 3405 3421 3413 3425 3425 3421 3438 3432 3405 3457 3442 3411 3447 3423 3427 3433 3442 3405 3416 3456 3427 3461 3443 3425 3424 3437 3393 3444 3444 3433 3416 3428 3410 3445 3443 3411 3436 3437 3428 3417 3431 3401 3407 3442 3409 3409 3436 3423 3427 3405 3412 3444 3413 3425 3440 3433 3409 3414 3407 3428 3412 3415 3412 3442 3415 3404 3409 3440 3424 3441 3412 3397 3407 3407 3429 3444 3445 3408 3417 3437 3423 3433 3433 3407 3428 3404 3415 3414 3439 3416 3414 3430 3411 3400 3430 3417 3429 3418 3413 3431 3442 3400 3414 3416 3418 3426

Tree=0
num_leaves=31
num_cat=0
split_feature=12 11 11 12 12 11 11 11 27 6 1 27 27 11 12 27 32 9 9 27 22 4 15 20 15 18 16 27 9 4
split_gain=219.794 136.313 58.1787 54.5544 29.7301 21.5891 18.832 18.7434 13.2078 10.9787 10.2967 9.91177 9.26066 11.559 10.5379 8.79548 11.5704 8.47819 8.28665 8.24928 9.7954 7.97011 7.85977 7.60614 8.01542 7.1059 6.88397 6.52778 6.49186 6.38388
threshold=10.500000000000002 7.5000000000000009 7.5000000000000009 6.5000000000000009 8.5000000000000018 4.5000000000000009 12.500000000000002 5.5000000000000009 0.42500000000000004 7.5000000000000009 1486222650.0000002 0.46500000000000002 0.49500000000000005 1.0000000180025095e-35 1.5000000000000002 0.33500000000000008 8.5000000000000018 727.50000000000011 175.50000000000003 0.56500000000000006 2.5000000000000004 657.00000000000011 10.500000000000002 244.50000000000003 5.5000000000000009 266.00000000000006 4.5000000000000009 0.55500000000000016 533.50000000000011 6582.0000000000009
decision_type=2 2 2 2 2 2 2 2 2 2 2 2 2 2 2 2 2 2 2 2 2 2 2 2 2 2 2 2 2 2
left_child=1 3 10 7 6 23 9 12 29 -3 22 -9 13 18 27 16 -7 -17 -1 20 -6 -15 26 -5 -25 -12 -2 -14 -22 -4
right_child=2 4 8 5 19 15 -8 11 -10 -11 25 -13 14 21 -16 17 -18 -19 -20 -21 28 -23 -24 24 -26 -27 -28 -29 -30 -31
leaf_value=-1.1256394423208296 -1.1538056457402543 -1.1901997236339144 -1.1458478782727639 -1.158808393310371 -1.1294783083326512 -1.1357338340586551 -1.2060214012991342 -1.1962546967255305 -1.1717947876062074 -1.1563157497739298 -1.1325386373281721 -1.1802265189650707 -1.1996391085605993 -1.1680568580749588 -1.1646602543293503 -1.1715287718182963 -1.1870413972096223 -1.1397609880874726 -1.1731436593425193 -1.1850358940532704 -1.1756597330179241 -1.1847515025598168 -1.119433653792347 -1.1014363615043494 -1.1488352411173988 -1.1767391444824167 -1.1942687193121311 -1.1729686619208741 -1.1482261944301828 -1.1860840366680478
leaf_weight=16.029216140508652 42.156838774681091 1039.9755504727364 92.167993396520615 383.09826821088791 13.464541316032408 39.752456277608871 204.69309139251709 127.43226900696754 213.0282841026783 23.723240047693253 379.25125652551651 394.79959630966187 35.264275521039963 94.892960131168365 432.7888388633728 551.72562357783318 14.426294595003126 20.837981194257736 19.876227885484695 134.64541661739349 167.82589450478554 283.3965430855751 11.54103574156761 8.8160688877105695 155.64368978142738 9.1366532444953901 12.983665168285368 62.513942778110504 23.723240077495575 10.418990582227705
leaf_count=43 124 3034 267 1110 28 115 592 365 625 69 1106 1152 95 274 1264 1615 41 63 49 396 501 818 35 24 453 26 38 162 70 31
internal_value=-1.17269 -1.17714 -1.14814 -1.17016 -1.18862 -1.16213 -1.19213 -1.17658 -1.16467 -1.18943 -1.13671 -1.18418 -1.17238 -1.17797 -1.16801 -1.16848 -1.14941 -1.17032 -1.15124 -1.17547 -1.16915 -1.18056 -1.15524 -1.15488 -1.14588 -1.13359 -1.16355 -1.18276 -1.17215 -1.15002
internal_weight=5020.03 4249.35 770.685 2641.29 1608.05 1174.3 1268.39 1466.99 315.615 1063.7 455.069 522.232 944.762 414.195 530.567 626.742 54.1788 572.564 35.9054 339.659 205.014 378.29 66.6815 547.558 164.46 388.388 55.1405 97.7782 191.549 102.587
internal_count=14585 12333 2252 7643 4690 3421 3695 4222 923 3103 1329 1517 2705 1184 1521 1834 156 1678 92 995 599 1092 197 1587 477 1132 162 257 571 298
is_linear=0
shrinkage=1


Tree=1
num_leaves=31
num_cat=0
split_feature=9 31 1 0 9 22 4 9 9 16 9 22 19 27 14 1 18 18 4 31 17 9 14 16 19 1 16 0 9 12
split_gain=9.25064 9.71195 8.9532 8.04801 7.03817 9.5798 6.54104 5.77828 5.63979 5.40878 6.516 5.58019 5.03855 4.97142 9.25724 6.76631 6.42715 7.36903 5.59766 5.4585 5.75855 5.18945 5.16908 5.05643 6.00831 4.85749 5.63529 5.64145 4.59276 6.06443
threshold=50.500000000000007 8.5000000000000018 1480776300.0000002 9729.5000000000018 716.50000000000011 29.500000000000004 522.00000000000011 529.50000000000011 538.50000000000011 9.5000000000000018 58.500000000000007 18.500000000000004 -105.49999999999999 0.50500000000000012 3.5000000000000004 1459609200.0000002 103.50000000000001 108.50000000000001 1493.0000000000002 1.5000000000000002 251.00000000000003 65.500000000000014 5.5000000000000009 8.5000000000000018 79.500000000000014 1454766300.0000002 3.5000000000000004 1223767.5000000002 86.000000000000014 3.5000000000000004
decision_type=2 2 2 2 2 2 2 2 2 2 2 2 2 2 2 2 2 2 2 2 2 2 2 2 2 2 2 2 2 2
left_child=2 4 -1 -3 9 25 -5 -8 -9 12 11 -11 -2 14 -14 -16 18 -18 -17 -15 21 22 -21 -19 -25 -6 -27 -28 -23 -30
right_child=1 3 -4 6 5 -7 7 8 -10 10 -12 -13 13 19 15 16 17 23 -20 20 -22 28 -24 24 -26 26 27 -29 29 -31
leaf_value=-1.3744424793370058 -1.3958956496594972 -1.3999573033532566 -1.3918974771191752 -1.341401494776046 -1.3977420213769096 -1.3957159918083648 -1.3795150857511811 -1.3534328768005661 -1.3760199464915313 -1.338404805617279 -1.3907042399822169 -1.3934060408527009 -1.3991791661508814 -1.3988416334493503 -1.3715256736334109 -1.3890218717047951 -1.3425248718935694 -1.3830914324802177 -1.3688645120870329 -1.3343932178124094 -1.4189385562266548 -1.3883031553013747 -1.3761754066546241 -1.3479755435877601 -1.401763871178888 -1.389162457806757 -1.3624585012854009 -1.4040898746231809 -1.368599178981355 -1.3808804859982156
leaf_weight=83.078144133090973 85.471921443939209 34.357741117477417 587.03861677646637 12.954558104276655 14.925903856754301 48.720403641462326 342.87335857748985 47.030678242444992 67.588998794555664 10.279160201549532 502.97479930520058 7.3221415877342215 114.47886610031128 40.553399294614792 93.638925760984421 721.79418304562569 11.687264353036879 322.7374692261219 35.202603429555893 11.124022722244264 8.5894352495670301 162.49521777033806 20.276699602603912 20.276699632406238 6.1956582367420188 27.880461901426315 139.12068900465965 7.8853830695152274 116.45021179318428 704.89693364500999
leaf_count=268 285 116 1951 43 48 173 1140 153 224 33 1665 26 359 135 322 2395 38 1069 113 37 28 533 66 67 21 89 455 22 362 2349
internal_value=-1.38432 -1.38335 -1.38972 -1.3769 -1.38435 -1.37611 -1.37519 -1.37624 -1.36657 -1.38501 -1.38964 -1.36054 -1.38404 -1.38361 -1.38565 -1.38436 -1.38545 -1.37997 -1.38807 -1.38107 -1.38035 -1.37999 -1.36029 -1.38133 -1.36074 -1.37104 -1.3687 -1.36481 -1.38064 -1.37912
internal_weight=4409.9 3739.78 670.117 504.805 3234.98 238.533 470.448 457.493 114.62 2996.45 520.576 17.6013 2475.87 2390.4 1326.01 1211.53 1117.89 360.897 756.997 1064.39 1023.83 1015.24 31.4007 349.21 26.4724 189.812 174.887 147.006 983.842 821.347
internal_count=14585 12366 2219 1676 10690 787 1560 1517 377 9903 1724 59 8179 7894 4384 4025 3703 1195 2508 3510 3375 3347 103 1157 88 614 566 477 3244 2711
is_linear=0
shrinkage=1


Tree=2
num_leaves=31
num_cat=0
split_feature=13 14 12 16 15 14 16 13 15 10 13 27 12 12 14 27 9 15 0 27 10 1 16 18 31 0 22 13 15 9
split_gain=217.519 123.224 71.5174 46.1943 30.7148 26.2072 25.4573 19.4321 16.3006 16.0111 15.2647 14.4854 14.1074 13.2621 13.07 12.7122 12.599 12.0545 11.6569 11.1964 10.9603 10.9467 10.4533 12.2393 10.2653 9.88821 9.84394 8.77276 8.73425 9.06229
threshold=8.5000000000000018 8.5000000000000018 9.5000000000000018 6.5000000000000009 7.5000000000000009 13.500000000000002 8.5000000000000018 4.5000000000000009 5.5000000000000009 729.50000000000011 9.5000000000000018 0.49500000000000005 2.5000000000000004 6.5000000000000009 14.500000000000002 0.50500000000000012 716.50000000000011 5.5000000000000009 21567.500000000004 0.53500000000000014 496.50000000000006 1440257400.0000002 3.5000000000000004 155.50000000000003 7.5000000000000009 17400.500000000004 23.500000000000004 6.5000000000000009 11.500000000000002 49.500000000000007
decision_type=2 2 2 2 2 2 2 2 2 2 2 2 2 2 2 2 2 2 2 2 2 2 2 2 2 2 2 2 2 2
left_child=1 3 4 8 10 -4 14 15 21 12 20 -10 19 -12 16 17 22 -5 25 -9 -2 -1 -3 27 -23 -14 -21 -24 29 -13
right_child=2 6 5 7 -6 -7 -8 9 11 -11 13 28 18 -15 -16 -17 -18 -19 -20 26 -22 24 23 -25 -26 -27 -28 -29 -30 -31
leaf_value=-0.84883458028112557 -0.81389015249987506 -0.85125785492756023 -0.81703370747232162 -0.79838650892526764 -0.81165416943116031 -0.84909026831568224 -0.82504528718011638 -0.78985467991327185 -0.82605981315348143 -0.78403833880337559 -0.78362043757614441 -0.81426235350295995 -0.81210510344074538 -0.79880000168218923 -0.85959559158639887 -0.83097331309645928 -0.86347857766059333 -0.82196816749169888 -0.81945463127315554 -0.82362442968273908 -0.79045071937366129 -0.81498658628552934 -0.83812208932495469 -0.85194068306676929 -0.83333877549148394 -0.7837200986324272 -0.79566349798348601 -0.82376689918604196 -0.85771583829199072 -0.838544277200727
leaf_weight=31.600346267223358 137.11963999271393 166.50242069363594 317.48186257481575 71.516577422618866 336.51598879694939 78.723674118518829 212.14736679196358 99.420978873968124 481.21232244372368 48.047313719987869 366.8227561712265 42.503392428159714 110.87841591238976 247.07406744360924 121.04226949810982 279.96799904108047 62.461507022380829 214.18013933300972 639.76845574378967 76.875701040029526 78.169282615184784 360.90923908352852 339.65754514932632 111.98719918727875 95.540233612060547 41.949000656604767 52.112855941057205 155.41457882523537 51.928057730197906 357.95248308777809
leaf_count=57 346 428 809 177 838 192 527 251 1225 127 921 107 289 614 302 717 156 550 1622 193 197 888 860 282 233 109 141 396 131 900
internal_value=-0.821047 -0.826941 -0.80511 -0.821658 -0.798877 -0.823458 -0.840738 -0.815927 -0.828247 -0.811964 -0.793709 -0.832114 -0.813313 -0.789684 -0.844209 -0.823419 -0.841938 -0.816007 -0.816481 -0.802391 -0.805277 -0.820841 -0.840146 -0.837053 -0.818846 -0.804122 -0.81222 -0.83363 -0.83853 -0.835957
internal_weight=5787.48 4225.58 1561.91 3056.36 1165.7 396.206 1169.21 1634.72 1421.65 1069.05 829.186 933.596 1021.01 613.897 957.066 565.665 836.023 285.697 792.596 228.41 215.289 488.05 773.562 607.059 456.449 152.827 128.989 495.072 452.384 400.456
internal_count=14585 10668 3917 7717 2916 1001 2951 4176 3541 2732 2078 2363 2605 1535 2424 1444 2122 727 2020 585 543 1178 1966 1538 1121 398 334 1256 1138 1007
is_linear=0
shrinkage=1


Tree=3
num_leaves=31
num_cat=0
split_feature=14 13 12 13 12 16 13 15 14 16 27 15 13 22 15 10 10 0 27 13 31 10 22 17 32 4 6 15 18 16
split_gain=221.639 107.691 51.8182 30.9158 26.8495 22.4309 21.8222 21.0498 17.1465 15.3637 13.2697 12.7738 12.5733 12.103 10.5991 10.0462 9.63042 9.67108 9.16149 8.96172 8.43426 8.45154 8.07664 8.05013 8.49852 7.95653 7.85904 7.58093 7.4515 7.28577
threshold=9.5000000000000018 9.5000000000000018 6.5000000000000009 7.5000000000000009 10.500000000000002 9.5000000000000018 3.5000000000000004 4.5000000000000009 13.500000000000002 8.5000000000000018 0.48500000000000004 8.5000000000000018 13.500000000000002 3.5000000000000004 7.5000000000000009 511.50000000000006 631.50000000000011 196773.50000000003 0.27500000000000008 4.5000000000000009 7.5000000000000009 61.000000000000007 29.500000000000004 148.50000000000003 5.5000000000000009 654.50000000000011 7.5000000000000009 3.5000000000000004 94.500000000000014 3.5000000000000004
decision_type=2 2 2 2 2 2 2 2 2 2 2 2 2 2 2 2 2 2 2 2 2 2 2 2 2 2 2 2 2 2
left_child=1 2 9 4 -2 8 23 -8 12 11 -11 20 22 -12 26 19 17 18 -9 -15 21 -1 27 24 -4 28 -3 -5 -19 -6
right_child=3 14 6 5 29 -7 7 16 -10 10 13 -13 -14 15 -16 -17 -18 25 -20 -21 -22 -23 -24 -25 -26 -27 -28 -29 -30 -31
leaf_value=0.0065968998902237001 0.016739657010040033 -0.026980883280480955 0.022565183893491242 -0.0073874438440195301 0.047216997100559439 -0.025268297470781822 -0.010826939727967375 0.055488228392242211 0.031443617468936855 -0.021151462085683671 0.015195623953837341 0.0059254881656956478 -0.022487701510341691 0.006747006855385651 -0.01201211080848575 -0.020952081522990256 -0.013815230247327521 0.040621817836604061 0.00021976734790738842 -0.010460142146502496 0.0042274822271723333 -0.011574022443050808 -0.0063723895172170617 0.039781284457631523 0.0017065961163357448 0.0086884904224564571 0.011148689361978928 0.019940572116736159 0.01348259764773076 0.031218515286746896
leaf_weight=72.902341455221176 317.982451826334 544.36837047338486 136.34669306874275 29.587359875440598 120.19089671969414 40.622007012367249 224.4741947054863 6.6585634350776663 96.846088409423828 267.80208399891853 51.819109439849854 294.60252732038498 31.023898780345917 105.5586062669754 180.61206275224686 147.22638344764709 55.316730916500092 41.071258902549744 358.29475829005241 261.24122762680054 146.40043672919273 490.82044747471809 52.60985392332077 39.082354336977005 76.044256061315536 381.99591171741486 13.34777384996414 159.99864712357521 67.535871595144272 206.89582714438438
leaf_count=207 908 1597 389 84 350 116 668 19 273 783 108 855 90 319 519 454 160 112 1060 797 418 1401 164 114 221 1111 39 460 201 588
internal_value=-1.69828e-06 -0.00542518 -0.00147919 0.020345 0.0271676 0.0095888 0.00581536 0.002856 0.0134728 -0.00698217 -0.0119963 -0.00281398 0.00701144 -0.00763376 -0.0226369 -0.00996023 0.00623618 0.00754723 0.00137701 -0.00550334 -0.00644288 -0.00921658 0.010867 0.019112 0.01514 0.012125 -0.02605 0.0156593 0.0240226 0.0372233
internal_weight=5019.28 3963.52 3225.19 1055.76 645.069 410.688 1386.82 1135.35 370.066 1838.37 833.647 1004.73 273.22 565.845 738.328 514.026 910.873 855.556 364.953 366.8 710.123 563.723 242.196 251.473 212.391 490.603 557.716 189.586 108.607 327.087
internal_count=14585 11552 9397 3033 1846 1187 4055 3331 1071 5342 2461 2881 798 1678 2155 1570 2663 2503 1079 1116 2026 1608 708 724 610 1424 1636 544 313 938
is_linear=0
shrinkage=0.05


Tree=4
num_leaves=31
num_cat=0
split_feature=11 4 22 31 16 27 9 16 4 1 0 16 19 0 0 1 20 1 9 0 27 18 4 7 9 9 9 14 22 16
split_gain=9.28426 13.5375 8.21725 7.85545 9.44953 7.15616 6.89682 6.68091 7.11086 7.41988 6.97824 6.47856 6.06012 5.77125 5.45569 5.45621 8.70672 7.12493 5.33261 6.37475 6.03511 6.10074 5.49094 5.34167 5.33681 5.45137 5.2689 5.14301 5.13608 4.9483
threshold=6.5000000000000009 910.50000000000011 30.500000000000004 8.5000000000000018 4.5000000000000009 0.51500000000000012 168.50000000000003 12.500000000000002 596.50000000000011 1746816750.0000002 1224130.5000000002 6.5000000000000009 -1.4999999999999998 20590.500000000004 9513.5000000000018 1713096000.0000002 361.50000000000006 1695476700.0000002 77.500000000000014 11656.500000000002 0.36500000000000005 178.50000000000003 12637.500000000002 137.50000000000003 541.50000000000011 539.50000000000011 35.500000000000007 4.5000000000000009 10.500000000000002 4.5000000000000009
decision_type=2 2 2 2 2 2 2 2 2 2 2 2 2 2 2 2 2 2 2 2 2 2 2 2 2 2 2 2 2 2
left_child=1 5 6 7 -5 -1 -3 8 -2 10 18 12 -7 -8 -13 16 17 26 19 -10 21 23 24 -20 25 -22 -16 -21 29 -29
right_child=3 2 -4 4 -6 11 13 -9 9 -11 -12 14 -14 -15 15 -17 -18 -19 20 27 22 -23 -24 -25 -26 -27 -28 28 -30 -31
leaf_value=-0.0026630302781975959 -0.010712911288006523 -0.003406918798663062 -0.0041580381188338154 0.020867953628811931 0.00053575807691534931 -0.0056219538756786909 -0.014853670217795331 -0.019030710611278878 -0.019328599418311172 -0.026318658060970904 0.032949283405744725 -0.020871404163790973 0.013502199790689812 0.015347636407062269 0.043819617196701105 -0.014606065767333498 -0.032072935094919396 0.040476763216303412 -0.0043140786832990578 -0.0062113560626655337 -0.0031181055199363764 0.032850431267949613 -0.016297368688635832 0.021045143780149149 0.006472957485925742 -0.022363675814505043 0.0029564144981772209 0.0058871077999676294 0.01117927702874391 0.056624468490566009
leaf_weight=989.69853588938713 256.92139378190041 64.615566372871399 98.149910658597946 68.837850868701935 314.74375170469284 50.309291243553162 15.726413875818251 66.851341664791107 15.723056465387343 29.075334966182709 13.785484850406645 28.500543892383575 221.50091063976288 387.98841306567192 7.1551343798637381 44.097878843545914 14.747363209724424 13.359452933073042 70.482952386140823 22.380403846502304 992.17312723398209 19.923130631446838 76.878726005554199 28.297093093395233 142.05467948317528 37.252991527318954 250.80903226137161 7.326887488365176 45.618331134319305 14.520223110914229
leaf_count=3263 858 213 349 226 1048 163 51 221 54 79 49 95 696 1258 25 143 49 47 232 75 3313 64 255 95 476 126 836 21 162 43
internal_value=3.44987e-06 0.00231611 0.00896205 -0.00227158 0.00422936 -1.16708e-05 0.0117147 -0.00362893 -0.0030376 -0.0017302 -0.00123186 0.00414794 0.00995488 0.0141374 -0.000268173 0.00156797 0.0041034 0.00618026 -0.00157398 0.00920107 -0.00241218 0.00831651 -0.00343818 0.00308858 -0.00258112 -0.00383559 0.00425467 0.0143516 0.021164 0.0406111
internal_weight=4409.51 2186.66 566.48 2222.85 383.582 1620.18 468.33 1839.27 1772.41 1515.49 1486.42 630.48 271.81 403.715 358.669 330.169 286.071 271.324 1472.63 105.569 1367.06 118.703 1248.36 98.78 1171.48 1029.43 257.964 89.8458 67.4654 21.8471
internal_count=14585 7188 1871 7397 1274 5317 1522 6123 5902 5044 4965 2054 859 1309 1195 1100 957 908 4916 355 4561 391 4170 327 3915 3439 861 301 226 64
is_linear=0
shrinkage=0.05


Tree=5
num_leaves=31
num_cat=0
split_feature=11 12 12 13 14 14 14 27 9 11 31 6 13 9 11 1 27 9 9 11 31 12 1 4 9 13 4 20 9 12
split_gain=210.54 93.7421 86.5573 47.2183 27.8201 21.7301 21.4479 22.6848 17.2011 15.0272 13.7266 10.8996 10.6066 10.3044 10.2349 10.1261 10.0495 9.87514 9.68956 9.34058 9.88338 8.96161 9.7488 8.77415 8.41767 8.24598 7.98712 7.97874 7.52466 7.46427
threshold=7.5000000000000009 8.5000000000000018 8.5000000000000018 9.5000000000000018 12.500000000000002 10.500000000000002 6.5000000000000009 0.49500000000000005 541.50000000000011 5.5000000000000009 8.5000000000000018 6.5000000000000009 11.500000000000002 538.50000000000011 2.5000000000000004 1440257400.0000002 0.45500000000000007 542.50000000000011 491.50000000000006 12.500000000000002 5.5000000000000009 2.5000000000000004 1505933550.0000002 494.50000000000006 47.500000000000007 6.5000000000000009 20446.000000000004 336.50000000000006 631.50000000000011 6.5000000000000009
decision_type=2 2 2 2 2 2 2 2 2 2 2 2 2 2 2 2 2 2 2 2 2 2 2 2 2 2 2 2 2 2
left_child=1 6 3 10 8 28 7 15 12 13 17 19 -4 21 -8 -1 -6 18 -2 20 -5 -9 24 -11 -23 -12 29 -25 -3 -16
right_child=2 5 4 11 16 -7 14 9 -10 23 25 -13 -14 -15 26 -17 -18 -19 -20 -21 -22 22 -24 27 -26 -27 -28 -29 -30 -31
leaf_value=-0.033564205104703197 0.01146199882715526 -0.012164589863644069 0.0017283562217853665 0.034734574529133394 -0.032967140289650435 -0.028263278541460258 -0.020757951719067757 0.0053216485797818588 -0.02634801073539619 0.054419510260071219 -0.022749783428460828 -0.0055482578463306046 0.01783159553847918 -0.022605586739429726 -0.00086178321198103708 0.009084897165527725 -0.0076035882084904902 -0.0034811000039445361 0.024768947276510772 0.039859858133914655 0.019486275949349038 0.041377408940848466 -0.014697431274786 0.00035688608278341678 -0.0018738661701649282 0.0044638859351330586 0.03736185415461421 0.024068328765423082 -0.029480446704245059 -0.011872341973523812
leaf_weight=13.252695024013518 404.66945093870163 623.72338098287582 419.38829004764557 195.19490027427673 78.028032749891281 432.06258818507195 146.29360836744308 135.24955451488495 44.421005189418793 7.4016041457653037 38.629878431558609 21.514940410852432 134.33888393640518 108.08103257417679 284.92100539803505 665.82618176937103 78.751105070114136 72.204479187726974 208.71705427765846 187.4717430472374 245.46165701746941 12.205057203769682 258.28398862481117 350.51035118103027 75.465140461921692 92.737683027982712 9.4228155016899091 38.477392017841339 69.544112712144852 334.22094482183456
leaf_count=24 1028 1593 1075 488 194 1087 361 320 114 18 98 54 336 268 721 1664 199 184 533 464 611 28 663 887 186 235 23 98 175 856
internal_value=-1.15579e-06 -0.00752937 0.0120775 0.0191545 -0.00167819 -0.0194605 -0.00202013 0.00117905 0.00324316 -0.00366449 0.0111329 0.0292094 0.00566024 -0.00872201 -0.0088861 0.00820444 -0.0203558 0.0139667 0.0160229 0.0304069 0.0263041 -0.00556327 -0.00982177 0.00385721 0.00454612 -0.00364996 -0.00609444 0.00275805 -0.0139416 -0.00681499
internal_weight=5786.47 3564.94 2221.53 1466.6 754.927 1125.33 2439.61 1664.75 598.148 985.674 816.959 649.643 553.727 589.285 774.858 679.079 156.779 685.591 613.387 628.128 440.657 481.204 345.954 396.389 87.6702 131.368 628.565 388.988 693.267 619.142
internal_count=14585 8972 5613 3695 1918 2855 6117 4156 1525 2468 2078 1617 1411 1465 1961 1688 393 1745 1561 1563 1099 1197 877 1003 214 333 1600 985 1768 1577
is_linear=0
shrinkage=0.05


Tree=6
num_leaves=31
num_cat=0
split_feature=14 11 12 11 12 14 13 11 11 16 14 28 11 22 12 16 10 1 9 10 28 9 11 16 28 28 28 10 12 10
split_gain=199.424 122.902 44.5209 34.1913 24.7908 17.8356 17.1527 15.895 14.5945 11.3197 13.0871 11.1576 9.68214 9.53931 9.51925 9.39137 8.32649 8.09641 7.84199 8.01224 7.81262 7.69632 7.39311 9.44829 8.43429 7.29773 8.40775 7.19153 7.08692 7.08004
threshold=9.5000000000000018 7.5000000000000009 6.5000000000000009 7.5000000000000009 10.500000000000002 13.500000000000002 9.5000000000000018 5.5000000000000009 4.5000000000000009 8.5000000000000018 7.5000000000000009 0.53500000000000014 11.500000000000002 2.5000000000000004 10.500000000000002 7.5000000000000009 542.50000000000011 1486222650.0000002 727.50000000000011 81.500000000000014 0.43500000000000005 631.50000000000011 3.5000000000000004 9.5000000000000018 0.52500000000000013 0.52500000000000013 0.51500000000000012 169.50000000000003 9.5000000000000018 50.500000000000007
decision_type=2 2 2 2 2 2 2 2 2 2 2 2 2 2 2 2 2 2 2 2 2 2 2 2 2 2 2 2 2 2
left_child=1 2 7 4 22 12 13 9 16 10 20 -9 -5 -3 18 -15 17 -4 19 -10 -1 -18 24 -24 -2 26 -19 -11 -27 -22
right_child=3 6 8 5 -6 -7 -8 11 14 27 -12 -13 -14 15 -16 -17 21 25 -20 -21 29 -23 23 -25 -26 28 -28 -29 -30 -31
leaf_value=0.012638063647476229 0.04952652322159954 0.0075902807539866782 0.0026960529651928423 0.0076473990653809845 0.036026544379541219 0.02669195186430795 -0.022822370900280949 -0.007096525216708973 0.010685535532526958 0.0001593738912085606 0.040319163969053072 -0.02457864860604432 -0.011777259131614329 -0.0089044277606127303 0.020828002159026998 -0.020141899355558372 -0.011913218684749684 0.025641916117702852 0.031106122781237394 -0.003962996946758543 0.017658451688687012 0.024341944194759345 0.016362060721392742 -0.009338641950026717 0.017374631523467115 0.0078125891249835513 0.067456367714837429 -0.013239392239321796 0.027313600076827871 -0.0038107221806895166
leaf_weight=143.87057253718376 29.915767312049866 57.818502694368362 70.391958743333817 239.8524307012558 328.93013346195221 98.277193367481232 633.94758841395378 384.83214417099953 127.28783932328224 199.99084103107452 23.488845318555832 119.26157110929489 86.471384227275848 474.40174204111099 71.165828466415405 308.1535564661026 46.505698442459106 140.9053170979023 20.214475452899933 341.745431214571 42.833072155714035 20.158186227083206 173.09213045239449 44.299810498952866 65.843384981155396 129.55917075276375 12.727803111076353 199.54518193006516 72.858119547367096 309.07034230232239
leaf_count=395 80 121 204 696 920 276 1885 1133 370 588 67 348 254 1438 208 943 135 406 60 994 118 54 499 124 184 371 36 594 209 875
internal_value=-5.17782e-06 -0.00518553 0.00161977 0.0191685 0.0264418 0.00813349 -0.0166097 -0.004148 0.00940631 -0.000230896 0.00463359 -0.011273 0.00247987 -0.0119016 0.00387503 -0.0133496 0.015672 0.0182354 0.0013716 2.66474e-05 0.00286512 -0.00075246 0.0162915 0.011106 0.0278271 0.0212914 0.0295199 -0.00654888 0.0149316 -0.0011549
internal_weight=5017.42 3950.73 2476.41 1066.68 642.081 424.601 1474.32 1422.89 1053.52 918.799 519.263 504.094 326.324 840.374 560.414 782.555 493.106 426.442 489.248 469.033 495.774 66.6639 313.151 217.392 95.7592 356.05 153.633 399.536 202.417 351.903
internal_count=14585 11552 7165 3033 1807 1226 4387 4118 3047 2637 1455 1481 950 2502 1632 2381 1415 1226 1424 1364 1388 189 887 623 264 1022 442 1182 580 993
is_linear=0
shrinkage=0.05


Tree=7
num_leaves=31
num_cat=0
split_feature=31 11 10 1 6 12 0 6 6 22 10 9 19 20 28 4 28 18 19 9 10 10 9 14 0 0 11 1 28 14
split_gain=8.2425 9.65139 9.88491 8.9196 8.97512 7.5943 6.882 6.27252 5.74176 5.60182 6.29091 5.55886 5.37908 12.2902 6.29091 5.84235 6.59248 8.25556 6.05078 5.57175 6.15173 7.95765 5.15745 4.90229 4.86769 4.55579 6.51894 5.33565 5.7987 5.23529
threshold=8.5000000000000018 9.5000000000000018 494.50000000000006 1695476700.0000002 4.5000000000000009 7.5000000000000009 9729.5000000000018 7.5000000000000009 7.5000000000000009 33.500000000000007 98.500000000000014 529.50000000000011 55.500000000000007 308.50000000000006 0.74500000000000011 941.00000000000011 0.63500000000000012 263.50000000000006 110.50000000000001 50.500000000000007 84.500000000000014 86.000000000000014 538.50000000000011 1.0000000180025095e-35 718449.50000000012 20658.500000000004 6.5000000000000009 1673463600.0000002 0.43500000000000005 9.5000000000000018
decision_type=2 2 2 2 2 2 2 2 2 2 2 2 2 2 2 2 2 2 2 2 2 2 2 2 2 2 2 2 2 2
left_child=1 2 8 25 -5 -3 -2 -6 9 12 -11 -8 14 24 19 16 -15 -18 -17 23 -21 -22 -13 -1 -14 -4 27 29 -29 -27
right_child=6 5 3 4 7 -7 11 -9 -10 10 -12 22 13 15 -16 18 17 -19 -20 20 21 -23 -24 -25 -26 26 -28 28 -30 -31
leaf_value=0.033737947204302524 -0.012418762144542716 -0.010257519597975941 -0.0065213107198984419 -0.015905352845903168 0.020318296533432763 -0.00037196172539416913 0.0043473521992357291 -0.0083839293792209654 -0.019153387024987555 -0.0038032028339158789 -0.026006027991859512 0.028936649129040343 0.059956215003881354 -0.019633178599192933 -0.025246765245474645 0.047275647004778702 -0.018323646514756587 0.048568870074577171 -0.012685704333001145 0.0062823067113618241 -0.03400300291878728 -0.0009367949197792943 0.0075201520656478053 -0.0079195160460095847 0.019283498473167113 0.010949261294872115 -0.0027844193017554138 0.023595062182708227 -0.018652545544199439 -0.0036196081291891939
leaf_weight=6.2612773180007926 49.76499605178833 431.01531046628952 132.5904820561409 22.411692053079605 165.29494899511337 353.1855221092701 470.84724116325378 20.944739788770676 45.385198265314102 106.0382454097271 44.905486881732941 47.994987964630127 8.0400522053241712 49.246755212545395 26.108229607343674 9.019092530012129 8.3291445970535296 8.3370685279369336 6.6599108278751364 339.16345083713531 17.590959250926971 859.11099952459335 68.296555161476135 300.01544818282127 53.001267582178116 373.61149054765701 267.4061798453331 9.5349784493446332 35.397621631622314 73.307604849338531
leaf_count=15 170 1442 451 76 550 1185 1561 69 146 378 160 153 26 161 86 29 26 26 21 1115 58 2812 224 991 177 1215 878 31 114 239
internal_value=1.02634e-05 -0.000878488 0.000417802 0.00418189 0.0134627 -0.00581144 0.00526681 0.0170629 -0.00177822 -0.00133991 -0.0105362 0.00678438 -0.000513229 0.0087436 -0.00137111 -0.0039649 -0.0105205 0.0159936 0.0225726 -0.000945283 0.000574521 -0.00163825 0.0165304 -0.00696088 0.0255207 0.00199796 0.00349232 0.00690354 -0.00936883 0.0085568
internal_weight=4408.82 3771.91 2987.71 1100.5 208.651 784.201 636.904 186.24 1887.21 1841.83 150.944 587.139 1690.88 142.633 1548.25 81.592 65.913 16.6662 15.679 1522.14 1215.87 876.702 116.292 306.277 61.0413 891.848 759.258 491.852 44.9326 446.919
internal_count=14585 12477 9850 3623 695 2627 2108 619 6227 6081 538 1938 5543 466 5077 263 213 52 50 4991 3985 2870 377 1006 203 2928 2477 1599 145 1454
is_linear=0
shrinkage=0.05


Tree=8
num_leaves=31
num_cat=0
split_feature=11 12 12 13 14 11 14 9 31 9 31 18 15 27 11 10 9 6 20 27 13 27 10 13 15 14 9 10 32 13
split_gain=190.686 84.4267 77.9234 42.2664 24.9519 19.9227 19.776 15.804 15.2745 15.2852 12.521 11.9889 11.1814 10.4792 10.1635 9.97623 12.84 9.80756 9.7577 9.50275 9.4276 9.4196 9.10739 9.02021 8.36197 8.70548 8.11214 7.96469 7.87045 7.72869
threshold=7.5000000000000009 8.5000000000000018 8.5000000000000018 9.5000000000000018 12.500000000000002 2.5000000000000004 10.500000000000002 541.50000000000011 7.5000000000000009 50.500000000000007 8.5000000000000018 182.50000000000003 4.5000000000000009 0.44500000000000006 14.000000000000002 95.500000000000014 542.50000000000011 6.5000000000000009 300.50000000000006 0.48500000000000004 11.500000000000002 0.45500000000000007 499.50000000000006 6.5000000000000009 7.5000000000000009 4.5000000000000009 50.500000000000007 631.50000000000011 5.5000000000000009 6.5000000000000009
decision_type=2 2 2 2 2 2 2 2 2 2 2 2 2 2 2 2 2 2 2 2 2 2 2 2 2 2 2 2 2 2
left_child=1 5 3 10 7 19 27 20 11 -10 15 12 -7 -11 17 26 -17 18 24 -1 22 -6 -4 -14 -5 -26 -2 28 -3 -12
right_child=2 6 4 14 21 8 -8 -9 9 13 29 -13 23 -15 -16 16 -18 -19 -20 -21 -22 -23 -24 -25 25 -27 -28 -29 -30 -31
leaf_value=-0.0037990130084589423 0.015660878570074446 -0.018750752764500899 -0.0024480704880955858 0.026516186705815958 -0.031594545464401401 0.017270862828695697 -0.026967652354189922 -0.025372514177965336 0.012317956328597675 0.015017885161095796 -0.022063793648573499 -0.0120604159141226 -0.00058281598862484592 -0.014934369734074535 0.044203514767930614 0.020968106337064238 -0.0027544310118633565 -0.0087780074885791797 0.03993011323514796 -0.018022605306626284 0.016826679189474929 -0.0069861741190711301 0.014815558375590454 0.0083286838173793065 0.034087745290281329 -0.00045984974562303496 -0.0033454164071715733 0.011252228053168884 -0.0074928584455790162 0.0043068621663114566
leaf_weight=227.00660532712936 96.439593374729156 405.97028931975365 320.20626890659332 351.74883621931076 77.464653015136719 140.35674768686295 429.16092294454575 44.210972458124161 75.592676907777786 31.245730727910995 38.517605721950531 126.8677424788475 836.79350510239601 328.32147321105003 82.115168809890747 392.2826826274395 66.463486552238464 20.027891993522644 108.98461973667145 243.76757419109344 134.75032818317413 78.543609440326691 99.251986980438232 428.71971508860588 24.351061195135117 64.865236312150955 131.80104684829712 30.918772906064987 254.31297287344933 92.783153057098389
leaf_count=556 246 1035 820 873 194 341 1087 114 193 79 98 321 2137 834 205 998 169 50 271 589 336 199 255 1067 60 158 332 76 657 235
internal_value=-3.33207e-06 -0.00718066 0.0114763 0.0181753 -0.00158678 -0.0019585 -0.0185357 0.00306307 0.000253672 -0.00800276 0.0105876 0.00260145 0.00393219 -0.0122971 0.0276661 0.0132885 0.0175327 0.0252103 0.0264618 -0.0111866 0.00537308 -0.0193287 0.00166236 0.00244034 0.0230503 0.00924304 0.00471869 -0.0132691 -0.0144326 -0.00353737
internal_weight=5783.84 3559.03 2224.81 1470.38 754.428 2438.67 1120.36 598.42 1967.9 435.16 818.288 1532.74 1405.87 359.567 652.093 686.987 458.746 569.978 549.95 470.774 554.209 156.008 419.458 1265.51 440.965 89.2163 228.241 691.202 660.283 131.301
internal_count=14585 8972 5613 3695 1918 6117 2855 1525 4972 1106 2078 3866 3545 913 1617 1745 1167 1412 1362 1145 1411 393 1075 3204 1091 218 578 1768 1692 333
is_linear=0
shrinkage=0.05


Tree=9
num_leaves=31
num_cat=0
split_feature=14 11 14 11 11 14 16 11 16 14 16 14 15 11 6 11 27 10 27 19 1 27 10 17 20 16 10 20 18 0
split_gain=179.653 111.812 33.9417 29.7179 21.8215 15.7066 14.9446 14.4046 12.0715 11.134 12.9852 10.7994 10.6143 9.34853 9.16708 8.88663 8.48404 9.0758 8.30059 8.28386 8.22034 8.13275 8.23268 8.11118 8.10348 7.68355 7.34187 6.65781 7.32626 6.44061
threshold=9.5000000000000018 7.5000000000000009 4.5000000000000009 7.5000000000000009 4.5000000000000009 13.500000000000002 3.5000000000000004 10.500000000000002 8.5000000000000018 7.5000000000000009 4.5000000000000009 18.500000000000004 5.5000000000000009 1.0000000180025095e-35 7.5000000000000009 11.500000000000002 0.50500000000000012 104.00000000000001 0.57500000000000007 40.500000000000007 1485098100.0000002 0.45500000000000007 92.500000000000014 85.500000000000014 292.50000000000006 7.5000000000000009 169.50000000000003 408.50000000000006 203.50000000000003 731962.50000000012
decision_type=2 2 2 2 2 2 2 2 2 2 2 2 2 2 2 2 2 2 2 2 2 2 2 2 2 2 2 2 2 2
left_child=1 2 13 6 8 15 12 14 20 21 -11 24 -2 -1 25 -5 17 -10 -16 -12 -4 22 -6 -21 -8 -3 -27 28 -22 -7
right_child=3 7 4 5 9 29 11 -9 16 10 19 -13 -14 -15 18 -17 -18 -19 -20 23 27 -23 -24 -25 -26 26 -28 -29 -30 -31
leaf_value=0.013476040188581107 0.010126549800261444 -0.009084188458093936 0.0011240616442802739 0.0073842810363340776 0.0022851248412811293 0.033205683041729057 0.016096249451755099 -0.02254926025559352 0.011690202243783549 0.026991052697156338 -0.0014799205944441695 0.072323972290217614 0.046600002407265695 -0.0084867306649747728 -0.0062271587638070194 -0.011267369045113315 0.010732649234727965 -0.019681307489595963 0.054102410678844748 -0.01728920937879393 0.017920972898766561 6.2763388809052563e-05 -0.02022561440605081 0.043000403738646636 0.03074808388002085 -0.011103315449804099 -0.02520433649036153 0.045690739057374946 -0.010133422863744013 0.0051897239530613939
leaf_weight=50.970147222280502 25.240146726369858 535.55478176474571 87.698643177747726 240.48054164648056 61.215982675552368 70.176495552062988 381.10853269696236 526.78794819116592 34.042151153087616 68.841941654682159 192.20334479212761 9.1514713168144208 107.45510977506638 737.81017789244652 13.262498527765276 85.855268388986588 112.93411722779274 67.110747218132019 8.7679585218429548 6.9408947527408626 450.58953893184662 426.06691816449165 118.61266329884529 20.244357109069824 127.56055271625519 180.67463362216949 193.85337048768997 19.754638701677322 23.919149875640869 29.410276144742966
leaf_count=118 67 1597 253 696 180 195 1059 1594 101 199 563 25 301 2133 40 254 333 197 25 21 1292 1249 344 59 355 542 589 56 67 81
internal_value=-8.98469e-06 -0.00495786 0.00150639 0.0180829 0.00550239 0.00779021 0.0247998 -0.0159354 0.0115179 0.000139804 0.00821285 0.0208891 0.03979 -0.00705225 -0.0121774 0.00245781 0.00135739 -0.00911241 0.0190902 0.0022247 0.015247 -0.00370783 -0.0125924 0.0275401 0.0198237 -0.0129544 -0.0184496 0.0177455 0.0164885 0.0250658
internal_weight=5014.29 3937.86 2478.96 1076.44 1690.18 425.923 650.516 1458.9 796.049 894.126 288.231 517.821 132.695 788.78 932.113 326.336 214.087 101.153 22.0305 219.389 581.962 605.896 179.829 27.1853 508.669 910.083 374.528 494.263 474.509 99.5868
internal_count=14585 11552 7165 3033 4914 1226 1807 4387 2299 2615 842 1439 368 2251 2793 950 631 298 65 643 1668 1773 524 80 1414 2728 1131 1415 1359 276
is_linear=0
shrinkage=0.05


Tree=10
num_leaves=31
num_cat=0
split_feature=13 27 16 22 4 12 15 31 17 0 27 0 0 12 27 27 11 31 31 10 4 14 0 10 19 27 0 15 32 15
split_gain=18.6711 10.4999 9.63996 7.70556 5.76747 5.62244 6.42911 5.99943 5.57084 6.01326 5.5035 5.33988 5.50304 4.92497 5.70477 4.89103 5.80112 4.19903 4.1767 6.07866 6.6035 4.27547 4.07784 5.23713 5.33189 7.19147 5.7684 9.20299 4.8803 6.25916
threshold=9.5000000000000018 0.51500000000000012 9.5000000000000018 35.500000000000007 910.50000000000011 6.5000000000000009 9.5000000000000018 10.500000000000002 260.00000000000006 9876.0000000000018 0.70500000000000007 608487.00000000012 35671.500000000007 9.5000000000000018 0.63500000000000012 0.44500000000000006 2.5000000000000004 2.5000000000000004 7.5000000000000009 115.00000000000001 597.50000000000011 9.5000000000000018 17548.500000000004 538.50000000000011 -7.4999999999999991 0.35500000000000004 214089.50000000003 6.5000000000000009 6.5000000000000009 2.5000000000000004
decision_type=2 2 2 2 2 2 2 2 2 2 2 2 2 2 2 2 2 2 2 2 2 2 2 2 2 2 2 2 2 2
left_child=1 3 8 4 -1 6 17 -7 9 -3 13 12 -8 14 -9 -5 -17 -2 19 20 -4 -20 -6 28 -25 -26 27 -27 29 -24
right_child=5 2 18 15 22 7 11 10 -10 -11 -12 -13 -14 -15 -16 16 -18 -19 21 -21 -22 -23 23 24 25 26 -28 -29 -30 -31
leaf_value=-0.0017062113689556646 -0.032814624759704612 -0.0053551848610199982 -0.013791044467471156 -0.022097665500542749 -0.013213311857403454 -0.0047470148382875652 0.012714295058366833 0.011896460693672308 -0.015234250988633983 0.0082808585729570918 -0.016543233209510563 0.024746783541332251 -0.039548014358853023 -1.21865329093034e-05 0.067462397499494703 0.041785413084804664 -0.0081517796851368531 -0.011801511637432007 0.0020158957373927781 -0.012850766672328701 0.014773344439741393 0.036430809243938038 -0.02529774025091272 0.013286981530908695 0.019921794985866326 -0.022865533491054545 -0.019204323810110391 0.0495016071036921 -0.0002902678903074915 0.015121447384656506
leaf_weight=1391.9731667935848 25.229601413011551 86.569582551717758 31.575927555561066 66.113925188779831 29.356670320034027 429.54551821947098 10.271456867456438 9.5531971156597191 27.206818550825119 1102.9760474264622 9.5563373863697034 20.614459544420242 8.2554810643196088 11.766310542821882 9.0024605393409711 5.8959007263183585 36.129598826169968 309.20333567261696 116.19158017635345 143.63899073004723 52.537201136350632 8.7994110286235792 9.1442319452762586 40.747578740119934 18.604223638772964 8.0117636620998365 75.302993357181549 7.6968859136104575 92.496261566877365 213.85496246814728
leaf_count=4603 85 292 104 236 99 1425 31 31 91 3617 32 66 28 37 29 21 129 1035 387 486 176 28 27 134 61 25 244 24 309 693
internal_value=1.94655e-05 0.0016023 0.00466057 -0.000804425 -5.73627e-05 -0.00666789 -0.0112379 -0.00301486 0.0067692 0.00728483 0.0153026 0.00777654 -0.0114062 0.0255469 0.040926 -0.0137218 -0.000337573 -0.0134798 -0.00261152 -0.00663187 0.00401427 0.00470864 0.00457139 0.00571802 -0.00195322 -0.00768737 -0.0134863 0.0134332 0.00936871 0.0133585
internal_weight=4407.82 3564.82 1569.5 1995.33 1887.19 842.998 373.574 469.424 1216.75 1189.55 39.8783 39.1414 18.5269 30.322 18.5557 108.139 42.0255 334.433 352.743 227.752 84.1131 124.991 495.216 465.859 150.363 109.616 91.0116 15.7086 315.495 222.999
internal_count=14585 11786 5181 6605 6219 2799 1245 1554 4000 3909 129 125 59 97 60 386 150 1120 1181 766 280 415 1616 1517 488 354 293 49 1029 720
is_linear=0
shrinkage=0.05


Tree=11
num_leaves=31
num_cat=0
split_feature=11 12 12 13 12 27 9 13 12 16 31 15 13 11 22 10 4 9 2 11 15 12 20 13 4 31 11 10 16 13
split_gain=170.772 77.3276 70.3265 38.4259 32.8096 17.4842 17.4752 15.698 15.2247 12.2458 11.4744 10.7535 11.9388 9.45848 9.34951 9.26773 14.2742 11.9399 8.84665 8.70678 10.7649 9.53528 10.3258 8.68336 8.99107 8.00742 7.70115 7.47289 7.43676 7.19965
threshold=7.5000000000000009 6.5000000000000009 8.5000000000000018 9.5000000000000018 10.500000000000002 0.50500000000000012 541.50000000000011 4.5000000000000009 12.500000000000002 8.5000000000000018 8.5000000000000018 9.5000000000000018 6.5000000000000009 14.000000000000002 12.500000000000002 95.500000000000014 559.00000000000011 542.50000000000011 1661696250.0000002 1.0000000180025095e-35 5.5000000000000009 2.5000000000000004 357.50000000000006 12.500000000000002 737.00000000000011 5.5000000000000009 5.5000000000000009 499.50000000000006 9.5000000000000018 6.5000000000000009
decision_type=2 2 2 2 2 2 2 2 2 2 2 2 2 2 2 2 2 2 2 2 2 2 2 2 2 2 2 2 2 2
left_child=1 5 3 10 11 19 8 -7 23 26 15 12 -3 25 -11 16 -2 -17 -10 -1 -21 -22 -23 27 -25 -5 -9 28 -4 -12
right_child=2 4 6 13 -6 7 -8 9 18 14 29 -13 -14 -15 -16 17 -18 -19 -20 20 21 22 -24 24 -26 -27 -28 -29 -30 -31
leaf_value=-0.014429753553076054 0.023459547815763978 -0.010016093587712292 -0.0031793561128672918 0.030624766819098849 -0.024563266368343599 -0.011654645496673929 -0.027821337971453045 -0.015109162991519647 -0.021913105551698606 -0.0034672055646252859 -0.021473095093769934 -0.016684026322779499 0.0030020578100627224 0.04215220090015994 0.015038623738172685 0.01993543864246029 -0.0037998224080483174 -0.0029271434535529327 0.004561053413497251 0.022096158519565062 0.018993073466561709 0.0043363360679552548 -0.023990384333697708 0.028471159034409044 -0.0052140354712644351 0.018545261201121235 0.0015570334269999586 0.013300235875260342 0.037946448153467288 0.0040002237980578011
leaf_weight=45.15228682756424 67.263055622577667 720.69296479225159 343.79799747467041 249.62784937024117 515.36068433523178 367.55015441775322 57.506398946046829 125.45750084519386 100.29719322919846 104.48001155257225 38.411560356616974 392.25186592340469 232.45294237136841 82.370314449071884 194.10410031676292 393.33060011267662 161.25868031382561 66.500677287578583 45.395457327365875 112.81391805410385 103.37639376521111 451.92004266381264 33.639149606227875 64.472937703132629 28.008842259645462 321.82366055250168 153.02125975489616 104.19265004992485 10.356658488512037 92.872270911931992
leaf_count=100 170 1828 876 617 1329 906 148 315 256 236 98 1002 591 205 524 998 408 169 116 273 255 1141 84 159 70 795 388 268 25 235
internal_value=-7.05081e-06 -0.00681223 0.0108437 0.0171956 -0.013843 0.00092556 -0.00157506 -0.00359322 0.000628668 0.00155264 0.00996501 -0.00972129 -0.00684141 0.0262308 0.00857314 0.0125457 0.00429095 0.0166299 -0.0136893 0.00663766 0.0080118 0.00528098 0.00232861 0.00443368 0.0183227 0.0238662 -0.00597845 0.00159748 -0.00187324 -0.00355885
internal_weight=5779.76 3552.27 2227.49 1473.46 1860.76 1691.51 754.028 944.613 696.522 577.063 819.637 1345.4 953.146 653.822 298.584 688.353 228.522 459.831 145.693 746.902 701.75 588.936 485.559 550.829 92.4818 571.452 278.479 458.347 354.155 131.284
internal_count=14585 8972 5613 3695 4750 4222 1918 2369 1770 1463 2078 3421 2419 1617 760 1745 578 1167 372 1853 1753 1480 1225 1398 229 1412 703 1169 901 333
is_linear=0
shrinkage=0.05


Tree=12
num_leaves=31
num_cat=0
split_feature=14 11 12 11 12 14 11 11 10 11 27 6 11 10 9 27 12 27 14 17 22 31 11 22 11 27 32 17 27 9
split_gain=163.013 101.595 37.4991 26.0535 19.9575 14.2026 14.0283 13.5075 12.814 11.9386 10.3456 8.62021 8.20051 7.80134 11.4322 10.5099 9.53907 7.69766 7.15183 7.52922 10.1172 8.51958 6.62801 7.10747 6.5724 7.63198 6.19359 13.3179 6.03551 6.58792
threshold=9.5000000000000018 7.5000000000000009 6.5000000000000009 7.5000000000000009 10.500000000000002 13.500000000000002 5.5000000000000009 10.500000000000002 631.50000000000011 4.5000000000000009 0.46500000000000002 7.5000000000000009 11.500000000000002 56.000000000000007 56.000000000000007 0.49500000000000005 1.5000000000000002 0.57500000000000007 5.5000000000000009 28.500000000000004 8.5000000000000018 6.5000000000000009 1.0000000180025095e-35 3.5000000000000004 3.5000000000000004 0.47500000000000003 5.5000000000000009 151.50000000000003 0.37500000000000006 546.50000000000011
decision_type=2 2 2 2 2 2 2 2 2 2 2 2 2 2 2 2 2 2 2 2 2 2 2 2 2 2 2 2 2 2
left_child=1 2 6 4 24 12 13 11 9 26 -8 -3 -5 14 -1 22 -17 -13 28 -20 -21 -22 23 -15 25 -2 -4 -28 -11 -30
right_child=3 7 8 5 -6 -7 10 -9 -10 18 -12 17 -14 15 -16 16 -18 -19 19 20 21 -23 -24 -25 -26 -27 27 -29 29 -31
leaf_value=0.0018971071715197551 0.015215458175720495 -0.012409866750967908 0.020274028385450518 0.0071160075088170698 0.031818282769309834 0.02382365520431028 -0.023606649655536226 -0.021752501201699831 -0.012629185246193284 0.027461556482813582 -0.0066529843612892344 -0.0059656449025517122 -0.010835668847191572 0.039242757350110485 0.03391933096217585 -0.012417178266019411 0.0062632300486001064 0.051917145537502943 0.0014778909779395444 0.03490062014363305 0.0012051251516744898 0.028282895110226552 -0.011236291424418779 -0.0080551561921006678 0.0094676171493874861 0.045358127689048691 0.0014363487109275623 0.035127404067974391 -0.015357429229865844 0.027296580745280935
leaf_weight=103.95504727959633 67.122453778982162 902.73056936264038 287.3348046541214 241.11513921618462 338.971336632967 100.56510335206985 117.23579692840576 519.18892177939415 66.538333296775818 10.488589167594908 382.62344810366631 13.215232849121096 85.32245796918869 13.16947451233864 37.148226380348206 83.129583865404129 363.74243864417076 8.9201080799102765 229.54653719067574 46.643227070569992 110.50279000401497 38.455715954303741 300.33176493644714 17.451337218284607 220.80329367518425 30.809260904788971 143.01967427134514 35.931009590625763 85.193268448114395 9.1964418590068799
leaf_count=294 184 2728 810 696 920 276 348 1594 190 30 1133 40 254 27 105 220 1058 25 665 109 339 118 883 50 623 80 408 102 249 27
internal_value=-1.29149e-05 -0.00475425 0.00138235 0.0171351 0.023374 0.00749337 -0.00393646 -0.0152938 0.00847941 0.00990039 -0.0106685 -0.0116485 0.00240513 -0.000266916 0.010507 -0.00223236 0.00276823 0.0185958 0.00475289 0.00763536 0.0148171 0.00833762 -0.00897246 0.0128846 0.0143221 0.025061 0.0157288 0.0083587 -0.00689362 -0.010959
internal_weight=5010.4 3925.69 2481.64 1084.71 657.706 427.003 1418.79 1444.05 1062.85 996.312 499.859 924.866 326.438 918.928 141.103 777.825 446.872 22.1353 530.027 425.148 195.602 148.959 330.953 30.6208 318.735 97.9317 466.285 178.951 104.878 94.3897
internal_count=14585 11552 7165 3033 1807 1226 4118 4387 3047 2857 1481 2793 950 2637 399 2238 1278 65 1537 1231 566 457 960 77 887 264 1320 510 306 276
is_linear=0
shrinkage=0.05


Tree=13
num_leaves=31
num_cat=0
split_feature=13 27 16 9 2 16 0 18 15 11 2 17 4 19 15 20 12 15 0 0 12 27 2 20 4 11 2 9 19 10
split_gain=16.5975 9.55999 8.72731 7.39907 6.38077 7.18224 6.34519 5.41738 5.64454 10.2525 12.3746 6.59142 5.93677 7.0907 5.21778 6.48248 5.14229 5.99151 4.97804 10.1874 8.79991 7.51189 6.88199 7.24558 9.65546 6.89967 6.50578 6.22793 6.08367 5.74978
threshold=9.5000000000000018 0.51500000000000012 9.5000000000000018 86.000000000000014 1505933550.0000002 6.5000000000000009 1213790.0000000002 95.500000000000014 9.5000000000000018 6.5000000000000009 1664713800.0000002 110.50000000000001 19939.500000000004 -34.499999999999993 2.5000000000000004 263.50000000000006 6.5000000000000009 9.5000000000000018 9876.0000000000018 209083.50000000003 6.5000000000000009 0.7350000000000001 1600627950.0000002 51.500000000000007 886.50000000000011 3.5000000000000004 1593022950.0000002 499.50000000000006 85.500000000000014 538.50000000000011
decision_type=2 2 2 2 2 2 2 2 2 2 2 2 2 2 2 2 2 2 2 2 2 2 2 2 2 2 2 2 2 2
left_child=1 7 3 6 5 -5 -3 -1 12 10 11 -10 -9 -14 15 -6 17 -2 -16 20 -20 22 26 24 -24 28 27 -21 -25 -29
right_child=16 2 -4 4 14 -7 -8 8 9 -11 -12 -13 13 -15 18 -17 -18 -19 19 21 -22 -23 23 25 -26 -27 -28 29 -30 -31
leaf_value=-0.002575943405233554 -0.012888474356990257 0.0016528275496145871 -0.0025015097648509337 0.0090707247964483175 -0.017487136563864792 -0.010409625056600421 -0.034776386313051001 -0.0012697081480640649 0.057011119538867276 0.05352980432042044 -0.003264126261833639 0.01613013151832016 0.064139476078172344 0.0065554378977031869 -0.0023217293362055099 0.023921927904611118 -0.0028063554436511488 0.0076249646728117799 0.04169403419639095 -0.022469104484831387 0.013284502772441253 0.051696251113709658 -0.00057820669900222616 0.018733374035996665 0.057984316310395946 0.0065623731760353883 -0.032980169234121025 0.040712373503670463 0.068085044592200647 -0.0021372988438691644
leaf_weight=1352.7307884991169 330.57861676812172 349.30463716387749 352.10445040464401 111.85134395956993 31.098472267389297 80.483669549226761 11.375639140605925 440.71654796600342 11.968817383050917 11.92745980620384 103.78182551264763 47.502183824777603 6.5325675904750851 19.365657895803452 52.286117881536484 12.428861886262892 467.83245298266411 39.217461735010147 53.789487898349762 14.503035962581633 57.001111418008804 9.832081586122511 11.355290472507479 60.936547100543976 17.430345892906189 296.09487751126289 15.534545004367827 12.652943104505541 6.240297019481658 18.132493019104004
leaf_count=4483 1120 1153 1181 336 100 268 34 1458 37 40 354 149 21 63 182 42 1554 125 179 48 191 30 34 199 53 986 48 40 20 57
internal_value=3.07021e-05 0.00151764 0.00442897 0.00642578 0.00894017 0.000907384 0.000410896 -0.000781572 0.0029986 0.0106238 0.00718217 0.0251643 0.000119307 0.022925 0.0112437 -0.00539143 -0.00629909 -0.0106983 0.0124075 0.0137521 0.0273271 0.0104498 0.00944238 0.011867 0.0356389 0.00989065 -0.00612554 0.00359944 0.0242492 0.0162009
internal_weight=4406.59 3568.96 1574.44 1222.33 861.652 192.335 360.68 1994.53 641.795 175.18 163.253 59.471 466.615 25.8982 669.317 43.5273 837.629 369.796 625.789 573.503 110.791 462.712 452.88 392.057 28.7856 363.272 60.823 45.2885 67.1768 30.7854
internal_count=14585 11786 5181 4000 2813 604 1187 6605 2122 580 540 186 1542 84 2209 142 2799 1245 2067 1885 370 1515 1485 1292 87 1205 193 145 219 97
is_linear=0
shrinkage=0.05


Tree=14
num_leaves=31
num_cat=0
split_feature=11 12 12 13 12 9 31 12 11 16 9 31 11 6 10 10 1 13 4 31 11 1 9 10 4 10 31 9 10 16
split_gain=152.906 69.9265 63.5433 34.777 29.9512 16.3354 14.1632 13.9465 12.8714 11.4019 11.1626 10.6555 9.60055 9.18217 8.89973 8.55726 8.19257 7.96584 8.38299 7.77697 7.78984 7.64911 7.59327 9.76958 8.55987 9.52787 7.10266 7.07158 6.90653 6.95683
threshold=7.5000000000000009 6.5000000000000009 8.5000000000000018 9.5000000000000018 10.500000000000002 541.50000000000011 5.5000000000000009 12.500000000000002 1.0000000180025095e-35 8.5000000000000018 508.50000000000006 9.5000000000000018 4.5000000000000009 6.5000000000000009 61.000000000000007 727.50000000000011 1661696250.0000002 12.500000000000002 737.00000000000011 5.5000000000000009 10.500000000000002 1571505300.0000002 542.50000000000011 505.50000000000006 559.00000000000011 81.500000000000014 8.5000000000000018 504.50000000000006 499.50000000000006 9.5000000000000018
decision_type=2 2 2 2 2 2 2 2 2 2 2 2 2 2 2 2 2 2 2 2 2 2 2 2 2 2 2 2 2 2
left_child=1 6 3 11 12 7 8 17 -1 14 27 15 21 19 -10 22 -9 28 -19 -5 -21 -3 23 24 -2 -26 -27 -8 29 -4
right_child=2 4 5 13 -6 -7 10 16 9 -11 -12 -13 -14 -15 -16 -17 -18 18 -20 20 -22 -23 -24 -25 25 26 -28 -29 -30 -31
leaf_value=-0.019510808326311579 0.023999265382447225 -0.007313862516817842 -0.0031268729501226569 0.032464268105229184 -0.023455340698513214 -0.027008616899216312 -0.0013462139662960356 -0.021112930469347761 -0.015649646907377631 0.012616949839099841 -0.014236440339661422 -0.0066794367459862619 -0.0052807724548778684 -0.0069166990655396918 0.00397808653764748 0.033945889829771668 0.0043759347597325804 0.027261214588275115 -0.0052469851063562363 0.011846852112180079 0.026943265626823743 -0.018543676122782776 -0.0054533600764917001 0.0237097239091048 -0.0081832247311698584 0.011649232469275995 -0.020300552351442867 0.037593269867790949 0.01271705791302508 0.036577143982816508
leaf_weight=49.396419823169708 74.4737748503685 266.36395207047462 343.68519964814186 268.74305763840675 511.61086514592171 57.222348570823669 559.76087018847466 99.853671759366989 66.480493366718292 404.77884086966515 200.15404602885246 90.953526049852371 718.38662797212601 21.593291789293289 399.8165131509304 39.007684856653214 45.423707723617554 64.651919960975647 28.005827039480209 142.77780532836914 221.86868831515312 357.4438653588295 70.025962650775909 135.04611352086067 94.871081829071045 298.71222996711731 17.572898000478745 10.907162219285963 104.36794528365135 10.399875491857527
leaf_count=108 188 677 876 665 1329 148 1398 256 164 1028 504 230 1834 54 993 97 116 159 70 353 545 910 178 340 241 759 45 27 268 25
internal_value=-1.22244e-05 -0.00646368 0.0102456 0.0162749 -0.0131683 -0.00156632 0.000888652 0.000560014 0.00507324 0.00648811 -0.00410845 0.00939964 -0.00923265 0.0248617 0.00115224 0.0114102 -0.0131679 0.00419611 0.0174845 0.0259543 0.0210808 -0.013768 0.0100902 0.0118499 0.00850987 0.00565281 0.00981571 -0.000537506 0.00147819 -0.001861
internal_weight=5774.36 3545.1 2229.26 1475.65 1853.81 753.61 1691.29 696.388 920.472 871.076 770.822 820.663 1342.19 654.983 466.297 729.71 145.277 551.111 92.6577 633.39 364.646 623.808 690.702 620.676 485.63 411.156 316.285 570.668 458.453 354.085
internal_count=14585 8972 5613 3695 4750 1918 4222 1770 2293 2185 1929 2078 3421 1617 1157 1848 372 1398 229 1563 898 1587 1751 1573 1233 1045 804 1425 1169 901
is_linear=0
shrinkage=0.05


Tree=15
num_leaves=31
num_cat=0
split_feature=14 11 12 11 12 11 14 6 11 10 11 16 14 28 11 16 10 28 1 14 17 22 31 16 10 12 1 19 32 11
split_gain=148.002 92.3529 33.4686 22.8892 17.4374 13.1546 12.8641 12.7344 12.5211 11.9026 10.703 10.0311 11.6274 9.83444 7.56596 7.18478 6.97863 6.93651 6.65504 6.60813 7.00024 9.25388 7.88633 7.81953 6.42286 6.28706 6.2508 6.1616 6.09829 7.75006
threshold=9.5000000000000018 7.5000000000000009 6.5000000000000009 7.5000000000000009 10.500000000000002 5.5000000000000009 13.500000000000002 7.5000000000000009 10.500000000000002 631.50000000000011 4.5000000000000009 8.5000000000000018 7.5000000000000009 0.53500000000000014 11.500000000000002 7.5000000000000009 169.50000000000003 0.43500000000000005 1486222650.0000002 5.5000000000000009 28.500000000000004 8.5000000000000018 6.5000000000000009 4.5000000000000009 169.50000000000003 8.5000000000000018 1737311850.0000002 -1.0000000180025095e-35 2.5000000000000004 3.5000000000000004
decision_type=2 2 2 2 2 2 2 2 2 2 2 2 2 2 2 2 2 2 2 2 2 2 2 2 2 2 2 2 2 2
left_child=1 2 5 4 -2 11 14 8 15 10 18 12 17 -7 -5 -3 -17 28 -4 -12 23 -22 -23 -21 27 -10 -26 -13 -1 -30
right_child=3 7 9 6 -6 13 -8 -9 25 -11 19 24 -14 -15 -16 16 -18 -19 -20 20 21 22 -24 -25 26 -27 -28 -29 29 -31
leaf_value=-0.0017467165265826546 0.013605275590167788 -0.0081356556519722439 0.0010600069078949149 0.0068551155335622562 0.029883969530042562 -0.0064033798775350653 0.022665835670274428 0.014047848853236025 -0.024645392569701573 -0.012429233766420543 -0.0067754404853209611 0.015481780196317758 0.037619317052555563 -0.023007125375174672 -0.010420812480468835 -0.010070335820727713 -0.023941283592241572 -0.0011405254959781152 0.017370441028278762 0.014015804234438628 0.033143243084104386 0.0010077356354368488 0.026946567193311372 -0.0053483781067875267 -0.01435374915733233 -0.010472849725095842 0.030209462928095638 -0.0048386863555407271 0.0047982648627958686 0.033738195417089771
leaf_weight=52.690972626209259 320.7170335650444 528.49667364358902 74.406372308731079 241.72173795104027 343.41291040182114 381.38030648231506 101.46360263228416 36.838168263435364 396.9961099922657 66.357428222894669 104.7129048705101 48.372504383325577 23.994936287403107 115.96436765789986 84.804165780544281 177.9539490044117 189.28270837664604 351.69990280270576 395.6701523065567 78.092685520648956 47.294525116682053 110.7295528948307 38.889384061098099 151.99084293842316 190.28589871525764 100.09379693865776 7.2927338480949393 151.62710985541344 46.088473498821259 46.244219779968262
leaf_count=143 887 1597 212 696 920 1133 276 109 1242 190 306 142 67 348 254 542 589 993 1108 224 109 339 118 441 573 308 21 446 118 134
internal_value=-1.78484e-05 -0.00456029 0.00126792 0.0162486 0.022055 -0.0037728 0.00720801 -0.0146796 -0.0154489 0.00794582 0.00930649 -0.000223178 0.00433974 -0.0103132 0.00235015 -0.0118938 -0.0172654 0.00265977 0.0147965 0.00443423 0.00719259 0.0140875 0.00788397 0.00125623 -0.00619525 -0.0218184 -0.0125651 0.000128655 0.0118207 0.0194988
internal_weight=5005.57 3913.45 2483.79 1092.12 664.13 1415.64 427.99 1429.66 1392.82 1068.14 1001.79 918.297 520.719 497.345 326.526 895.733 367.237 496.724 470.077 531.71 426.997 196.913 149.619 230.084 397.578 497.09 197.579 200 145.024 92.3327
internal_count=14585 11552 7165 3033 1807 4118 1226 4387 4278 3047 2857 2637 1455 1481 950 2728 1131 1388 1320 1537 1231 566 457 665 1182 1550 594 588 395 252
is_linear=0
shrinkage=0.05


Tree=16
num_leaves=31
num_cat=0
split_feature=13 27 22 9 9 19 1 0 31 15 13 13 27 22 19 14 31 12 10 28 32 10 27 4 15 14 27 13 13 14
split_gain=14.7534 8.97993 7.25112 6.07 7.21283 6.30416 5.42402 5.21046 4.99219 8.23729 4.94774 4.81718 4.65895 4.59448 4.36792 4.91815 6.71739 6.78845 5.71725 5.58039 4.70532 4.34323 4.24616 4.24603 4.48923 4.03466 7.2624 6.41211 5.03426 4.62172
threshold=9.5000000000000018 0.51500000000000012 35.500000000000007 50.500000000000007 51.500000000000007 81.500000000000014 1454766300.0000002 27256.500000000004 8.5000000000000018 10.500000000000002 3.5000000000000004 8.5000000000000018 0.44500000000000006 22.500000000000004 -126.49999999999999 9.5000000000000018 12.500000000000002 2.5000000000000004 61.000000000000007 0.42500000000000004 3.5000000000000004 51.500000000000007 0.7350000000000001 910.50000000000011 2.5000000000000004 4.5000000000000009 0.42500000000000004 5.5000000000000009 3.5000000000000004 5.5000000000000009
decision_type=2 2 2 2 2 2 2 2 2 2 2 2 2 2 2 2 2 2 2 2 2 2 2 2 2 2 2 2 2 2
left_child=1 2 7 6 13 22 21 -1 -2 -10 -7 -12 -4 -5 -8 16 17 18 19 -16 -17 -3 -6 25 -25 26 27 28 -9 -27
right_child=8 3 12 4 5 10 14 23 9 -11 11 -13 -14 -15 15 20 -18 -19 -20 -21 -22 -23 -24 24 -26 29 -28 -29 -30 -31
leaf_value=-0.0053101238179433614 -0.0080035749847650311 0.044330172173452247 -0.02161094941646749 0.058064513699990383 0.0039451425174944904 0.058179348441116968 -0.035734347431731442 0.0013487186933718266 -0.00087369037024696665 0.051949183538398148 0.0078102859794748434 0.047475143327150658 -0.00032551144016300517 0.0033333824964719171 0.007159948099336475 -0.0048837010691618792 0.037991614616644735 -0.012708818412220874 -0.020450554780932498 0.064246454860582752 0.039322839966871859 -0.0028943621279383541 0.023818665781374829 -0.016898564703881923 0.0064591360816281087 0.010268187929577456 -0.013485722058700118 -0.013297029316115162 0.034319871257658167 -0.0004116969919573217
leaf_weight=377.47810930013657 648.51288142800331 9.3107269108295458 65.369511008262634 9.6266824603080732 1246.461381316185 6.9097656309604636 10.338593244552611 24.053796410560608 177.23646160960197 6.6998933851718894 43.458462536334991 8.4534116089344007 42.01141569018364 6.1995454132556906 11.032565414905553 11.508393138647081 7.1005264222621909 147.3580347597599 7.1348847150802603 6.3120106756687155 11.185038655996321 9.0064212977886182 26.519874632358551 20.671793341636658 425.14529687166214 116.34636795520782 135.49851128458977 26.182768762111664 21.473968356847763 740.33494287729263
leaf_count=1256 2184 28 236 30 4089 22 35 71 594 21 143 27 150 22 36 41 23 491 24 21 38 28 83 65 1382 386 440 87 72 2460
internal_value=4.62308e-05 0.00144336 -0.00078633 0.00426052 0.00554204 0.00512688 -0.00323037 -6.40112e-05 -0.00594415 0.00132089 0.0209994 0.0150446 -0.0133631 0.0380972 -0.00551841 -0.0038004 -0.00660307 -0.00865492 0.0152892 0.0303045 0.0176447 0.0221624 0.00437754 0.00125034 0.00534068 -0.000467098 -0.00671026 0.00610151 0.0173035 0.00104903
internal_weight=4404.93 3572.48 1994.57 1577.92 1347.63 1331.8 230.287 1887.19 832.449 183.936 58.8216 51.9119 107.381 15.8262 211.97 201.631 178.938 171.837 24.4795 17.3446 22.6934 18.3171 1272.98 1509.71 445.817 1063.89 207.209 71.7105 45.5278 856.681
internal_count=14585 11786 6605 5181 4416 4364 765 6219 2799 615 192 170 386 52 709 674 595 572 81 57 79 56 4172 4963 1447 3516 670 230 143 2846
is_linear=0
shrinkage=0.05


Tree=17
num_leaves=31
num_cat=0
split_feature=11 14 12 16 11 14 16 14 27 10 0 11 27 14 27 18 16 31 11 10 19 1 16 10 19 27 4 18 10 1
split_gain=136.867 66.8621 58.2261 28.9876 23.5713 22.981 20.8914 17.1758 16.1543 16.3387 16.989 11.4307 9.29969 10.1834 8.63443 8.19041 7.92083 7.55912 8.31593 7.48331 6.66044 6.63933 6.41621 8.1315 8.4326 8.91775 6.29126 9.9433 8.92141 7.88124
threshold=7.5000000000000009 6.5000000000000009 7.5000000000000009 8.5000000000000018 12.500000000000002 12.500000000000002 7.5000000000000009 10.500000000000002 0.49500000000000005 94.500000000000014 157539.50000000003 5.5000000000000009 0.46500000000000002 1.5000000000000002 0.45500000000000007 190.50000000000003 3.5000000000000004 8.5000000000000018 10.500000000000002 631.50000000000011 137.50000000000003 1505933550.0000002 9.5000000000000018 95.500000000000014 74.500000000000014 0.38500000000000006 559.00000000000011 152.50000000000003 38.500000000000007 1640367000.0000002
decision_type=2 2 2 2 2 2 2 2 2 2 2 2 2 2 2 2 2 2 2 2 2 2 2 2 2 2 2 2 2 2
left_child=1 6 4 7 17 19 8 16 9 10 -1 21 -8 -14 -7 -5 -3 22 -19 -4 -18 -10 23 26 25 -25 27 -2 -28 -30
right_child=2 3 5 15 -6 14 12 -9 11 -11 -12 -13 13 -15 -16 -17 20 18 -20 -21 -22 -23 -24 24 -26 -27 28 -29 29 -31
leaf_value=0.0093233446942233966 0.02635314877388803 -0.022826053076616035 0.0027639686061790348 0.0011909460860167515 0.032217757866527162 -0.02871824231633362 0.015936352522503808 -0.025091515582568776 -0.0049860804756762071 0.0099188879465166684 -0.022957324062022572 -0.00083279835949679609 0.031800894009454968 0.0019136165378354918 -0.0052613941372903969 -0.021288655352822927 -0.0098806942002565967 -0.001287610958453202 0.021178386721397113 0.027571103010298206 -0.040271471211179299 -0.019957760174829517 0.022668895324934372 -0.010531860965835978 -0.014430668681508569 0.020501527447916681 -0.045784739340808567 -0.021083395637634856 -0.0051704383422037353 0.021194230530868587
leaf_weight=68.862835466861725 56.277293652296066 162.66769337654114 761.19093656539917 357.06888335943222 203.42759811878204 78.683754950761795 205.51016908884048 417.23105308413506 108.33887633681297 297.32552191615105 97.349831998348236 224.22447216510773 29.125482320785522 532.38205894827843 78.360395848751068 44.694924682378769 736.53649315237999 147.90147569775581 56.035514444112778 30.688298732042313 17.608947277069092 238.75055837631226 239.56856924295425 24.069474637508392 19.573213219642639 376.46299043297768 9.2903321683406812 12.889530330896376 96.79443684220314 38.93300324678421
leaf_count=170 142 429 1931 900 505 200 519 1079 238 734 241 563 75 1357 200 116 1890 370 141 75 45 616 594 59 49 946 23 33 247 98
internal_value=-1.98188e-05 -0.00613461 0.00967846 -0.0131351 0.0166271 0.000288896 0.000612726 -0.0166786 -0.0040209 0.00291163 -0.00960749 -0.0096409 0.00686146 0.00351765 -0.0171213 -0.00135648 -0.0128269 0.0136573 0.00495856 0.0037589 -0.0106427 -0.0153123 0.0156794 0.0130079 0.0170448 0.018615 0.00504761 0.0173387 -0.000893254 0.00249189
internal_weight=5767.82 3537.68 2230.15 1735.81 1281.22 948.923 1801.87 1334.04 1034.85 463.538 166.213 571.314 767.018 561.508 157.044 401.764 916.813 1077.8 203.937 791.879 754.145 347.089 873.859 634.29 420.106 400.532 214.185 69.1668 145.018 135.727
internal_count=14585 8972 5613 4459 3207 2406 4513 3443 2562 1145 411 1417 1951 1432 400 1016 2364 2702 511 2006 1935 854 2191 1597 1054 1005 543 175 368 345
is_linear=0
shrinkage=0.05


Tree=18
num_leaves=31
num_cat=0
split_feature=14 11 14 11 11 27 13 16 17 16 22 14 16 13 16 20 16 27 10 27 10 10 14 32 1 1 18 1 10 6
split_gain=133.259 83.9077 27.6687 20.4197 17.3953 16.1774 14.3122 11.4233 10.8545 10.0162 9.18875 9.12667 10.532 9.01891 8.69723 8.1629 8.07733 7.51725 8.21883 7.46677 7.53687 10.6102 7.42824 7.7808 7.05789 6.95271 6.76319 6.63743 6.77897 6.48559
threshold=9.5000000000000018 7.5000000000000009 4.5000000000000009 5.5000000000000009 4.5000000000000009 0.46500000000000002 9.5000000000000018 3.5000000000000004 135.50000000000003 9.5000000000000018 2.5000000000000004 7.5000000000000009 4.5000000000000009 1.0000000180025095e-35 8.5000000000000018 468.50000000000006 7.5000000000000009 0.50500000000000012 104.00000000000001 0.45500000000000007 51.500000000000007 48.500000000000007 12.500000000000002 9.5000000000000018 1509852150.0000002 1485098100.0000002 196.50000000000003 1743965550.0000002 541.50000000000011 6.5000000000000009
decision_type=2 2 2 2 2 2 2 2 2 2 2 2 2 2 2 2 2 2 2 2 2 2 2 2 2 2 2 2 2 2
left_child=1 2 13 7 14 22 10 -2 -9 27 -3 19 -13 -1 25 -10 -12 18 -16 20 21 -6 23 -5 -8 -4 -14 28 -7 -18
right_child=3 6 4 5 11 9 24 8 15 -11 16 12 26 -15 17 -17 29 -19 -20 -21 -22 -23 -24 -25 -26 -27 -28 -29 -30 -31
leaf_value=0.017128981664355374 0.039789177817296059 0.0095842171923657179 0.00026159123958779354 0.014636927901149625 -0.0081354652370733641 0.0084702687044871088 -0.030408312003909973 0.014284252413717422 0.039909711643265858 -0.020847997163149522 -0.0070347435399492238 0.023879397083834585 -0.0010852826263454047 -0.0077969777002834919 0.011167126345375707 -0.0084711377600236379 -0.019313279128268676 0.010192093149973699 -0.018718546545015362 5.7757436082422339e-05 -0.016994814089124271 0.053282866393651179 0.026382806146065599 -0.01795337239141916 -0.017047927173211935 0.015457411764874633 0.02827786314037195 -0.034282271674140781 -0.026147296174574071 0.014391920182727728
leaf_weight=37.219361841678619 88.602475821971893 56.523693978786469 88.499029487371445 163.77882173657417 24.381424367427826 277.11461773514748 127.4333878159523 257.37168553471565 78.484808146953583 40.49088528752327 462.4139358997345 70.593107521533966 199.52909189462662 746.45151770114899 34.211299449205399 9.4381497800350171 281.17634654045105 113.51597473025322 66.035482943058014 425.88969680666924 145.22102198004723 8.7681740522384626 141.32262635231018 19.749099671840668 473.40742027759552 504.0503137409687 20.740595877170563 9.2293565869331342 13.941423237323759 14.335686534643171
leaf_count=77 235 121 253 462 71 798 401 692 206 114 1438 199 584 2174 101 26 899 333 197 1249 428 25 379 55 1484 1415 59 25 41 44
internal_value=-2.4935e-05 -0.00435944 0.00117571 0.0153411 0.00475562 0.00981591 -0.0140726 0.0237749 0.0195626 0.00219249 -0.00973416 -4.42008e-05 0.00721828 -0.00659283 0.0100776 0.0346794 -0.0111856 0.00142278 -0.00850988 -0.00354617 -0.0121035 0.00919445 0.0177818 0.0110517 -0.0199274 0.0131921 0.00179485 0.00535818 0.00672826 -0.0176352
internal_weight=4999.92 3900.4 2485.11 1099.52 1701.44 665.627 1415.29 433.897 345.295 340.776 814.45 895.123 290.863 783.671 806.312 87.923 757.926 213.763 100.247 604.26 178.371 33.1496 324.851 183.528 600.841 592.549 220.27 300.285 291.056 295.512
internal_count=14585 11552 7165 3033 4914 1874 4387 1159 924 978 2502 2615 842 2251 2299 232 2381 631 298 1773 524 96 896 517 1885 1668 643 864 839 943
is_linear=0
shrinkage=0.05


Tree=19
num_leaves=31
num_cat=0
split_feature=31 11 10 0 0 0 14 20 16 4 1 0 10 27 15 10 27 4 1 1 22 32 4 10 22 32 15 0 4 10
split_gain=6.70923 6.60936 8.50608 9.40209 7.05683 6.14183 6.09909 6.0937 5.82467 6.06004 7.04576 6.46893 6.2591 6.2016 6.67197 6.18022 5.28554 5.02679 4.99912 4.95506 4.92759 5.51589 4.83303 4.79696 4.75887 4.6887 4.57721 4.54824 4.52019 4.37273
threshold=8.5000000000000018 6.5000000000000009 496.50000000000006 20590.500000000004 1208191.5000000002 9729.5000000000018 9.5000000000000018 393.50000000000006 12.500000000000002 596.50000000000011 1746816750.0000002 1224130.5000000002 95.500000000000014 0.35500000000000004 5.5000000000000009 495.50000000000006 0.25500000000000006 15673.500000000002 1453707900.0000002 1695476700.0000002 5.5000000000000009 1.0000000180025095e-35 20262.500000000004 167.50000000000003 26.500000000000004 4.5000000000000009 5.5000000000000009 592178.50000000012 659.50000000000011 539.50000000000011
decision_type=2 2 2 2 2 2 2 2 2 2 2 2 2 2 2 2 2 2 2 2 2 2 2 2 2 2 2 2 2 2
left_child=1 2 4 25 16 26 7 22 9 -3 11 12 18 14 15 -14 -1 19 28 -15 27 -22 -5 -13 -18 -4 -2 -20 -11 -9
right_child=5 8 3 6 -6 -7 -8 29 -10 10 -12 23 13 17 -16 -17 24 -19 20 -21 21 -23 -24 -25 -26 -27 -28 -29 -30 -31
leaf_value=-0.022902915999823796 -0.029975991232637462 -0.009528721697053287 -0.021526571248624091 0.0083049473727446789 -0.012599529992620696 0.0062084020152401165 -0.003651043225875682 0.061290180618781193 -0.017531299276838816 0.057724988201003635 -0.025404888560306361 -0.002297973917026251 -0.00042473090929009435 -0.0045323638380496915 -0.0041626743912696034 0.038939120386697001 0.0024494394024202116 -0.018535910694644501 0.0047092191696389216 0.0057294334120533089 0.037386110958913907 -0.00097850769697611288 0.045322275047447916 0.055244048140736746 -0.0050931538983036489 0.0032568511502681745 0.00062443675888565887 0.033226343008392167 0.01058552502524595 0.008045456003769217
leaf_weight=23.501612901687622 19.784171462059021 251.3448837697506 42.554550439119339 487.63556039333344 120.63535597920418 591.42348012328148 96.529074788093567 8.8205799460411054 64.665326356887817 6.9958476126194009 28.364638715982437 5.9540018141269666 15.947449773550032 830.30325582623482 40.340902507305145 25.513245970010757 839.46671557426453 54.721511900424957 34.98716339468956 136.14938235282898 8.7085598409175855 266.95602312684059 8.0407545268535596 7.9511929750442505 277.40270686149597 33.554519414901733 29.562314003705978 22.74009096622467 15.631862431764603 6.9143595695495597
leaf_count=79 69 858 143 1575 382 1938 315 28 221 24 79 21 50 2798 131 85 2680 185 83 471 31 951 26 28 989 115 101 54 53 22
internal_value=6.47365e-05 -0.000741087 0.0012843 0.00576936 -0.00115133 0.00478997 0.00784533 0.0100182 -0.0029084 -0.00235917 -0.00115329 -0.00066934 -0.00100347 -0.00286393 0.0103031 0.0241448 6.9711e-05 -0.00392774 0.00475227 -0.0030823 0.00316705 0.000364225 0.00899548 0.0321042 0.000573166 -0.0106997 -0.0119957 0.0163173 0.026986 0.0397719
internal_weight=4403.1 3762.33 1945.06 684.049 1261.01 640.77 607.94 511.411 1817.28 1752.61 1501.27 1472.9 1459 1102.98 81.8016 41.4607 1140.37 1021.17 356.02 966.453 333.392 275.665 495.676 13.9052 1116.87 76.1091 49.3465 57.7273 22.6277 15.7349
internal_count=14585 12477 6354 2224 4130 2108 1966 1651 6123 5902 5044 4965 4916 3720 266 135 3748 3454 1196 3269 1119 982 1601 49 3669 258 170 137 77 50
is_linear=0
shrinkage=0.05


Tree=20
num_leaves=31
num_cat=0
split_feature=11 14 14 16 9 16 10 14 9 27 10 9 16 14 11 11 1 9 27 14 11 27 14 31 4 9 10 16 4 16
split_gain=122.659 60.5521 46.8588 26.4268 21.8868 19.0461 18.1545 15.7219 15.6511 14.9193 15.2983 13.1884 12.0026 11.7088 11.9853 10.4392 10.0086 9.72296 9.25392 9.17518 10.0439 8.51971 9.48873 8.00388 7.67144 7.3758 8.15821 7.10996 6.93919 8.0579
threshold=7.5000000000000009 6.5000000000000009 11.500000000000002 8.5000000000000018 541.50000000000011 7.5000000000000009 505.50000000000006 10.500000000000002 530.50000000000011 0.49500000000000005 94.500000000000014 540.50000000000011 7.5000000000000009 7.5000000000000009 12.500000000000002 5.5000000000000009 1595186550.0000002 35.500000000000007 0.59500000000000008 15.500000000000002 12.500000000000002 0.46500000000000002 1.5000000000000002 9.5000000000000018 546.50000000000011 492.50000000000006 531.50000000000011 3.5000000000000004 672.50000000000011 9.5000000000000018
decision_type=2 2 2 2 2 2 2 2 2 2 2 2 2 2 2 2 2 2 2 2 2 2 2 2 2 2 2 2 2 2
left_child=1 5 4 7 6 9 13 25 -8 10 16 18 -6 14 -2 -11 17 -1 -10 20 -4 -7 -23 -13 -16 -3 -27 -15 -29 -30
right_child=2 3 19 -5 12 21 8 -9 11 15 -12 23 -14 27 24 -17 -18 -19 -20 -21 -22 22 -24 -25 -26 26 -28 28 29 -31
leaf_value=0.046586072804301007 0.01120920335785482 -0.008537587527630057 -0.011240061516130148 -0.0012653844170577334 -0.016830452836560813 0.015227732456253751 0.031519722181220455 -0.023998934049168877 0.012515669050922522 -0.01468516841336911 0.009589945540308174 0.044525505573849398 0.012942684015722423 -0.0096492503318002208 -0.010078773663258711 -0.00083813106491830076 -0.024967261325430635 -0.0047112079652502498 -0.014743408137599976 -0.031059678201800112 0.022054069788357066 0.03060907340952871 0.0017992633110685066 -0.0052791792465159944 0.029770610176415385 -0.024067523660914251 -0.0088266137053153084 0.014599060863996087 -0.0023461652384155194 0.022001738949820285
leaf_weight=9.2279474139213544 774.55992990732193 549.22125461697578 165.76107197999954 401.50857907533646 98.572010636329651 205.84906548261642 219.06632700562477 413.52553153038025 104.36672031879425 345.89749544858932 297.61416345834732 38.34101340174675 50.402318388223648 76.718823045492172 12.714828312397001 224.21093186736107 62.345470905303955 94.384526014328003 43.247356116771698 47.98433980345726 25.267257958650589 29.212972402572632 532.55677318572998 9.8988651037216169 142.09307092428207 212.07016545534134 152.29981991648674 169.67333400249481 212.54899117350578 39.417365550994873
leaf_count=23 1946 1416 423 1016 253 519 548 1079 262 854 734 97 128 197 31 563 162 226 108 122 65 75 1357 24 351 552 396 428 534 96
internal_value=-2.78412e-05 -0.00582719 0.00914799 -0.0125092 0.0116588 0.000588622 0.013149 -0.0159074 0.0223527 -0.00384058 0.00281815 0.0119912 -0.00673821 0.0104605 0.0137743 -0.00925044 -0.00931048 0.000259085 0.00448395 -0.011735 -0.00674434 0.00655025 0.00334915 0.0344059 0.026454 -0.0122227 -0.0177387 0.00426542 0.00681408 0.00153471
internal_weight=5760.56 3529.92 2230.63 1728.63 1991.62 1801.3 1842.65 1327.12 414.92 1033.68 463.572 195.854 148.974 1427.73 929.368 570.108 165.958 103.612 147.614 239.013 191.028 767.619 561.77 48.2399 154.808 913.591 364.37 498.359 421.64 251.966
internal_count=14585 8972 5613 4459 5003 4513 4622 3443 1039 2562 1145 491 381 3583 2328 1417 411 249 370 610 488 1951 1432 121 382 2364 948 1255 1058 630
is_linear=0
shrinkage=0.05


Tree=21
num_leaves=31
num_cat=0
split_feature=14 11 12 11 16 13 22 11 10 14 10 27 12 9 27 16 14 12 10 15 13 16 11 32 17 1 22 12 22 15
split_gain=119.681 76.2335 27.9161 18.6593 16.2906 13.5292 14.2334 11.8591 10.8643 10.2693 9.23803 9.09348 9.00357 8.7149 8.62311 8.52456 10.2246 8.50218 8.44104 8.62153 8.31301 8.94815 7.14703 10.4104 8.21391 6.79841 7.26348 6.67899 6.6401 6.59844
threshold=9.5000000000000018 7.5000000000000009 6.5000000000000009 10.500000000000002 3.5000000000000004 12.500000000000002 1.5000000000000002 5.5000000000000009 541.50000000000011 18.500000000000004 540.50000000000011 0.46500000000000002 11.500000000000002 631.50000000000011 0.50500000000000012 8.5000000000000018 7.5000000000000009 8.5000000000000018 529.50000000000011 5.5000000000000009 2.5000000000000004 10.500000000000002 4.5000000000000009 5.5000000000000009 152.50000000000003 1474051950.0000002 28.500000000000004 5.5000000000000009 2.5000000000000004 11.500000000000002
decision_type=2 2 2 2 2 2 2 2 2 2 2 2 2 2 2 2 2 2 2 2 2 2 2 2 2 2 2 2 2 2
left_child=1 2 7 4 18 6 -3 15 10 20 12 -9 22 -10 -5 16 -1 -8 19 -2 -6 -22 23 25 29 -4 -27 -23 -19 -25
right_child=3 5 8 14 9 -7 17 11 13 -11 -12 -13 -14 -15 -16 -17 -18 28 -20 -21 21 27 -24 24 -26 26 -28 -29 -30 -31
leaf_value=0.0024352234204481952 0.014744513203294493 0.017009044681976632 -0.0037499490316552139 0.010895332889216684 0.03046813429826958 -0.024609938899257167 -0.014616832367491631 -0.022100848383832434 -0.013025371923802121 0.054495036768910571 0.054247321974691814 -0.006021588309796256 0.025346861054493963 0.015569285784977148 -0.012586326768762104 -0.0057017053605270636 0.034905401522942733 0.040349114606044241 0.0021998990037284147 0.040301734005252457 0.012816262915572019 0.017615207380678507 0.0028372747491768073 -0.010672571982314166 0.024836923712123649 0.016727248170023981 0.039889619687499309 -0.021335718638433233 -0.0055338447810600409 0.016569119970970419
leaf_weight=497.76757490634918 46.4759840965271 41.963128328323364 30.152536690235138 72.496710270643234 60.598299115896225 228.43648651242256 890.16029378771782 113.98531895875931 104.56518203020096 14.202487826347349 10.228222101926802 379.45793181657791 72.522207200527191 34.716831773519516 82.555092930793762 394.92126473784447 24.500236839056015 7.1675767600536338 24.49313947558403 128.22219657897949 628.29046308994293 15.178408235311506 459.61451897025108 92.232067286968231 29.455393731594086 171.39071092009544 42.450628936290741 33.961278319358826 233.58310812711716 28.228422433137894
leaf_count=1388 126 91 85 205 156 725 2831 348 303 36 28 1133 201 94 247 1182 67 15 65 345 1717 40 1326 260 82 464 125 96 725 79
internal_value=-3.3288e-05 -0.00416326 0.00109415 0.0144677 0.0170864 -0.013485 -0.0112991 -0.00353134 0.0071583 0.013687 0.0090958 -0.00977308 0.00853912 -0.00583781 -0.00160767 -0.000166327 0.00402224 -0.0123636 0.0297914 0.0336252 0.012829 0.0112085 0.00708301 0.0120172 0.00162794 0.0183679 0.0214896 -0.00919308 -0.00400657 -0.00420496
internal_weight=4993.97 3887.5 2486.19 1106.47 951.422 1401.31 1172.87 1410.63 1075.56 752.231 936.275 493.443 926.046 139.282 155.052 917.189 522.268 1130.91 199.191 174.698 738.028 677.43 853.524 393.91 149.916 243.994 213.841 49.1397 240.751 120.46
internal_count=14585 11552 7165 3033 2581 4387 3662 4118 3047 2045 2650 1481 2622 397 452 2637 1455 3571 536 471 2009 1853 2421 1095 421 674 589 136 740 339
is_linear=0
shrinkage=0.05


Tree=22
num_leaves=31
num_cat=0
split_feature=9 22 1 9 27 15 6 9 27 22 1 15 22 17 6 16 15 1 0 10 22 14 12 19 9 22 12 15 14 27
split_gain=6.31269 7.96318 7.67127 5.69197 5.29829 6.67381 4.92702 4.59771 7.63581 5.67007 4.5392 7.15649 4.59559 4.85865 4.53358 4.4648 6.9625 4.63665 5.61568 7.6386 5.22611 5.29737 4.29251 4.40097 4.07716 3.9549 6.01551 3.77538 3.76837 7.18724
threshold=50.500000000000007 35.500000000000007 1480776300.0000002 716.50000000000011 0.44500000000000006 11.500000000000002 4.5000000000000009 51.500000000000007 0.45500000000000007 27.500000000000004 1474051950.0000002 2.5000000000000004 29.500000000000004 107.50000000000001 8.5000000000000018 9.5000000000000018 16.500000000000004 1757772450.0000002 1223767.5000000002 494.50000000000006 19.500000000000004 5.5000000000000009 11.500000000000002 -117.49999999999999 56.000000000000007 17.500000000000004 9.5000000000000018 5.5000000000000009 3.5000000000000004 0.50500000000000012
decision_type=2 2 2 2 2 2 2 2 2 2 2 2 2 2 2 2 2 2 2 2 2 2 2 2 2 2 2 2 2 2
left_child=2 3 -1 7 -3 -6 -5 8 -2 -10 -8 -12 -13 -14 15 16 17 18 22 25 -21 -22 23 -9 -17 -20 27 -27 29 -25
right_child=1 4 -4 6 5 -7 10 14 9 -11 11 12 13 -15 -16 24 -18 -19 19 20 21 -23 -24 28 -26 26 -28 -29 -30 -31
leaf_value=0.0096823873363676843 -0.020664014468767304 -0.020659294865496711 -0.0064789906826579341 -0.03176853896341493 -0.0068946239008095727 0.029437572560791991 -0.0098896013117054076 -0.011755907582039933 0.045640555322009627 -0.0089206952682564147 -0.031503473033203722 0.016977647444790904 0.011487965616756975 -0.028825468817757438 -0.016568264587882516 0.023807631353897896 0.048348304562543791 -0.032229187915667319 -0.0059530917231027762 0.057369802723786625 0.046935521502387965 -0.0070663551831215829 -0.0039621404038340255 -0.012843071733621517 -0.0037232604445617311 0.028209688148841235 0.055285305122027298 -0.012660771133332992 0.0033721700840398036 0.0026231546516984174
leaf_weight=83.23479962348938 8.2586464285850507 63.273588269948959 575.80955719947815 6.3663017749786368 122.76854741573334 13.086690604686735 25.30950990319252 54.946542710065842 18.801567643880848 5.8861398994922629 8.0861847102642042 180.87248668074608 18.477203369140629 11.154796302318571 36.65874707698822 12.785823613405226 6.9948500692844382 9.0849081575870496 40.576529294252396 12.629474848508837 6.5700503885746029 10.80608096718788 337.14085656404495 109.61360403895378 569.35623762011528 8.5225410461425835 6.9230913817882529 12.954092502593992 1791.0491937994957 233.29258984327316
leaf_count=268 27 231 1951 21 438 46 80 184 60 21 22 574 65 39 118 42 23 22 117 33 23 38 1123 347 1900 30 24 46 5943 729
internal_value=8.21653e-05 0.000877117 -0.00442629 0.00142483 -0.00882685 -0.00320528 0.00867883 0.000871039 0.0191775 0.032791 0.00986 0.0121813 0.0140004 -0.0041334 0.0006802 0.000881449 0.00175519 0.00161316 0.00174251 0.0133652 0.0339874 0.0147952 0.00128197 0.00209113 -0.0030788 0.0040368 0.018027 0.00409129 0.00245301 -0.00234376
internal_weight=4401.29 3742.25 659.044 3543.12 199.129 135.855 250.266 3292.85 32.9464 24.6877 243.9 218.591 210.504 29.632 3259.91 3223.25 2641.1 2634.11 2625.02 98.9819 30.0056 17.3761 2526.04 2188.9 582.142 68.9763 28.3997 21.4766 2133.96 342.906
internal_count=14585 12366 2219 11651 715 484 801 10850 108 81 780 700 678 104 10742 10624 8682 8659 8637 311 94 61 8326 7203 1942 217 100 76 7019 1076
is_linear=0
shrinkage=0.05


Tree=23
num_leaves=31
num_cat=0
split_feature=13 14 14 16 16 15 16 1 18 27 10 15 14 13 10 31 15 18 27 10 4 13 27 10 16 20 31 16 0 10
split_gain=119.048 67.4346 34.564 29.4029 22.4961 15.5175 15.4758 12.8799 11.9086 11.2713 12.221 12.1415 11.0164 10.3622 12.2751 14.0551 9.17817 8.95736 8.83425 9.9517 9.03504 8.00808 10.3599 7.77442 7.64096 7.49871 7.35116 8.15402 7.11932 8.36608
threshold=8.5000000000000018 6.5000000000000009 10.500000000000002 8.5000000000000018 6.5000000000000009 8.5000000000000018 3.5000000000000004 1743965550.0000002 133.50000000000003 0.49500000000000005 531.50000000000011 8.5000000000000018 11.500000000000002 12.500000000000002 499.50000000000006 7.5000000000000009 7.5000000000000009 190.50000000000003 0.44500000000000006 729.50000000000011 559.00000000000011 4.5000000000000009 0.47500000000000003 545.50000000000011 9.5000000000000018 279.50000000000006 7.5000000000000009 13.500000000000002 157539.50000000003 93.500000000000014
decision_type=2 2 2 2 2 2 2 2 2 2 2 2 2 2 2 2 2 2 2 2 2 2 2 2 2 2 2 2 2 2
left_child=1 4 5 6 9 13 23 16 12 10 28 -11 -8 14 25 -16 24 21 -6 20 -20 22 -5 -3 -4 -2 27 -22 -1 -30
right_child=2 3 7 17 18 -7 8 -9 -10 11 -12 -13 -14 -15 15 -17 -18 -19 19 -21 26 -23 -24 -25 -26 -27 -28 -29 29 -31
leaf_value=0.0081304815569887921 0.0069206333336489269 -0.025589624365930621 -0.0042150341850212608 0.0088561870656982157 0.014780296185248967 0.0035072453821010452 -0.006348670966547388 0.050505639024193007 -0.020288792438230306 -0.0044013082573409667 0.017076439940194473 -0.021910837860047792 -0.019887888091067635 0.025504838826475914 0.031578120812000017 0.0045085439879288623 -0.021953754184167579 -0.019453383346702449 0.018521906277594213 0.025490132013636081 0.002488215542271353 0.0076543622328414176 -0.018637697829285992 0.014118586319780121 0.034279528989071842 0.020552662237870396 -0.0068672169427553224 0.025656699723407006 -0.019626934458274709 0.00049263823328564546
leaf_weight=102.2357597053051 411.31246906518936 303.90378907322884 152.49302381277084 58.462851405143738 249.15440535545349 243.30035138130188 790.33298882842064 8.9355490505695325 303.36028379201889 407.85483378171921 103.58886587619781 130.06862658262253 185.11687463521957 294.93516799807549 169.67698213458061 67.206485271453857 75.303016006946564 50.417430937290192 82.775729060173035 50.721866071224213 543.65477129817009 272.15547174215317 80.213414311408997 12.242456078529356 13.073765158653258 133.55698871612549 205.27975597977638 39.859436869621277 87.453812271356583 124.12661904096603
leaf_count=257 1033 810 391 145 629 605 2034 20 790 994 256 333 484 722 424 166 190 131 208 133 1391 680 206 33 33 333 531 101 216 306
internal_value=-3.39679e-05 -0.00444034 0.0117029 -0.0108945 0.00180189 0.0149288 -0.0141081 -0.00533431 -0.0116427 -0.00389029 0.00227274 -0.00866787 -0.00893582 0.0175041 0.0144568 0.0239494 -0.00760605 0.000224059 0.00644329 0.0041775 0.0029094 0.00268025 -0.00706646 -0.0240123 -0.00098781 0.0102936 0.00124965 0.00411202 -0.00265259 -0.00787671
internal_weight=5752.77 4182.98 1569.79 2056.21 2126.77 1319.99 1594.96 249.805 1278.81 955.329 417.405 537.923 975.45 1076.69 781.753 236.883 240.87 461.249 1171.45 922.292 871.57 410.832 138.676 316.146 165.567 544.869 788.794 583.514 313.816 211.58
internal_count=14585 10668 3917 5313 5355 3283 4151 634 3308 2362 1035 1327 2518 2678 1956 590 614 1162 2993 2364 2231 1031 351 843 424 1366 2023 1492 779 522
is_linear=0
shrinkage=0.05


Tree=24
num_leaves=31
num_cat=0
split_feature=14 13 12 14 13 9 13 27 10 4 4 0 15 10 13 6 9 31 12 9 0 15 10 13 14 32 15 27 0 0
split_gain=107.994 64.292 29.0396 16.0364 15.5243 13.5954 12.5292 12.2236 10.515 13.8214 12.5967 10.4316 10.0064 9.8686 9.48656 8.90261 8.72834 10.246 8.6738 7.90951 13.5928 7.20849 7.10668 6.99559 6.71584 6.65852 6.62185 6.58273 6.55051 6.31013
threshold=9.5000000000000018 9.5000000000000018 6.5000000000000009 13.500000000000002 7.5000000000000009 631.50000000000011 5.5000000000000009 0.33500000000000008 86.000000000000014 559.00000000000011 654.50000000000011 11051.500000000002 2.5000000000000004 503.50000000000006 4.5000000000000009 7.5000000000000009 536.50000000000011 5.5000000000000009 10.500000000000002 513.00000000000011 185810.50000000003 7.5000000000000009 631.50000000000011 13.500000000000002 5.5000000000000009 5.5000000000000009 6.5000000000000009 0.45500000000000007 27487.500000000004 1049161.5000000002
decision_type=2 2 2 2 2 2 2 2 2 2 2 2 2 2 2 2 2 2 2 2 2 2 2 2 2 2 2 2 2 2
left_child=1 2 13 4 18 6 11 -8 9 -9 24 -4 -7 14 -1 21 -15 -18 -2 -16 -21 -3 -10 -6 -11 -13 -5 -19 -14 -27
right_child=3 15 5 26 23 12 7 8 22 10 -12 25 28 16 19 -17 17 27 -20 20 -22 -23 -24 -25 -26 29 -28 -29 -30 -31
leaf_value=0.0033723046377103364 0.0098818835611755359 -0.021965281827909924 0.028963114107072498 0.015291503833275514 0.0041408666369297112 0.073225795306628691 0.024037388822206986 -0.011716754678769396 -0.0059393360289290119 0.0005752585867875369 0.0027913378372500207 0.0098684417580628472 0.050678744051685133 -0.016762260660146092 -0.0069402080761123133 0.015714596748340998 -0.01194960233571356 -0.021648548021375877 0.02284973111791368 -0.029232124252011212 0.037808076596072701 -0.0098529415933832042 -0.029549769617673256 -0.019310343727804463 0.04542772783584817 -0.0052410728039470186 0.031350651583686467 0.012338164732429815 0.01200479731023241 0.022249839502850588
leaf_weight=422.47562363743782 301.00508299469948 492.49957445263863 53.244144439697266 118.14388498663902 280.6006501019001 7.3094162940978995 41.607260316610336 66.622340500354767 412.23131835460663 10.648506134748457 69.296200454235077 365.0716655254364 11.375914156436918 287.89852312207222 763.45218482613564 18.375548213720322 174.83456468582153 15.772538304328917 228.41261386871338 10.056598246097563 23.591435581445694 166.8913297355175 33.662145346403122 34.853982627391815 38.032203942537308 162.80165186524391 149.4014621078968 95.723467528820038 108.59129166603088 22.927465528249741
leaf_count=1199 820 1597 153 313 801 17 122 195 1226 29 202 1030 32 876 2309 54 526 48 609 31 71 504 102 104 109 468 386 282 307 63
internal_value=-3.98022e-05 -0.0039824 -0.00101498 0.0136851 0.0102854 0.00437058 0.0028085 -0.00188777 -0.00363397 0.006378 0.0166088 0.00802837 0.0198889 -0.00522858 -0.00267974 -0.0179585 -0.0106279 -0.004423 0.0155093 -0.00588762 0.017506 -0.0189192 -0.00778391 0.00149695 0.0358257 0.00595585 0.0243425 0.00738061 0.0160607 -0.00174646
internal_weight=4987.41 3874.99 3197.23 1112.42 844.872 1403.42 1276.14 672.1 630.493 184.599 117.977 604.045 127.277 1793.8 1219.58 677.766 574.229 286.331 529.418 797.1 33.648 659.391 445.893 315.455 48.6807 550.801 267.545 111.496 119.967 185.729
internal_count=14585 11552 9397 3033 2334 4055 3699 1985 1863 535 340 1714 356 5342 3610 2155 1732 856 1429 2411 102 2101 1328 905 138 1561 699 330 339 531
is_linear=0
shrinkage=0.05


Tree=25
num_leaves=31
num_cat=0
split_feature=13 22 4 15 14 16 0 6 31 20 14 31 10 9 10 4 20 31 0 4 16 9 10 14 13 20 32 14 17 15
split_gain=12.1163 7.70584 8.01782 7.01083 6.17072 6.00424 5.53501 5.27334 5.17788 5.00848 6.82137 6.97481 6.13929 4.78791 4.95248 5.8488 4.7493 4.70328 6.52172 6.48418 5.86613 4.81375 5.39636 7.69176 8.70008 7.19144 7.12826 5.96186 5.88282 5.55889
threshold=9.5000000000000018 35.500000000000007 910.50000000000011 2.5000000000000004 8.5000000000000018 13.500000000000002 17548.500000000004 7.5000000000000009 7.5000000000000009 348.50000000000006 3.5000000000000004 11.500000000000002 53.500000000000007 536.50000000000011 162.50000000000003 19216.500000000004 299.50000000000006 10.500000000000002 192326.50000000003 522.00000000000011 4.5000000000000009 50.500000000000007 95.500000000000014 7.5000000000000009 3.5000000000000004 425.50000000000006 1.5000000000000002 6.5000000000000009 217.50000000000003 7.5000000000000009
decision_type=2 2 2 2 2 2 2 2 2 2 2 2 2 2 2 2 2 2 2 2 2 2 2 2 2 2 2 2 2 2
left_child=1 2 7 4 -4 6 -5 17 -8 10 -2 -12 -11 14 -10 -16 -15 21 20 -20 -19 -1 23 24 -23 -24 -26 -28 -27 -29
right_child=9 -3 3 5 -6 -7 8 -9 13 12 11 -13 -14 16 15 -17 -18 18 19 -21 -22 22 25 -25 26 28 27 29 -30 -31
leaf_value=-0.004837113591546943 -0.016747087033064323 -0.0083470577057769748 -0.021251603515239609 -0.0096128468647464198 0.016253222475928374 -0.023803337526866534 0.0067228143831790698 -0.016088324176272702 -0.0029395790208817984 0.0046836250798085446 -0.0032843192738190303 0.01923452951919043 -0.022191683906210659 0.013184099947671606 0.035055104056856863 -0.0045634414457071297 -0.021861882451978943 0.050472371635317752 0.041251069612787204 -0.0067980988851878118 0.01291418078821679 -0.0040900902778201022 -0.0010194436556858969 -0.0016151224459932908 0.035064719848136396 0.054252516411175206 0.0068552622961341667 0.038105330668031435 0.0012994238107075012 0.0052306115838355299
leaf_weight=381.69281178712845 88.407825976610184 192.52305436134338 39.898675560951233 42.9208744764328 14.153368741273878 14.460272073745726 634.33784478902817 46.232397645711899 13.81792441010475 28.240537971258163 590.57233989238739 35.516612946987152 81.224705070257187 41.52215102314949 63.868797570466995 10.62695726752281 11.548949778079985 13.562630414962767 7.0542070269584647 53.765820205211639 40.329296410083771 89.550983965396881 1290.0629181265831 258.98017540574074 33.573185712099075 9.7757644057273883 206.98528701066971 32.670893937349319 10.316900014877318 21.386938959360123
leaf_count=1274 301 693 127 145 45 50 2059 152 44 97 2004 117 280 131 205 35 37 41 24 177 132 285 4250 850 107 32 681 106 34 70
internal_value=9.76343e-05 0.0013575 0.00191206 0.00599198 -0.0113142 0.00712703 0.00770175 0.000460078 0.00867092 -0.00536462 -0.00382651 -0.00197824 -0.0152786 0.0173027 0.0243789 0.0294179 0.00529437 0.000778827 0.0106185 -0.000647991 0.0231135 0.000291093 0.00129515 0.00504228 0.00952279 -0.00054673 0.0136604 0.0107842 0.0284136 0.0254303
internal_weight=4399.58 3575.62 3383.1 887.156 54.052 833.104 818.643 2495.94 775.723 823.962 714.497 626.089 109.465 141.385 88.3137 74.4958 53.0711 2449.71 114.712 60.82 53.8919 2335 1953.3 643.147 384.167 1310.16 294.616 261.043 20.0927 54.0578
internal_count=14585 11786 11093 2878 172 2706 2656 8215 2511 2799 2422 2121 377 452 284 240 168 8063 374 201 173 7689 6415 2099 1249 4316 964 857 66 176
is_linear=0
shrinkage=0.05


Tree=26
num_leaves=31
num_cat=0
split_feature=11 14 12 11 12 14 9 27 11 2 31 9 22 14 2 10 9 10 22 0 9 11 22 22 14 15 10 12 32 10
split_gain=101.669 49.815 44.885 19.6161 18.3273 17.7115 16.4798 14.8019 10.8038 8.77973 8.39771 10.5462 10.3349 7.8419 7.93557 9.4607 7.11931 11.0555 10.5903 6.97497 6.89468 6.82924 7.275 6.82133 8.14588 7.80113 9.17755 8.06288 7.82221 6.78887
threshold=7.5000000000000009 6.5000000000000009 7.5000000000000009 12.500000000000002 10.500000000000002 15.500000000000002 541.50000000000011 0.46500000000000002 1.5000000000000002 1440954900.0000002 5.5000000000000009 508.50000000000006 4.5000000000000009 7.5000000000000009 1742049900.0000002 541.50000000000011 542.50000000000011 505.50000000000006 5.5000000000000009 21344.500000000004 631.50000000000011 4.5000000000000009 29.500000000000004 2.5000000000000004 1.5000000000000002 10.500000000000002 631.50000000000011 9.5000000000000018 7.5000000000000009 111.50000000000001
decision_type=2 2 2 2 2 2 2 2 2 2 2 2 2 2 2 2 2 2 2 2 2 2 2 2 2 2 2 2 2 2
left_child=1 7 3 16 20 6 13 9 -9 -1 23 12 -12 -4 15 -15 17 -2 -19 -14 -3 22 -11 -10 -25 26 27 28 -26 -13
right_child=2 4 5 -5 -6 -7 -8 8 10 21 11 29 19 14 -16 -17 -18 18 -20 -21 -22 -23 -24 24 25 -27 -28 -29 -30 -31
leaf_value=-0.024319943336873553 0.0098622780844754687 -0.0071259904466142113 0.010865728528870066 0.028647414412589008 -0.019827742121444242 -0.029445194870333469 -0.021803327005177526 -0.015826823788195072 -0.015823354983210709 -0.00048170550238058106 0.016370199394895642 0.026237116178432659 0.010505319985509888 -0.0023441977504653645 0.028534820478899839 0.027957832587141768 -0.0021795665352784262 -0.00015808129182775306 0.026991733775466983 -0.0077527568851831269 -0.020767348839535793 0.014595433068734138 0.019066490735136835 0.033069371594568416 0.0026199456775929928 -0.011998609594599346 0.025427203367047804 -0.035917256084223782 0.031527417263746554 -0.018168098819688786
leaf_weight=20.375028073787689 751.0523744225502 1143.8030290305614 254.96697729825974 202.88246536254883 470.97976154088974 47.296179711818695 68.251881092786789 136.15588808059692 40.279731094837189 243.48753470182419 71.267693042755127 8.2497341930866224 63.161572217941284 527.47347968816757 22.937214940786362 26.079189240932465 84.815642535686493 43.727117538452148 199.8347062766552 283.86116072535515 100.21338626742363 243.54319322109222 58.144698470830917 24.162891566753387 296.66896387934685 65.621135324239731 54.139012008905411 11.571664929389952 24.432437896728516 155.29445031285286
leaf_count=37 1877 2936 640 505 1263 122 180 323 73 602 129 22 169 1344 55 65 213 78 534 760 260 612 157 59 770 172 142 31 63 392
internal_value=-4.02208e-05 -0.0053367 0.00831045 0.0144037 -0.0114325 5.33004e-05 0.00163496 0.00047298 -0.00259514 0.00716491 -0.000942529 -0.0050585 -0.000838047 0.00358282 0.000348531 -0.000868756 0.0117025 0.0128873 0.0221368 -0.00440897 -0.00824069 0.00838398 0.00333709 0.00369155 0.00537054 0.00382157 0.00652942 0.00338702 0.00491055 -0.0157823
internal_weight=5744.73 3515.41 2229.32 1282.31 1715 947.005 899.709 1800.42 1234.87 565.55 1098.71 581.835 418.29 831.457 576.49 553.553 1079.43 994.614 243.562 347.023 1244.02 545.175 301.632 516.876 476.596 452.433 386.812 332.673 321.101 163.544
internal_count=14585 8972 5613 3207 4459 2406 2284 4513 3105 1408 2782 1472 1058 2104 1464 1409 2702 2489 612 929 3196 1371 759 1310 1237 1178 1006 864 833 414
is_linear=0
shrinkage=0.05


Tree=27
num_leaves=31
num_cat=0
split_feature=14 11 13 14 11 12 12 27 9 10 19 9 6 10 16 6 10 4 19 4 17 27 11 16 32 27 12 13 15 9
split_gain=97.5721 65.6519 26.6379 17.8142 15.9865 14.9687 13.989 10.295 9.81481 10.931 10.6705 10.1899 9.57592 8.91485 8.63061 8.29146 7.83531 11.995 9.31411 8.79118 8.44997 7.11791 6.78873 14.4408 7.42127 7.04829 6.78464 6.75862 7.31672 6.73094
threshold=9.5000000000000018 5.5000000000000009 9.5000000000000018 4.5000000000000009 11.500000000000002 5.5000000000000009 10.500000000000002 0.42500000000000004 536.50000000000011 502.50000000000006 39.500000000000007 508.50000000000006 7.5000000000000009 542.50000000000011 7.5000000000000009 8.5000000000000018 53.500000000000007 559.00000000000011 15.500000000000002 7614.5000000000009 77.000000000000014 0.47500000000000003 3.5000000000000004 9.5000000000000018 3.5000000000000004 0.47500000000000003 11.500000000000002 6.5000000000000009 5.5000000000000009 631.50000000000011
decision_type=2 2 2 2 2 2 2 2 2 2 2 2 2 2 2 2 2 2 2 2 2 2 2 2 2 2 2 2 2 2
left_child=1 3 5 14 6 15 22 -8 9 11 -10 16 -4 21 -1 -3 17 18 -7 -19 -18 26 25 24 -24 -2 -5 -9 -29 -15
right_child=4 2 12 13 -6 8 7 27 10 -11 -12 -13 -14 29 -16 -17 20 19 -20 -21 -22 -23 23 -25 -26 -27 -28 28 -30 -31
leaf_value=0.0017229606780287785 0.010893447384619847 -0.011989952455716168 -0.018825687096717655 0.0031366824712771323 -0.0051295231595998893 -0.014586458324852988 0.026689083469306336 0.022040567151066615 0.0039268264599105476 -0.016434778253804651 0.038969884533075067 0.04135584364477795 0.017636240710690632 -0.010827751081774865 -0.01143040855072805 0.031173819017484335 -0.010411782833280182 0.029350864748393865 0.026209470329194347 -0.021267066448794544 0.0039155204940518476 0.013559643032632299 0.021442325411886332 -0.014461019388990535 0.0048441507158706503 0.039189214201243876 0.026696762357116495 -0.012430185334249805 0.012920994290498523 0.014173016758578778
leaf_weight=302.94974067807198 69.533057153224945 692.99676644802094 633.04995775222778 423.21360087394714 109.69900050759315 62.044758856296539 297.33373817801476 103.10443076491356 137.28701609373093 142.52335301041603 24.874475866556168 12.815725952386854 17.785625517368317 101.31912499666214 210.71029713749886 10.377908438444136 291.52459406852722 61.686750411987305 17.012063682079315 9.2019694149494153 158.10202726721764 486.04006829857826 99.85303795337677 71.77582660317421 205.22282686829567 32.058193862438202 31.978172838687897 40.849150568246841 88.329560846090317 35.588657677173615
leaf_count=815 184 2147 2049 1205 323 187 775 272 408 445 75 37 52 302 635 30 869 183 50 27 474 1376 281 200 570 80 86 114 234 100
internal_value=-4.60223e-05 -0.00381079 -0.00926591 0.00397386 0.0129572 -0.00582792 0.0149285 0.0205248 -0.00161574 -0.00401465 0.00950809 -0.00110198 -0.0178038 0.00762256 -0.00368445 -0.0113097 -0.00207686 0.00778712 -0.00558994 0.0225758 -0.00537637 0.00935558 0.00870376 0.00558178 0.0103291 0.0201174 0.00484672 0.0125536 0.00487049 -0.00427325
internal_weight=4980.84 3863.08 2271.28 1591.8 1117.76 1620.45 1008.06 529.617 917.073 754.911 162.161 612.388 650.836 1078.14 513.66 703.375 599.572 149.946 79.0568 70.8887 449.627 941.232 478.443 376.852 305.076 101.591 455.192 232.283 129.179 136.908
internal_count=14585 11552 7033 4519 3033 4932 2710 1395 2755 2272 483 1827 2101 3069 1450 2177 1790 447 237 210 1343 2667 1315 1051 851 264 1291 620 348 402
is_linear=0
shrinkage=0.05


Tree=28
num_leaves=31
num_cat=0
split_feature=13 27 22 6 9 10 0 31 20 1 4 6 20 4 15 12 4 10 22 18 20 17 1 17 17 22 15 20 14 31
split_gain=11.2624 7.39003 5.99882 5.91312 5.60025 7.55662 7.9892 7.18278 7.14711 7.37942 6.89181 5.44217 5.41846 5.17001 5.12471 6.3969 5.75353 6.24775 5.27799 5.94237 9.78575 5.54225 6.91884 4.7694 5.11085 4.76434 5.00959 4.74588 6.39355 6.57243
