{"learner":{"attributes":{},"feature_names":["home_team_enc","away_team_enc","goal_diff","home_advantage","home_form","away_form","home_conceded","away_conceded"],"feature_types":["int","int","float","int","int","int","float","float"],"gradient_booster":{"model":{"gbtree_model_param":{"num_parallel_tree":"1","num_trees":"300"},"iteration_indptr":[0,3,6,9,12,15,18,21,24,27,30,33,36,39,42,45,48,51,54,57,60,63,66,69,72,75,78,81,84,87,90,93,96,99,102,105,108,111,114,117,120,123,126,129,132,135,138,141,144,147,150,153,156,159,162,165,168,171,174,177,180,183,186,189,192,195,198,201,204,207,210,213,216,219,222,225,228,231,234,237,240,243,246,249,252,255,258,261,264,267,270,273,276,279,282,285,288,291,294,297,300],"tree_info":[0,1,2,0,1,2,0,1,2,0,1,2,0,1,2,0,1,2,0,1,2,0,1,2,0,1,2,0,1,2,0,1,2,0,1,2,0,1,2,0,1,2,0,1,2,0,1,2,0,1,2,0,1,2,0,1,2,0,1,2,0,1,2,0,1,2,0,1,2,0,1,2,0,1,2,0,1,2,0,1,2,0,1,2,0,1,2,0,1,2,0,1,2,0,1,2,0,1,2,0,1,2,0,1,2,0,1,2,0,1,2,0,1,2,0,1,2,0,1,2,0,1,2,0,1,2,0,1,2,0,1,2,0,1,2,0,1,2,0,1,2,0,1,2,0,1,2,0,1,2,0,1,2,0,1,2,0,1,2,0,1,2,0,1,2,0,1,2,0,1,2,0,1,2,0,1,2,0,1,2,0,1,2,0,1,2,0,1,2,0,1,2,0,1,2,0,1,2,0,1,2,0,1,2,0,1,2,0,1,2,0,1,2,0,1,2,0,1,2,0,1,2,0,1,2,0,1,2,0,1,2,0,1,2,0,1,2,0,1,2,0,1,2,0,1,2,0,1,2,0,1,2,0,1,2,0,1,2,0,1,2,0,1,2,0,1,2,0,1,2,0,1,2,0,1,2,0,1,2,0,1,2,0,1,2,0,1,2,0,1,2,0,1,2,0,1,2,0,1,2],"trees":[{"base_weights":[2.1071875E-2,-1.6763408E-1,4.4786307E-1,3.463694E-2,-3.3700824E-1,6.4883125E-1,2.5375398E-2,-1.4159596E-1,2.8000504E-1,-4.5923138E-1,-1.6948338E-1,4.5848152E-1,8.199948E-1,7.888468E-2,-5.354147E-1,-5.424055E-2,-8.605684E-3,4.3420065E-2,1.49238305E-2,-3.8756635E-2,-5.944369E-2,-3.9095557E-3,-3.377364E-2,6.5495744E-2,3.5447136E-2,6.092922E-2,9.437514E-2,7.0795015E-2,4.874726E-3,-2.1280063E-2,-6.660371E-2],"categories":[],"categories_nodes":[],"categories_segments":[],"categories_sizes":[],"default_left":[0,0,0,0,0,0,0,0,0,0,0,0,0,0,0,0,0,0,0,0,0,0,0,0,0,0,0,0,0,0,0],"id":0,"left_children":[1,3,5,7,9,11,13,15,17,19,21,23,25,27,29,-1,-1,-1,-1,-1,-1,-1,-1,-1,-1,-1,-1,-1,-1,-1,-1],"loss_changes":[1.2152996E2,3.5861443E1,3.9263466E1,2.0700785E1,1.1585274E1,9.836838E0,4.5483346E0,6.1582766E0,3.9691772E0,2.9550705E0,5.292826E0,2.8470535E0,3.6956635E0,2.5809364E0,4.148934E-1,0E0,0E0,0E0,0E0,0E0,0E0,0E0,0E0,0E0,0E0,0E0,0E0,0E0,0E0,0E0,0E0],"parents":[2147483647,0,0,1,1,2,2,3,3,4,4,5,5,6,6,7,7,8,8,9,9,10,10,11,11,12,12,13,13,14,14],"right_children":[2,4,6,8,10,12,14,16,18,20,22,24,26,28,30,-1,-1,-1,-1,-1,-1,-1,-1,-1,-1,-1,-1,-1,-1,-1,-1],"split_conditions":[1.7E1,1.2E1,1.6E1,1.2E1,1.2E1,2.1E1,2.8E1,6E0,9E0,1.9E1,1.7E1,9E0,3.8E1,7E-1,1E1,-5.424055E-2,-8.605684E-3,4.3420065E-2,1.49238305E-2,-3.8756635E-2,-5.944369E-2,-3.9095557E-3,-3.377364E-2,6.5495744E-2,3.5447136E-2,6.092922E-2,9.437514E-2,7.0795015E-2,4.874726E-3,-2.1280063E-2,-6.660371E-2],"split_indices":[5,4,4,5,5,5,4,5,4,4,4,4,1,7,0,0,0,0,0,0,0,0,0,0,0,0,0,0,0,0,0],"split_type":[0,0,0,0,0,0,0,0,0,0,0,0,0,0,0,0,0,0,0,0,0,0,0,0,0,0,0,0,0,0,0],"sum_hessian":[1.5070438E3,1.0454186E3,4.6162518E2,4.7680328E2,5.686153E2,3.1245932E2,1.4916586E2,2.7774146E2,1.990618E2,3.2775204E2,2.4086328E2,1.4967993E2,1.6277939E2,1.3695706E2,1.2208791E1,3.2735172E1,2.450063E2,9.028289E1,1.0877891E2,2.167377E2,1.11014336E2,1.3639568E2,1.0446761E2,4.997666E1,9.970328E1,6.2423393E1,1.00355995E2,5.2331705E0,1.3172389E2,4.276277E0,7.9325137E0],"tree_param":{"num_deleted":"0","num_feature":"8","num_nodes":"31","size_leaf_vector":"1"}},{"base_weights":[2.0262618E-2,7.742587E-2,-1.7950189E-1,1.3138157E-1,-2.1464677E-1,-8.312536E-2,-2.9258668E-1,-3.7357175E-1,1.4696418E-1,2.6395363E-1,-3.0370474E-1,4.741238E-2,-1.572968E-1,-6.128296E-1,-2.5622818E-1,3.4713693E-2,-4.398762E-2,2.2781262E-2,7.403807E-3,-1.8455563E-2,5.8409274E-2,-1.30876545E-2,-4.8099775E-2,9.78927E-3,-6.0088646E-2,5.995899E-2,-1.7237116E-2,-1.440932E-2,-6.911026E-2,-2.7746478E-2,2.7963182E-2],"categories":[],"categories_nodes":[],"categories_segments":[],"categories_sizes":[],"default_left":[0,0,0,0,0,0,0,0,0,0,0,0,0,0,0,0,0,0,0,0,0,0,0,0,0,0,0,0,0,0,0],"id":1,"left_children":[1,3,5,7,9,11,13,15,17,19,21,23,25,27,29,-1,-1,-1,-1,-1,-1,-1,-1,-1,-1,-1,-1,-1,-1,-1,-1],"loss_changes":[1.7423237E1,1.8719456E1,3.6757832E0,7.9371357E0,7.97917E0,1.7956287E0,1.6571827E0,1.5992007E0,5.7168236E0,4.359291E0,4.738909E0,2.273912E0,1.4496994E0,4.5691442E-1,1.689477E0,0E0,0E0,0E0,0E0,0E0,0E0,0E0,0E0,0E0,0E0,0E0,0E0,0E0,0E0,0E0,0E0],"parents":[2147483647,0,0,1,1,2,2,3,3,4,4,5,5,6,6,7,7,8,8,9,9,10,10,11,11,12,12,13,13,14,14],"right_children":[2,4,6,8,10,12,14,16,18,20,22,24,26,28,30,-1,-1,-1,-1,-1,-1,-1,-1,-1,-1,-1,-1,-1,-1,-1,-1],"split_conditions":[1.8E1,2.1E1,1.6E0,-8E-1,1.1E0,5E-1,9E0,1.3E0,4.2E1,1E0,4.4E1,7.1E1,8E-1,1.9E1,2E1,3.4713693E-2,-4.398762E-2,2.2781262E-2,7.403807E-3,-1.8455563E-2,5.8409274E-2,-1.30876545E-2,-4.8099775E-2,9.78927E-3,-6.0088646E-2,5.995899E-2,-1.7237116E-2,-1.440932E-2,-6.911026E-2,-2.7746478E-2,2.7963182E-2],"split_indices":[4,5,7,2,6,2,1,6,1,7,1,1,7,4,5,0,0,0,0,0,0,0,0,0,0,0,0,0,0,0,0],"split_type":[0,0,0,0,0,0,0,0,0,0,0,0,0,0,0,0,0,0,0,0,0,0,0,0,0,0,0,0,0,0,0],"sum_hessian":[1.5235686E3,1.1850696E3,3.3849902E2,1.0007478E3,1.8432182E2,1.836869E2,1.5481213E2,2.9270332E1,9.714775E2,2.8609518E1,1.5571231E2,6.668524E1,1.1700166E2,1.4167821E1,1.406443E2,2.1091402E0,2.7161194E1,4.5970667E2,5.117708E2,1.2092147E1,1.651737E1,7.9729164E1,7.598314E1,6.2655518E1,4.0297227E0,1.5275475E0,1.1547412E2,2.4338222E0,1.1733999E1,1.3574675E2,4.89755E0],"tree_param":{"num_deleted":"0","num_feature":"8","num_nodes":"31","size_leaf_vector":"1"}},{"base_weights":[2.4292136E-3,-2.2628489E-1,4.530361E-1,-4.69432E-1,-8.474178E-2,2.9994702E-1,7.9820704E-1,-3.422131E-1,-5.8191955E-1,-2.0040524E-1,9.978233E-2,2.2258908E-2,4.6673864E-1,1.802125E-1,8.8295794E-1,-4.3899193E-2,3.8829397E-3,-4.689449E-2,-6.1652053E-2,-2.8653666E-2,4.844289E-3,-2.1687143E-2,1.911473E-2,-4.9799155E-2,8.875671E-3,2.0212261E-2,5.5039134E-2,-1.0532761E-2,9.742917E-2,9.7110026E-2,5.6928337E-2],"categories":[],"categories_nodes":[],"categories_segments":[],"categories_sizes":[],"default_left":[0,0,0,0,0,0,0,0,0,0,0,0,0,0,0,0,0,0,0,0,0,0,0,0,0,0,0,0,0,0,0],"id":2,"left_children":[1,3,5,7,9,11,13,15,17,19,21,23,25,27,29,-1,-1,-1,-1,-1,-1,-1,-1,-1,-1,-1,-1,-1,-1,-1,-1],"loss_changes":[1.553525E2,3.4372322E1,2.6578323E1,5.0625687E0,1.3534445E1,1.6347527E1,7.976326E0,6.469385E0,4.6810913E-1,8.363686E0,7.1193423E0,4.665518E0,4.7718925E0,4.6349683E0,3.21669E0,0E0,0E0,0E0,0E0,0E0,0E0,0E0,0E0,0E0,0E0,0E0,0E0,0E0,0E0,0E0,0E0],"parents":[2147483647,0,0,1,1,2,2,3,3,4,4,5,5,6,6,7,7,8,8,9,9,10,10,11,11,12,12,13,13,14,14],"right_children":[2,4,6,8,10,12,14,16,18,20,22,24,26,28,30,-1,-1,-1,-1,-1,-1,-1,-1,-1,-1,-1,-1,-1,-1,-1,-1],"split_conditions":[5E-1,-2E-1,1.1E0,1.9E1,1.3E1,1.5E0,1.2E0,1.2E1,2.9E1,1.8E0,1.1E0,1E1,1.2E1,1.5E0,1.3E0,-4.3899193E-2,3.8829397E-3,-4.689449E-2,-6.1652053E-2,-2.8653666E-2,4.844289E-3,-2.1687143E-2,1.911473E-2,-4.9799155E-2,8.875671E-3,2.0212261E-2,5.5039134E-2,-1.0532761E-2,9.742917E-2,9.7110026E-2,5.6928337E-2],"split_indices":[2,2,2,5,4,7,7,4,1,7,7,4,4,2,6,0,0,0,0,0,0,0,0,0,0,0,0,0,0,0,0],"split_type":[0,0,0,0,0,0,0,0,0,0,0,0,0,0,0,0,0,0,0,0,0,0,0,0,0,0,0,0,0,0,0],"sum_hessian":[1.5054016E3,9.988926E2,5.065091E2,3.6668066E2,6.3221185E2,3.5218024E2,1.5432886E2,1.7396994E2,1.9271074E2,3.8856525E2,2.4364664E2,1.3258144E2,2.195988E2,1.8989058E1,1.353398E2,1.3861246E2,3.5357483E1,4.8595592E1,1.4411514E2,2.885431E2,1.0002213E2,5.425061E1,1.8939603E2,1.4290422E1,1.18291016E2,5.3567265E1,1.6603154E2,1.4604748E1,4.3843102E0,1.040156E2,3.13242E1],"tree_param":{"num_deleted":"0","num_feature":"8","num_nodes":"31","size_leaf_vector":"1"}},{"base_weights":[1.506389E-2,3.66943E-1,-2.4087329E-1,8.48298E-1,2.576748E-1,-8.7452345E-2,-4.827669E-1,7.587383E-1,1.2861729E-1,4.7372792E-2,4.060728E-1,-2.0279364E-1,2.2028252E-1,-4.068397E-1,-6.2034994E-1,1.37500195E-2,8.1076786E-2,-6.459529E-3,2.9830405E-2,-6.6055865E-3,4.7725175E-2,-5.1725574E-2,-1.5128707E-2,-1.8984731E-2,3.62734E-2,-6.0397077E-2,-3.4174126E-2,-6.346158E-2,-1.2073642E-2],"categories":[],"categories_nodes":[],"categories_segments":[],"categories_sizes":[],"default_left":[0,0,0,0,0,0,0,0,0,0,0,0,0,0,0,0,0,0,0,0,0,0,0,0,0,0,0,0,0],"id":3,"left_children":[1,3,5,7,9,11,13,15,-1,17,19,21,23,25,27,-1,-1,-1,-1,-1,-1,-1,-1,-1,-1,-1,-1,-1,-1],"loss_changes":[1.3667879E2,3.3392548E1,3.2565613E1,3.6432953E0,1.627921E1,1.9171432E1,3.307495E0,3.1281013E0,0E0,6.1215196E0,1.0316696E1,6.2786484E0,8.679778E0,2.6489105E0,7.735367E-1,0E0,0E0,0E0,0E0,0E0,0E0,0E0,0E0,0E0,0E0,0E0,0E0,0E0,0E0],"parents":[2147483647,0,0,1,1,2,2,3,3,4,4,5,5,6,6,7,7,9,9,10,10,11,11,12,12,13,13,14,14],"right_children":[2,4,6,8,10,12,14,16,-1,18,20,22,24,26,28,-1,-1,-1,-1,-1,-1,-1,-1,-1,-1,-1,-1,-1,-1],"split_conditions":[1E-1,-7E-1,7E-1,2.1E0,1.3E0,1.5E1,1.2E0,1.5E1,1.2861729E-1,2E1,1E1,1E0,1E0,8E0,2E1,1.37500195E-2,8.1076786E-2,-6.459529E-3,2.9830405E-2,-6.6055865E-3,4.7725175E-2,-5.1725574E-2,-1.5128707E-2,-1.8984731E-2,3.62734E-2,-6.0397077E-2,-3.4174126E-2,-6.346158E-2,-1.2073642E-2],"split_indices":[2,2,2,6,6,5,2,5,0,5,5,6,6,5,5,0,0,0,0,0,0,0,0,0,0,0,0,0,0],"split_type":[0,0,0,0,0,0,0,0,0,0,0,0,0,0,0,0,0,0,0,0,0,0,0,0,0,0,0,0,0],"sum_hessian":[1.5156777E3,6.380337E2,8.77644E2,1.1678809E2,5.212456E2,5.3786487E2,3.397791E2,9.922592E1,1.7562174E1,2.1619061E2,3.05055E2,3.9147733E2,1.4638757E2,2.2149884E2,1.18280266E2,7.949607E0,9.127631E1,1.5000114E2,6.618946E1,3.9974804E1,2.6508017E2,5.3824028E1,3.376533E2,3.765189E1,1.0873567E2,5.2932102E1,1.6856674E2,1.1473397E2,3.546299E0],"tree_param":{"num_deleted":"0","num_feature":"8","num_nodes":"29","size_leaf_vector":"1"}},{"base_weights":[-1.5816217E-2,-1.7270045E-1,2.1355348E-2,-7.3573757E-3,-2.6076382E-1,6.2423278E-2,-2.0736866E-1,-1.9250524E-1,9.9950284E-2,-2.0394048E-1,-6.5087956E-1,1.5845537E-1,2.1968193E-2,1.8645555E-1,-2.710647E-1,-5.278985E-2,-7.5540966E-3,2.2171145E-2,-2.4700757E-2,-7.868361E-3,-3.3717472E-2,-7.024105E-2,-1.957187E-2,2.2947902E-2,-7.440706E-3,6.6667865E-3,-1.1089631E-2,-4.1515823E-2,3.5629112E-2,-4.1974045E-2,-9.830096E-3],"categories":[],"categories_nodes":[],"categories_segments":[],"categories_sizes":[],"default_left":[0,0,0,0,0,0,0,0,0,0,0,0,0,0,0,0,0,0,0,0,0,0,0,0,0,0,0,0,0,0,0],"id":4,"left_children":[1,3,5,7,9,11,13,15,17,19,21,23,25,27,29,-1,-1,-1,-1,-1,-1,-1,-1,-1,-1,-1,-1,-1,-1,-1,-1],"loss_changes":[8.778258E0,4.1963205E0,1.14475355E1,2.0304182E0,4.0369844E0,4.0088944E0,4.704653E0,1.4305956E0,2.7899275E0,2.7377667E0,4.1273785E-1,5.0772724E0,4.3299756E0,2.847641E0,4.071311E0,0E0,0E0,0E0,0E0,0E0,0E0,0E0,0E0,0E0,0E0,0E0,0E0,0E0,0E0,0E0,0E0],"parents":[2147483647,0,0,1,1,2,2,3,3,4,4,5,5,6,6,7,7,8,8,9,9,10,10,11,11,12,12,13,13,14,14],"right_children":[2,4,6,8,10,12,14,16,18,20,22,24,26,28,30,-1,-1,-1,-1,-1,-1,-1,-1,-1,-1,-1,-1,-1,-1,-1,-1],"split_conditions":[-3E-1,1.3E0,1E0,1E0,2.7E1,2.5E1,1.2E0,1E1,5.9E1,4.2E1,-5E-1,1.7E1,1.8E0,1.7E1,1.1E0,-5.278985E-2,-7.5540966E-3,2.2171145E-2,-2.4700757E-2,-7.868361E-3,-3.3717472E-2,-7.024105E-2,-1.957187E-2,2.2947902E-2,-7.440706E-3,6.6667865E-3,-1.1089631E-2,-4.1515823E-2,3.5629112E-2,-4.1974045E-2,-9.830096E-3],"split_indices":[2,6,2,7,5,0,7,1,1,0,2,5,7,0,6,0,0,0,0,0,0,0,0,0,0,0,0,0,0,0,0],"split_type":[0,0,0,0,0,0,0,0,0,0,0,0,0,0,0,0,0,0,0,0,0,0,0,0,0,0,0,0,0,0,0],"sum_hessian":[1.5036509E3,2.873273E2,1.2163236E3,1.0022805E2,1.8709924E2,1.0317903E3,1.8453328E2,3.6484318E1,6.3743736E1,1.6464081E2,2.2458431E1,3.0496027E2,7.2683E2,2.5422441E1,1.5911084E2,8.525176E0,2.795914E1,4.745196E1,1.6291775E1,8.568075E1,7.896006E1,1.9686426E1,2.772005E0,2.3369669E2,7.126357E1,5.44232E2,1.8259802E2,5.2787814E0,2.0143661E1,8.47488E1,7.436204E1],"tree_param":{"num_deleted":"0","num_feature":"8","num_nodes":"31","size_leaf_vector":"1"}},{"base_weights":[-2.0919056E-3,-1.7032138E-1,5.43732E-1,-4.5289668E-1,-3.778134E-2,3.907654E-1,7.78847E-1,-5.035718E-1,-2.2860202E-1,-1.4839512E-1,1.0987083E-1,7.086935E-2,5.1667666E-1,9.288464E-1,5.7176036E-1,-2.754516E-2,-5.364413E-2,-3.2856394E-2,1.3466542E-2,-3.3718433E-2,-4.86045E-3,2.7319307E-2,-9.272284E-3,1.877202E-2,-2.7575502E-2,3.3149254E-2,6.8832934E-2,7.5666785E-2,1.16238914E-1,3.9564982E-2,9.8384514E-2],"categories":[],"categories_nodes":[],"categories_segments":[],"categories_sizes":[],"default_left":[0,0,0,0,0,0,0,0,0,0,0,0,0,0,0,0,0,0,0,0,0,0,0,0,0,0,0,0,0,0,0],"id":5,"left_children":[1,3,5,7,9,11,13,15,17,19,21,23,25,27,29,-1,-1,-1,-1,-1,-1,-1,-1,-1,-1,-1,-1,-1,-1,-1,-1],"loss_changes":[1.391897E2,4.3379116E1,1.2539696E1,4.088814E0,1.291618E1,8.758984E0,3.8102493E0,2.1082153E0,2.5859647E0,8.498618E0,1.1237425E1,2.5967531E0,4.747677E0,2.3152237E0,4.0601025E0,0E0,0E0,0E0,0E0,0E0,0E0,0E0,0E0,0E0,0E0,0E0,0E0,0E0,0E0,0E0,0E0],"parents":[2147483647,0,0,1,1,2,2,3,3,4,4,5,5,6,6,7,7,8,8,9,9,10,10,11,11,12,12,13,13,14,14],"right_children":[2,4,6,8,10,12,14,16,18,20,22,24,26,28,30,-1,-1,-1,-1,-1,-1,-1,-1,-1,-1,-1,-1,-1,-1,-1,-1],"split_conditions":[7E-1,-2E-1,1.8E0,1.7E0,1.6E0,1.6E1,1.2E0,1.3E1,1.2E1,1.1E1,1.4E0,1.3E1,1.1E0,1.3E0,2.3E0,-2.754516E-2,-5.364413E-2,-3.2856394E-2,1.3466542E-2,-3.3718433E-2,-4.86045E-3,2.7319307E-2,-9.272284E-3,1.877202E-2,-2.7575502E-2,3.3149254E-2,6.8832934E-2,7.5666785E-2,1.16238914E-1,3.9564982E-2,9.8384514E-2],"split_indices":[2,2,7,7,7,4,6,5,4,4,6,5,2,2,7,0,0,0,0,0,0,0,0,0,0,0,0,0,0,0,0],"split_type":[0,0,0,0,0,0,0,0,0,0,0,0,0,0,0,0,0,0,0,0,0,0,0,0,0,0,0,0,0,0,0],"sum_hessian":[1.5138281E3,1.1576992E3,3.5612885E2,3.688641E2,7.8883514E2,2.1736954E2,1.3875931E2,2.998692E2,6.899489E1,4.5097885E2,3.3785632E2,6.183402E1,1.5553552E2,7.84501E1,6.0309208E1,3.894735E1,2.6092184E2,5.4181152E1,1.4813738E1,1.5512543E2,2.958534E2,1.8686522E2,1.509911E2,4.658735E1,1.5246669E1,7.6228775E1,7.930675E1,4.7598343E1,3.0851759E1,4.3625378E1,1.668383E1],"tree_param":{"num_deleted":"0","num_feature":"8","num_nodes":"31","size_leaf_vector":"1"}},{"base_weights":[1.2319221E-2,3.0278805E-1,-2.6954028E-1,8.060166E-1,2.0863925E-1,-3.5292038E-1,2.9194381E-2,4.5882484E-1,8.7539256E-1,-1.0099832E-1,2.812927E-1,-2.341201E-1,-4.8915184E-1,8.328873E-2,-5.90961E-1,1.3539784E-2,6.767162E-2,1.0910869E-1,7.438843E-2,3.305472E-2,-1.449579E-2,3.918265E-2,1.5472995E-2,-8.224305E-3,-2.9610006E-2,-4.2156953E-2,-5.6995433E-2,1.6842157E-3,4.967453E-2,-7.3433532E-3,-6.588583E-2],"categories":[],"categories_nodes":[],"categories_segments":[],"categories_sizes":[],"default_left":[0,0,0,0,0,0,0,0,0,0,0,0,0,0,0,0,0,0,0,0,0,0,0,0,0,0,0,0,0,0,0],"id":6,"left_children":[1,3,5,7,9,11,13,15,17,19,21,23,25,27,29,-1,-1,-1,-1,-1,-1,-1,-1,-1,-1,-1,-1,-1,-1,-1,-1],"loss_changes":[1.2298592E2,3.488111E1,1.9000896E1,2.3982315E0,1.407803E1,9.533386E0,5.6611986E0,1.4207397E0,1.9052429E0,2.313504E0,7.019516E0,2.9912415E0,1.2711334E0,4.2428446E0,4.2756557E-1,0E0,0E0,0E0,0E0,0E0,0E0,0E0,0E0,0E0,0E0,0E0,0E0,0E0,0E0,0E0,0E0],"parents":[2147483647,0,0,1,1,2,2,3,3,4,4,5,5,6,6,7,7,8,8,9,9,10,10,11,11,12,12,13,13,14,14],"right_children":[2,4,6,8,10,12,14,16,18,20,22,24,26,28,30,-1,-1,-1,-1,-1,-1,-1,-1,-1,-1,-1,-1,-1,-1,-1,-1],"split_conditions":[2E-1,-7E-1,1.5E1,1.8E1,1.1E1,7E-1,2.8E1,2.1E1,8E0,4E0,1.4E0,1.5E0,1.1E0,7.1E1,5E0,1.3539784E-2,6.767162E-2,1.0910869E-1,7.438843E-2,3.305472E-2,-1.449579E-2,3.918265E-2,1.5472995E-2,-8.224305E-3,-2.9610006E-2,-4.2156953E-2,-5.6995433E-2,1.6842157E-3,4.967453E-2,-7.3433532E-3,-6.588583E-2],"split_indices":[2,2,5,5,5,2,4,0,4,0,7,7,2,0,0,0,0,0,0,0,0,0,0,0,0,0,0,0,0,0,0],"split_type":[0,0,0,0,0,0,0,0,0,0,0,0,0,0,0,0,0,0,0,0,0,0,0,0,0,0,0,0,0,0,0],"sum_hessian":[1.5001873E3,7.387736E2,7.614136E2,1.1524172E2,6.235319E2,5.9512604E2,1.6628754E2,2.0460543E1,9.478117E1,1.1842654E2,5.0510538E2,3.1935336E2,2.7577267E2,1.5374269E2,1.2544831E1,8.88842E0,1.1572124E1,3.3136074E1,6.1645103E1,1.0345618E1,1.0808092E2,2.6850775E2,2.3659763E2,9.322924E1,2.2612411E2,1.5355678E2,1.222159E2,1.3335239E2,2.0390316E1,1.6963578E0,1.0848474E1],"tree_param":{"num_deleted":"0","num_feature":"8","num_nodes":"31","size_leaf_vector":"1"}},{"base_weights":[2.2109102E-2,7.097655E-2,-1.5082556E-1,1.1830899E-1,-1.9877031E-1,-8.904418E-2,-2.9458347E-1,1.3276549E-1,-1.9642872E-1,2.7289754E-1,-2.5338036E-1,-1.1368039E-2,-2.0150834E-1,-3.394353E-1,1.671488E-1,2.1133846E-2,7.2058276E-3,-6.567251E-2,-9.465092E-3,-6.3979006E-3,5.2600283E-2,-4.4093207E-2,-1.7143233E-2,-1.5584043E-2,6.505777E-3,-1.5135503E-2,-4.4371594E-2,-3.0219454E-2,-6.454923E-2,9.445577E-2,-1.3360016E-2],"categories":[],"categories_nodes":[],"categories_segments":[],"categories_sizes":[],"default_left":[0,0,0,0,0,0,0,0,0,0,0,0,0,0,0,0,0,0,0,0,0,0,0,0,0,0,0,0,0,0,0],"id":7,"left_children":[1,3,5,7,9,11,13,15,17,19,21,23,25,27,29,-1,-1,-1,-1,-1,-1,-1,-1,-1,-1,-1,-1,-1,-1,-1,-1],"loss_changes":[1.2866446E1,1.517573E1,2.9533353E0,4.622614E0,4.641863E0,2.0599875E0,2.1360836E0,4.5947285E0,2.035091E0,1.6454101E0,2.37776E0,1.5635772E0,1.103626E0,8.517742E-1,2.3613005E0,0E0,0E0,0E0,0E0,0E0,0E0,0E0,0E0,0E0,0E0,0E0,0E0,0E0,0E0,0E0,0E0],"parents":[2147483647,0,0,1,1,2,2,3,3,4,4,5,5,6,6,7,7,8,8,9,9,10,10,11,11,12,12,13,13,14,14],"right_children":[2,4,6,8,10,12,14,16,18,20,22,24,26,28,30,-1,-1,-1,-1,-1,-1,-1,-1,-1,-1,-1,-1,-1,-1,-1,-1],"split_conditions":[1.8E1,2.1E1,5.3E1,2.1E0,1E0,1.7E0,7.2E1,3.5E1,1.5E1,1E0,2.3E1,1E1,1.5E0,2.2E0,1E0,2.1133846E-2,7.2058276E-3,-6.567251E-2,-9.465092E-3,-6.3979006E-3,5.2600283E-2,-4.4093207E-2,-1.7143233E-2,-1.5584043E-2,6.505777E-3,-1.5135503E-2,-4.4371594E-2,-3.0219454E-2,-6.454923E-2,9.445577E-2,-1.3360016E-2],"split_indices":[4,5,0,6,6,7,0,0,0,7,0,0,6,7,7,0,0,0,0,0,0,0,0,0,0,0,0,0,0,0,0],"split_type":[0,0,0,0,0,0,0,0,0,0,0,0,0,0,0,0,0,0,0,0,0,0,0,0,0,0,0,0,0,0,0],"sum_hessian":[1.5202319E3,1.185754E3,3.3447784E2,1.0092266E3,1.7652745E2,2.3507253E2,9.940531E1,9.654594E2,4.3767178E1,1.7902864E1,1.5862459E2,1.3969193E2,9.538059E1,9.0845604E1,8.559711E0,4.1972742E2,5.45732E2,6.9378386E0,3.6829338E1,8.000984E0,9.901879E0,4.6901672E1,1.11722916E2,4.7970757E1,9.172117E1,8.036459E1,1.5015997E1,8.2762505E1,8.083094E0,1.7905688E0,6.769143E0],"tree_param":{"num_deleted":"0","num_feature":"8","num_nodes":"31","size_leaf_vector":"1"}},{"base_weights":[-8.343602E-3,-2.4150655E-1,3.2519272E-1,-4.3871462E-1,-1.1191698E-1,-1.456369E-4,4.4141465E-1,-5.172489E-1,-2.7823037E-1,3.4064168E-1,-1.5707876E-1,2.3921277E-1,-2.8517935E-1,3.0675757E-1,6.909268E-1,-6.5924555E-2,-4.724968E-2,-3.725293E-2,8.764764E-3,-1.18793985E-2,5.6922812E-2,-4.371436E-2,-1.1450012E-2,3.2403644E-2,-3.639884E-2,-3.8089614E-2,-7.453464E-3,1.7443953E-2,4.494668E-2,8.5641444E-2,5.96458E-2],"categories":[],"categories_nodes":[],"categories_segments":[],"categories_sizes":[],"default_left":[0,0,0,0,0,0,0,0,0,0,0,0,0,0,0,0,0,0,0,0,0,0,0,0,0,0,0,0,0,0,0],"id":8,"left_children":[1,3,5,7,9,11,13,15,17,19,21,23,25,27,29,-1,-1,-1,-1,-1,-1,-1,-1,-1,-1,-1,-1,-1,-1,-1,-1],"loss_changes":[1.186991E2,2.2908169E1,2.3745613E1,4.3413696E0,1.1160364E1,1.1413641E1,1.533429E1,1.1995277E0,4.1416254E0,5.27929E0,5.8504114E0,4.7705946E0,1.5112143E0,5.6302814E0,2.0122147E0,0E0,0E0,0E0,0E0,0E0,0E0,0E0,0E0,0E0,0E0,0E0,0E0,0E0,0E0,0E0,0E0],"parents":[2147483647,0,0,1,1,2,2,3,3,4,4,5,5,6,6,7,7,8,8,9,9,10,10,11,11,12,12,13,13,14,14],"right_children":[2,4,6,8,10,12,14,16,18,20,22,24,26,28,30,-1,-1,-1,-1,-1,-1,-1,-1,-1,-1,-1,-1,-1,-1,-1,-1],"split_conditions":[4E-1,-2E-1,1.4E0,1.5E0,9E-1,1.2E0,1E0,7E0,1.2E1,1.4E1,7E0,6.7E1,1.3E0,1.8E0,9E-1,-6.5924555E-2,-4.724968E-2,-3.725293E-2,8.764764E-3,-1.18793985E-2,5.6922812E-2,-4.371436E-2,-1.1450012E-2,3.2403644E-2,-3.639884E-2,-3.8089614E-2,-7.453464E-3,1.7443953E-2,4.494668E-2,8.5641444E-2,5.96458E-2],"split_indices":[2,2,7,7,6,6,2,4,4,4,4,0,7,7,6,0,0,0,0,0,0,0,0,0,0,0,0,0,0,0,0],"split_type":[0,0,0,0,0,0,0,0,0,0,0,0,0,0,0,0,0,0,0,0,0,0,0,0,0,0,0,0,0,0,0],"sum_hessian":[1.5243071E3,8.973081E2,6.269991E2,3.5487598E2,5.4243207E2,1.652937E2,4.617054E2,2.3678183E2,1.1809416E2,4.8625126E1,4.9380698E2,8.9932884E1,7.536081E1,3.0131873E2,1.603867E2,5.3451485E1,1.8333034E2,9.387999E1,2.421417E1,1.6314646E1,3.231048E1,6.394384E1,4.2986313E2,7.925119E1,1.06817E1,5.1260044E1,2.4100765E1,1.5750476E2,1.4381395E2,5.535384E1,1.0503285E2],"tree_param":{"num_deleted":"0","num_feature":"8","num_nodes":"31","size_leaf_vector":"1"}},{"base_weights":[1.8196885E-2,-1.6136995E-1,3.3894214E-1,-4.5103648E-1,-6.402192E-2,-9.364146E-2,4.362027E-1,-5.714069E-1,-3.929593E-1,1.7538975E-1,-1.5617937E-1,-2.7509231E-2,-5.041259E-1,4.0003893E-1,1.0810053E-1,-5.9742637E-2,-3.7866365E-2,-1.9443117E-2,-4.4748764E-2,9.692359E-3,6.774839E-2,1.0583947E-2,-2.2523802E-2,5.812441E-2,-5.3271693E-3,-2.0932775E-2,-6.236365E-2,2.4627794E-2,5.652944E-2],"categories":[],"categories_nodes":[],"categories_segments":[],"categories_sizes":[],"default_left":[0,0,0,0,0,0,0,0,0,0,0,0,0,0,0,0,0,0,0,0,0,0,0,0,0,0,0,0,0],"id":9,"left_children":[1,3,5,7,9,11,13,15,17,19,21,23,25,27,-1,-1,-1,-1,-1,-1,-1,-1,-1,-1,-1,-1,-1,-1,-1],"loss_changes":[8.575841E1,2.689058E1,2.2524532E1,1.4529762E0,1.5817873E1,2.6714067E0,9.745476E0,1.5439987E-1,1.6998997E0,7.7897787E0,9.384055E0,1.3836397E0,3.50986E-1,1.0402863E1,0E0,0E0,0E0,0E0,0E0,0E0,0E0,0E0,0E0,0E0,0E0,0E0,0E0,0E0,0E0],"parents":[2147483647,0,0,1,1,2,2,3,3,4,4,5,5,6,6,7,7,8,8,9,9,10,10,11,11,12,12,13,13],"right_children":[2,4,6,8,10,12,14,16,18,20,22,24,26,28,-1,-1,-1,-1,-1,-1,-1,-1,-1,-1,-1,-1,-1,-1,-1],"split_conditions":[1.6E1,1.1E0,1E0,9E0,9E0,2.8E1,2E0,2.4E0,1.3E1,2.3E0,1.4E0,7E-1,1E1,2.1E1,1.0810053E-1,-5.9742637E-2,-3.7866365E-2,-1.9443117E-2,-4.4748764E-2,9.692359E-3,6.774839E-2,1.0583947E-2,-2.2523802E-2,5.812441E-2,-5.3271693E-3,-2.0932775E-2,-6.236365E-2,2.4627794E-2,5.652944E-2],"split_indices":[5,6,6,5,4,4,6,7,4,6,7,7,0,5,0,0,0,0,0,0,0,0,0,0,0,0,0,0,0],"split_type":[0,0,0,0,0,0,0,0,0,0,0,0,0,0,0,0,0,0,0,0,0,0,0,0,0,0,0,0,0],"sum_hessian":[1.4870354E3,9.5364264E2,5.333928E2,2.3896141E2,7.146812E2,9.79188E1,4.3547403E2,7.4895256E1,1.6406616E2,1.9838988E2,5.162913E2,8.525119E1,1.2667612E1,4.1388184E2,2.1592169E1,6.413739E1,1.075786E1,3.6336613E1,1.27729546E2,1.7260811E2,2.578178E1,1.0758086E2,4.0871045E2,2.5859067E0,8.266528E1,4.4477744E0,8.219838E0,2.156872E2,1.9819466E2],"tree_param":{"num_deleted":"0","num_feature":"8","num_nodes":"29","size_leaf_vector":"1"}},{"base_weights":[1.6440307E-3,5.603683E-2,-1.07102446E-1,9.6250355E-2,-1.4800668E-1,-8.549809E-2,-6.2207586E-1,2.1185158E-1,4.589876E-2,-2.4353266E-1,3.6970306E-2,6.429656E-2,-1.339334E-1,-6.8252735E-2,-1.8119161E-1,-3.8832498E-3,2.6975585E-2,-1.5908433E-2,6.5029967E-3,-5.6349408E-2,-1.9815484E-2,1.6021265E-2,-2.8363956E-2,-3.2732923E-2,1.619918E-2,-1.027961E-2,-4.529221E-2,2.7411817E-2,-4.537855E-2],"categories":[],"categories_nodes":[],"categories_segments":[],"categories_sizes":[],"default_left":[0,0,0,0,0,0,0,0,0,0,0,0,0,0,0,0,0,0,0,0,0,0,0,0,0,0,0,0,0],"id":10,"left_children":[1,3,5,7,9,11,13,15,17,19,21,23,25,-1,27,-1,-1,-1,-1,-1,-1,-1,-1,-1,-1,-1,-1,-1,-1],"loss_changes":[8.927725E0,8.269439E0,5.545649E0,4.8857727E0,2.9427903E0,3.5211666E0,4.1210747E-1,3.710596E0,2.31287E0,1.479938E0,2.3138864E0,4.604748E0,3.590355E0,0E0,5.9421474E-1,0E0,0E0,0E0,0E0,0E0,0E0,0E0,0E0,0E0,0E0,0E0,0E0,0E0,0E0],"parents":[2147483647,0,0,1,1,2,2,3,3,4,4,5,5,6,6,7,7,8,8,9,9,10,10,11,11,12,12,14,14],"right_children":[2,4,6,8,10,12,14,16,18,20,22,24,26,-1,28,-1,-1,-1,-1,-1,-1,-1,-1,-1,-1,-1,-1,-1,-1],"split_conditions":[1.6E1,1E0,2E0,2.5E1,1.2E0,1.1E0,3E0,5E0,-3E-1,6E0,6.4E1,1.2E1,2.7E1,-6.8252735E-2,1.9E1,-3.8832498E-3,2.6975585E-2,-1.5908433E-2,6.5029967E-3,-5.6349408E-2,-1.9815484E-2,1.6021265E-2,-2.8363956E-2,-3.2732923E-2,1.619918E-2,-1.027961E-2,-4.529221E-2,2.7411817E-2,-4.537855E-2],"split_indices":[5,2,6,0,6,6,6,0,2,5,1,0,5,0,5,0,0,0,0,0,0,0,0,0,0,0,0,0,0],"split_type":[0,0,0,0,0,0,0,0,0,0,0,0,0,0,0,0,0,0,0,0,0,0,0,0,0,0,0,0,0],"sum_hessian":[1.5073153E3,1.00507947E3,5.022358E2,8.400484E2,1.6503105E2,4.8313327E2,1.9102566E1,2.5390515E2,5.8614325E2,1.0862057E2,5.641049E1,1.1796826E2,3.65165E2,1.6317163E1,2.7854023E0,4.7705185E1,2.0619997E2,4.941082E1,5.367324E2,1.2073292E1,9.654728E1,4.110863E1,1.5301857E1,2.3083628E1,9.4884636E1,3.3389493E2,3.1270063E1,1.041016E0,1.7443862E0],"tree_param":{"num_deleted":"0","num_feature":"8","num_nodes":"29","size_leaf_vector":"1"}},{"base_weights":[-5.536048E-3,-2.1886665E-1,3.0288985E-1,-3.7458134E-1,-8.153972E-2,1.8340306E-1,6.272618E-1,-4.783841E-1,-2.332342E-1,9.3754105E-2,-1.7710146E-1,-3.4139782E-2,3.069005E-1,7.375883E-1,2.2477935E-1,-5.1978763E-2,-1.6773118E-2,-1.0440758E-2,-3.7751224E-2,-1.8168485E-2,1.9126626E-2,-2.372629E-2,1.9937163E-2,-4.597103E-2,2.3292736E-3,2.5422705E-2,6.6657335E-2,1.812101E-2,7.829639E-2,-3.182241E-2,4.104225E-2],"categories":[],"categories_nodes":[],"categories_segments":[],"categories_sizes":[],"default_left":[0,0,0,0,0,0,0,0,0,0,0,0,0,0,0,0,0,0,0,0,0,0,0,0,0,0,0,0,0,0,0],"id":11,"left_children":[1,3,5,7,9,11,13,15,17,19,21,23,25,27,29,-1,-1,-1,-1,-1,-1,-1,-1,-1,-1,-1,-1,-1,-1,-1,-1],"loss_changes":[9.9860985E1,1.9154053E1,2.3936642E1,6.052994E0,8.023817E0,1.2232272E1,7.2338104E0,3.016407E0,3.3035154E0,4.5819244E0,7.0618114E0,4.059074E0,5.330002E0,3.1489716E0,3.8895934E0,0E0,0E0,0E0,0E0,0E0,0E0,0E0,0E0,0E0,0E0,0E0,0E0,0E0,0E0,0E0,0E0],"parents":[2147483647,0,0,1,1,2,2,3,3,4,4,5,5,6,6,7,7,8,8,9,9,10,10,11,11,12,12,13,13,14,14],"right_children":[2,4,6,8,10,12,14,16,18,20,22,24,26,28,30,-1,-1,-1,-1,-1,-1,-1,-1,-1,-1,-1,-1,-1,-1,-1,-1],"split_conditions":[4E-1,-1E-1,1.1E0,1.4E0,1.2E0,1.5E0,1.3E0,7.1E1,1.5E0,1.2E0,2E0,1E1,2.3E0,1.1E0,1.5E0,-5.1978763E-2,-1.6773118E-2,-1.0440758E-2,-3.7751224E-2,-1.8168485E-2,1.9126626E-2,-2.372629E-2,1.9937163E-2,-4.597103E-2,2.3292736E-3,2.5422705E-2,6.6657335E-2,1.812101E-2,7.829639E-2,-3.182241E-2,4.104225E-2],"split_indices":[2,2,2,7,6,7,6,1,6,7,7,4,7,7,7,0,0,0,0,0,0,0,0,0,0,0,0,0,0,0,0],"split_type":[0,0,0,0,0,0,0,0,0,0,0,0,0,0,0,0,0,0,0,0,0,0,0,0,0,0,0,0,0,0,0],"sum_hessian":[1.5157131E3,8.961551E2,6.19558E2,4.1915198E2,4.770031E2,4.5391696E2,1.6564105E2,2.4029741E2,1.7885455E2,1.6830023E2,3.0870288E2,1.6463435E2,2.892826E2,1.2935132E2,3.628974E1,2.1144328E2,2.8854132E1,9.539737E1,8.345718E1,4.3778244E1,1.24521996E2,2.6648727E2,4.2215614E1,1.8743336E1,1.45891E2,2.5381819E2,3.5464417E1,1.013036E1,1.19220955E2,9.063872E0,2.7225868E1],"tree_param":{"num_deleted":"0","num_feature":"8","num_nodes":"31","size_leaf_vector":"1"}},{"base_weights":[-1.3905476E-3,3.0110005E-1,-2.4055728E-1,7.222334E-1,2.0401685E-1,-1.197938E-1,-4.304595E-1,8.4310776E-1,6.080085E-1,2.6832232E-1,5.652742E-2,1.540073E-1,-1.8115258E-1,-3.184081E-1,-4.8957846E-1,9.2010096E-2,4.600976E-2,2.8665915E-2,7.4132435E-2,3.8147684E-2,2.0147419E-2,5.32267E-2,-3.7713882E-3,-5.143271E-2,1.728976E-2,-1.5779255E-2,-6.355442E-2,-2.642715E-2,-5.5372305E-2,-4.022343E-2,-5.8763187E-2],"categories":[],"categories_nodes":[],"categories_segments":[],"categories_sizes":[],"default_left":[0,0,0,0,0,0,0,0,0,0,0,0,0,0,0,0,0,0,0,0,0,0,0,0,0,0,0,0,0,0,0],"id":12,"left_children":[1,3,5,7,9,11,13,15,17,19,21,23,25,27,29,-1,-1,-1,-1,-1,-1,-1,-1,-1,-1,-1,-1,-1,-1,-1,-1],"loss_changes":[1.0878417E2,2.6997913E1,1.9206123E1,1.1993027E0,5.1154327E0,8.674749E0,2.0039062E0,1.2768745E0,2.6721725E0,2.7705994E0,7.4406757E0,1.2853568E0,4.3676558E0,1.3246202E0,1.5756073E0,0E0,0E0,0E0,0E0,0E0,0E0,0E0,0E0,0E0,0E0,0E0,0E0,0E0,0E0,0E0,0E0],"parents":[2147483647,0,0,1,1,2,2,3,3,4,4,5,5,6,6,7,7,8,8,9,9,10,10,11,11,12,12,13,13,14,14],"right_children":[2,4,6,8,10,12,14,16,18,20,22,24,26,28,30,-1,-1,-1,-1,-1,-1,-1,-1,-1,-1,-1,-1,-1,-1,-1,-1],"split_conditions":[1E-1,-7E-1,7E-1,8E0,1.6E0,1.2E0,1.5E0,6.5E1,1E1,-3E-1,6E0,6E0,2.2E1,1.4E0,1.1E0,9.2010096E-2,4.600976E-2,2.8665915E-2,7.4132435E-2,3.8147684E-2,2.0147419E-2,5.32267E-2,-3.7713882E-3,-5.143271E-2,1.728976E-2,-1.5779255E-2,-6.355442E-2,-2.642715E-2,-5.5372305E-2,-4.022343E-2,-5.8763187E-2],"split_indices":[2,2,2,4,7,7,7,1,4,2,4,4,4,2,2,0,0,0,0,0,0,0,0,0,0,0,0,0,0,0,0],"split_type":[0,0,0,0,0,0,0,0,0,0,0,0,0,0,0,0,0,0,0,0,0,0,0,0,0,0,0,0,0,0,0],"sum_hessian":[1.5016704E3,6.629425E2,8.387279E2,1.2298997E2,5.399526E2,5.1369037E2,3.250375E2,5.6655373E1,6.6334595E1,3.754409E2,1.6451166E2,9.3766495E1,4.199239E2,1.1446725E2,2.1057027E2,4.600508E1,1.0650291E1,2.0374174E1,4.596042E1,1.3768071E2,2.377602E2,2.6432056E1,1.380796E2,1.8565121E0,9.190999E1,4.006728E2,1.9251112E1,9.4784225E1,1.9683025E1,1.14065285E2,9.6504974E1],"tree_param":{"num_deleted":"0","num_feature":"8","num_nodes":"31","size_leaf_vector":"1"}},{"base_weights":[9.481558E-3,4.8641186E-2,-2.1294469E-1,-1.9893584E-1,7.095994E-2,-1.6653417E-1,-5.878594E-1,-7.745659E-2,-5.711734E-1,1.4429538E-1,2.2866685E-2,-3.167846E-1,-5.5080842E-2,-6.3635066E-2,1.2689287E-2,-3.7826817E-2,3.1885803E-3,-2.3354253E-2,-6.0757823E-2,5.436194E-3,2.3437336E-2,1.850561E-2,-1.5239042E-3,-3.4161147E-2,7.697531E-2,-1.5429514E-2,1.994059E-2],"categories":[],"categories_nodes":[],"categories_segments":[],"categories_sizes":[],"default_left":[0,0,0,0,0,0,0,0,0,0,0,0,0,0,0,0,0,0,0,0,0,0,0,0,0,0,0],"id":13,"left_children":[1,3,5,7,9,11,13,15,17,19,21,23,25,-1,-1,-1,-1,-1,-1,-1,-1,-1,-1,-1,-1,-1,-1],"loss_changes":[1.3099057E1,7.078927E0,3.8195553E0,4.7486224E0,4.135797E0,3.3608098E0,9.2660236E-1,2.6785536E0,1.767273E-1,3.7511234E0,4.390553E0,2.5748558E0,2.9856803E0,0E0,0E0,0E0,0E0,0E0,0E0,0E0,0E0,0E0,0E0,0E0,0E0,0E0,0E0],"parents":[2147483647,0,0,1,1,2,2,3,3,4,4,5,5,6,6,7,7,8,8,9,9,10,10,11,11,12,12],"right_children":[2,4,6,8,10,12,14,16,18,20,22,24,26,-1,-1,-1,-1,-1,-1,-1,-1,-1,-1,-1,-1,-1,-1],"split_conditions":[2E1,-7E-1,6.3E1,1.7E0,1.1E1,3.9E1,2.8E1,-1.1E0,1.3E1,0E0,1E0,2.7E1,1.9E1,-6.3635066E-2,1.2689287E-2,-3.7826817E-2,3.1885803E-3,-2.3354253E-2,-6.0757823E-2,5.436194E-3,2.3437336E-2,1.850561E-2,-1.5239042E-3,-3.4161147E-2,7.697531E-2,-1.5429514E-2,1.994059E-2],"split_indices":[4,2,0,6,4,1,5,2,5,2,6,5,5,0,0,0,0,0,0,0,0,0,0,0,0,0,0],"split_type":[0,0,0,0,0,0,0,0,0,0,0,0,0,0,0,0,0,0,0,0,0,0,0,0,0,0,0],"sum_hessian":[1.5016986E3,1.2775574E3,2.2414122E2,1.0499191E2,1.1725656E3,2.0073634E2,2.3404867E1,8.006944E1,2.4922472E1,4.6361603E2,7.0894946E2,8.4704185E1,1.16032166E2,2.2020605E1,1.3842623E0,2.0689934E1,5.9379505E1,3.147411E0,2.177506E1,2.3279652E2,2.308195E2,1.3414247E2,5.74807E2,8.3482254E1,1.2219347E0,8.376803E1,3.2264133E1],"tree_param":{"num_deleted":"0","num_feature":"8","num_nodes":"27","size_leaf_vector":"1"}},{"base_weights":[-1.3529399E-2,-3.1476784E-1,1.7999884E-1,-4.185506E-1,-1.7169948E-1,9.779158E-2,5.4375595E-1,-4.9951538E-1,-2.401841E-1,6.927721E-1,-1.95452E-1,4.5172174E-2,4.100939E-1,2.0214383E-1,6.349119E-1,-1.5009335E-2,-5.1977046E-2,-2.6208539E-2,3.4381334E-2,1.8660244E-2,1.049268E-1,-2.5729755E-2,6.3353227E-3,1.2946533E-2,-1.2352012E-2,2.5796404E-2,6.34821E-2,-1.4278764E-2,4.2375218E-2,7.0321806E-2,3.9709717E-2],"categories":[],"categories_nodes":[],"categories_segments":[],"categories_sizes":[],"default_left":[0,0,0,0,0,0,0,0,0,0,0,0,0,0,0,0,0,0,0,0,0,0,0,0,0,0,0,0,0,0,0],"id":14,"left_children":[1,3,5,7,9,11,13,15,17,19,21,23,25,27,29,-1,-1,-1,-1,-1,-1,-1,-1,-1,-1,-1,-1,-1,-1,-1,-1],"loss_changes":[8.791151E1,8.685871E0,2.7403229E1,4.806717E0,5.262043E0,1.2308575E1,5.135311E0,1.5761223E0,1.4770298E0,1.048698E0,3.9181795E0,9.160542E0,3.529913E0,2.894209E0,1.8806E0,0E0,0E0,0E0,0E0,0E0,0E0,0E0,0E0,0E0,0E0,0E0,0E0,0E0,0E0,0E0,0E0],"parents":[2147483647,0,0,1,1,2,2,3,3,4,4,5,5,6,6,7,7,8,8,9,9,10,10,11,11,12,12,13,13,14,14],"right_children":[2,4,6,8,10,12,14,16,18,20,22,24,26,28,30,-1,-1,-1,-1,-1,-1,-1,-1,-1,-1,-1,-1,-1,-1,-1,-1],"split_conditions":[1E-1,-2E-1,1.1E0,1.5E0,7E-1,2.1E0,1.4E0,6E0,7.6E1,0E0,1.8E0,1.4E0,6E-1,1.3E0,1.3E0,-1.5009335E-2,-5.1977046E-2,-2.6208539E-2,3.4381334E-2,1.8660244E-2,1.049268E-1,-2.5729755E-2,6.3353227E-3,1.2946533E-2,-1.2352012E-2,2.5796404E-2,6.34821E-2,-1.4278764E-2,4.2375218E-2,7.0321806E-2,3.9709717E-2],"split_indices":[2,2,2,7,6,7,7,1,1,2,7,6,2,2,6,0,0,0,0,0,0,0,0,0,0,0,0,0,0,0,0],"split_type":[0,0,0,0,0,0,0,0,0,0,0,0,0,0,0,0,0,0,0,0,0,0,0,0,0,0,0,0,0,0,0],"sum_hessian":[1.5059922E3,5.888246E2,9.1716754E2,3.4015106E2,2.486735E2,7.4913556E2,1.6803201E2,2.3271553E2,1.0743555E2,5.896713E0,2.4277678E2,6.4209454E2,1.0704102E2,3.607109E1,1.3196092E2,1.3211575E1,2.1950395E2,1.040834E2,3.352149E0,3.066371E0,2.8303418E0,1.959559E2,4.6820885E1,4.2830777E2,2.1378677E2,6.511147E1,4.192955E1,1.4248733E1,2.1822357E1,1.0099555E2,3.096537E1],"tree_param":{"num_deleted":"0","num_feature":"8","num_nodes":"31","size_leaf_vector":"1"}},{"base_weights":[9.678734E-3,-1.6681564E-1,2.5997916E-1,-3.0447295E-1,4.172742E-2,1.7845867E-2,3.9182112E-1,-4.253776E-1,-2.1945897E-1,-1.7217977E-1,1.764558E-1,2.3911059E-1,-8.856812E-2,3.5685614E-1,8.6039144E-1,-4.6326708E-2,-2.672239E-2,1.6173214E-3,-2.7456833E-2,-2.2944229E-2,5.938959E-2,1.693928E-3,3.0806616E-2,5.4649796E-2,1.8313197E-2,4.5666914E-3,-2.4203666E-2,2.6277496E-2,4.9807604E-2,8.9497134E-2,4.045892E-3],"categories":[],"categories_nodes":[],"categories_segments":[],"categories_sizes":[],"default_left":[0,0,0,0,0,0,0,0,0,0,0,0,0,0,0,0,0,0,0,0,0,0,0,0,0,0,0,0,0,0,0],"id":15,"left_children":[1,3,5,7,9,11,13,15,17,19,21,23,25,27,29,-1,-1,-1,-1,-1,-1,-1,-1,-1,-1,-1,-1,-1,-1,-1,-1],"loss_changes":[6.592962E1,2.5139805E1,1.969442E1,5.3272552E0,1.0085788E1,5.1686897E0,6.238682E0,1.174511E0,4.0521526E0,6.073327E0,4.499476E0,1.1262145E0,3.0672197E0,4.8314323E0,7.302971E-1,0E0,0E0,0E0,0E0,0E0,0E0,0E0,0E0,0E0,0E0,0E0,0E0,0E0,0E0,0E0,0E0],"parents":[2147483647,0,0,1,1,2,2,3,3,4,4,5,5,6,6,7,7,8,8,9,9,10,10,11,11,12,12,13,13,14,14],"right_children":[2,4,6,8,10,12,14,16,18,20,22,24,26,28,30,-1,-1,-1,-1,-1,-1,-1,-1,-1,-1,-1,-1,-1,-1,-1,-1],"split_conditions":[1.5E1,1.4E0,1.2E0,1.1E0,1E1,1E0,2E0,1.3E1,1.4E0,2.3E0,1.6E0,7E0,5.1E1,2.1E1,7.9E1,-4.6326708E-2,-2.672239E-2,1.6173214E-3,-2.7456833E-2,-2.2944229E-2,5.938959E-2,1.693928E-3,3.0806616E-2,5.4649796E-2,1.8313197E-2,4.5666914E-3,-2.4203666E-2,2.6277496E-2,4.9807604E-2,8.9497134E-2,4.045892E-3],"split_indices":[5,6,6,6,5,7,6,5,7,6,6,0,1,5,1,0,0,0,0,0,0,0,0,0,0,0,0,0,0,0,0],"split_type":[0,0,0,0,0,0,0,0,0,0,0,0,0,0,0,0,0,0,0,0,0,0,0,0,0,0,0,0,0,0,0],"sum_hessian":[1.4904285E3,8.7428046E2,6.1614795E2,5.263691E2,3.4791135E2,2.1761827E2,3.985297E2,2.1565982E2,3.1070926E2,1.3434108E2,2.1357027E2,7.0266785E1,1.4735147E2,3.7249548E2,2.6034233E1,1.724227E2,4.323713E1,5.902811E1,2.5168117E2,1.2564955E2,8.691537E0,9.705943E1,1.1651083E2,9.475071E0,6.0791718E1,7.897579E1,6.837569E1,2.2527635E2,1.4721912E2,2.4892881E1,1.1413517E0],"tree_param":{"num_deleted":"0","num_feature":"8","num_nodes":"31","size_leaf_vector":"1"}},{"base_weights":[3.576877E-3,4.06263E-2,-6.978091E-2,9.46815E-2,-6.1643973E-2,-5.0776206E-2,-5.257546E-1,3.4544417E-1,5.0273914E-2,-1.226656E-1,8.784965E-2,-3.2747015E-1,-2.3090627E-2,-7.387036E-2,-6.472443E-2,3.7371874E-2,-3.162298E-2,-2.4006521E-2,7.3328502E-3,2.9254125E-3,-1.9262986E-2,2.0803357E-2,-1.5158476E-2,-1.32856965E-2,-5.6070235E-2,3.1269328E-3,-1.8913908E-2,-4.903705E-2,4.4427555E-2],"categories":[],"categories_nodes":[],"categories_segments":[],"categories_sizes":[],"default_left":[0,0,0,0,0,0,0,0,0,0,0,0,0,0,0,0,0,0,0,0,0,0,0,0,0,0,0,0,0],"id":16,"left_children":[1,3,5,7,9,11,13,15,17,19,21,23,25,27,-1,-1,-1,-1,-1,-1,-1,-1,-1,-1,-1,-1,-1,-1,-1],"loss_changes":[4.1034436E0,5.5512004E0,4.3638763E0,7.294761E0,3.180453E0,3.7268875E0,1.0592651E0,1.9631929E0,3.75946E0,2.6327074E0,2.9465919E0,1.934732E0,4.015731E0,1.3835753E0,0E0,0E0,0E0,0E0,0E0,0E0,0E0,0E0,0E0,0E0,0E0,0E0,0E0,0E0,0E0],"parents":[2147483647,0,0,1,1,2,2,3,3,4,4,5,5,6,6,7,7,8,8,9,9,10,10,11,11,12,12,13,13],"right_children":[2,4,6,8,10,12,14,16,18,20,22,24,26,28,-1,-1,-1,-1,-1,-1,-1,-1,-1,-1,-1,-1,-1,-1,-1],"split_conditions":[1.6E1,1.8E0,2E0,9E0,1.5E0,7E0,1.8E1,2E0,8E-1,2.5E1,4.9E1,4.7E1,1.4E0,5.6E1,-6.472443E-2,3.7371874E-2,-3.162298E-2,-2.4006521E-2,7.3328502E-3,2.9254125E-3,-1.9262986E-2,2.0803357E-2,-1.5158476E-2,-1.32856965E-2,-5.6070235E-2,3.1269328E-3,-1.8913908E-2,-4.903705E-2,4.4427555E-2],"split_indices":[5,7,6,5,6,0,1,6,6,0,1,1,7,0,0,0,0,0,0,0,0,0,0,0,0,0,0,0,0],"split_type":[0,0,0,0,0,0,0,0,0,0,0,0,0,0,0,0,0,0,0,0,0,0,0,0,0,0,0,0,0],"sum_hessian":[1.5077617E3,1.00209753E3,5.0566415E2,6.556345E2,3.4646304E2,4.8649854E2,1.9165607E1,9.7618614E1,5.580159E2,2.4616194E2,1.00301094E2,4.3265755E1,4.432328E2,4.4016376E0,1.476397E1,9.403549E1,3.5831227E0,4.0357597E1,5.176583E2,7.780304E1,1.683589E2,6.6867935E1,3.3433163E1,2.4441204E1,1.882455E1,3.345285E2,1.08704285E2,2.4698825E0,1.9317552E0],"tree_param":{"num_deleted":"0","num_feature":"8","num_nodes":"29","size_leaf_vector":"1"}},{"base_weights":[-2.012511E-2,-1.790123E-1,2.6395184E-1,-3.7997895E-1,-6.8440035E-2,1.828867E-1,5.019887E-1,-5.454199E-1,-3.0927238E-1,-1.942546E-1,6.835357E-2,2.3981744E-1,-4.084288E-2,8.276584E-2,5.7649463E-1,-3.713058E-2,-6.0557943E-2,-3.9957087E-2,-1.39294835E-2,4.2712767E-2,-2.1565797E-2,5.1500577E-2,3.7352962E-3,-4.8833317E-3,2.9690877E-2,1.2062539E-3,-4.8635546E-2,8.948181E-2,-1.6664533E-2,4.6824437E-2,7.352064E-2],"categories":[],"categories_nodes":[],"categories_segments":[],"categories_sizes":[],"default_left":[0,0,0,0,0,0,0,0,0,0,0,0,0,0,0,0,0,0,0,0,0,0,0,0,0,0,0,0,0,0,0],"id":17,"left_children":[1,3,5,7,9,11,13,15,17,19,21,23,25,27,29,-1,-1,-1,-1,-1,-1,-1,-1,-1,-1,-1,-1,-1,-1,-1,-1],"loss_changes":[6.715993E1,2.1176567E1,1.0207481E1,3.790203E0,1.062746E1,5.1010675E0,4.1695404E0,8.2284355E-1,3.6189594E0,4.3681345E0,4.082219E0,5.267889E0,1.9371004E0,4.512238E0,1.622509E0,0E0,0E0,0E0,0E0,0E0,0E0,0E0,0E0,0E0,0E0,0E0,0E0,0E0,0E0,0E0,0E0],"parents":[2147483647,0,0,1,1,2,2,3,3,4,4,5,5,6,6,7,7,8,8,9,9,10,10,11,11,12,12,13,13,14,14],"right_children":[2,4,6,8,10,12,14,16,18,20,22,24,26,28,30,-1,-1,-1,-1,-1,-1,-1,-1,-1,-1,-1,-1,-1,-1,-1,-1],"split_conditions":[5E-1,-2E-1,1.2E0,-7E-1,1.2E1,1.5E1,1.8E1,2.9E1,1.2E1,5E0,7E0,1.1E1,1.5E0,6E0,2.6E1,-3.713058E-2,-6.0557943E-2,-3.9957087E-2,-1.39294835E-2,4.2712767E-2,-2.1565797E-2,5.1500577E-2,3.7352962E-3,-4.8833317E-3,2.9690877E-2,1.2062539E-3,-4.8635546E-2,8.948181E-2,-1.6664533E-2,4.6824437E-2,7.352064E-2],"split_indices":[2,2,2,2,4,5,4,1,4,5,5,4,6,5,4,0,0,0,0,0,0,0,0,0,0,0,0,0,0,0,0],"split_type":[0,0,0,0,0,0,0,0,0,0,0,0,0,0,0,0,0,0,0,0,0,0,0,0,0,0,0,0,0,0,0],"sum_hessian":[1.4858927E3,9.5315375E2,5.3273895E2,3.3743124E2,6.1572253E2,3.9872028E2,1.3401869E2,9.902242E1,2.3840881E2,3.2051343E2,2.952091E2,3.1778427E2,8.0936E1,2.0542564E1,1.1347613E2,2.726988E1,7.175254E1,1.5481471E2,8.359411E1,1.0041199E1,3.1047223E2,1.8146353E1,2.7706274E2,5.249862E1,2.6528564E2,7.321456E1,7.7214365E0,4.2188344E0,1.632373E1,6.981126E1,4.366487E1],"tree_param":{"num_deleted":"0","num_feature":"8","num_nodes":"31","size_leaf_vector":"1"}},{"base_weights":[2.1142243E-4,2.1256761E-1,-2.223557E-1,5.275741E-1,1.5016465E-1,-3.1272453E-1,2.0009268E-2,1.4183138E-1,6.012562E-1,-1.8866506E-1,1.8564111E-1,-2.0545201E-1,-4.3823928E-1,1.0751435E-1,-1.4359136E-1,-5.5241433E-4,7.600074E-2,6.2317885E-2,1.3025018E-2,-3.5219415E-4,-3.7719026E-2,2.2045832E-2,-3.5193083E-3,-3.275706E-2,-1.4051988E-2,-3.6882993E-2,-5.2929517E-2,3.463943E-2,5.4053357E-3,-1.8721467E-2,2.4884019E-2],"categories":[],"categories_nodes":[],"categories_segments":[],"categories_sizes":[],"default_left":[0,0,0,0,0,0,0,0,0,0,0,0,0,0,0,0,0,0,0,0,0,0,0,0,0,0,0,0,0,0,0],"id":18,"left_children":[1,3,5,7,9,11,13,15,17,19,21,23,25,27,29,-1,-1,-1,-1,-1,-1,-1,-1,-1,-1,-1,-1,-1,-1,-1,-1],"loss_changes":[7.001684E1,1.4822937E1,1.5848541E1,3.4660912E0,7.657772E0,7.004669E0,2.8412416E0,1.9488295E0,9.9892044E-1,2.1138594E0,4.425352E0,2.2217274E0,1.3338432E0,1.6309412E0,1.2314758E0,0E0,0E0,0E0,0E0,0E0,0E0,0E0,0E0,0E0,0E0,0E0,0E0,0E0,0E0,0E0,0E0],"parents":[2147483647,0,0,1,1,2,2,3,3,4,4,5,5,6,6,7,7,8,8,9,9,10,10,11,11,12,12,13,13,14,14],"right_children":[2,4,6,8,10,12,14,16,18,20,22,24,26,28,30,-1,-1,-1,-1,-1,-1,-1,-1,-1,-1,-1,-1,-1,-1,-1,-1],"split_conditions":[2E-1,-7E-1,1.4E1,1E1,9E0,7E-1,7E-1,2.7E1,1.6E1,9E0,1.6E1,9E0,1.1E0,1.7E1,7.2E1,-5.5241433E-4,7.600074E-2,6.2317885E-2,1.3025018E-2,-3.5219415E-4,-3.7719026E-2,2.2045832E-2,-3.5193083E-3,-3.275706E-2,-1.4051988E-2,-3.6882993E-2,-5.2929517E-2,3.463943E-2,5.4053357E-3,-1.8721467E-2,2.4884019E-2],"split_indices":[2,2,5,1,5,2,2,5,4,4,4,5,2,0,1,0,0,0,0,0,0,0,0,0,0,0,0,0,0,0,0],"split_type":[0,0,0,0,0,0,0,0,0,0,0,0,0,0,0,0,0,0,0,0,0,0,0,0,0,0,0,0,0,0,0],"sum_hessian":[1.4794146E3,7.5709674E2,7.2231775E2,1.2395E2,6.331468E2,5.259284E2,1.9638934E2,2.0348072E1,1.0360193E2,5.959991E1,5.735469E2,2.84993E2,2.4093542E2,1.2817513E2,6.821422E1,1.7231611E1,3.1164613E0,9.86856E1,4.9163256E0,3.0583624E1,2.9016287E1,4.954369E2,7.810996E1,9.7527374E1,1.8746564E2,1.3958456E2,1.0135086E2,2.2437626E1,1.05737495E2,6.1860634E1,6.3535876E0],"tree_param":{"num_deleted":"0","num_feature":"8","num_nodes":"31","size_leaf_vector":"1"}},{"base_weights":[1.7538307E-3,3.805817E-2,-1.2579764E-1,5.917741E-2,-1.2014852E-1,-4.5885292E-1,-9.4421074E-2,1.4767942E-1,1.927833E-2,5.015997E-1,-1.625587E-1,2.2526252E-1,-5.330669E-1,3.087834E-2,-1.6580321E-1,3.4606934E-2,9.067912E-3,3.152574E-3,-4.2749528E-2,5.8760118E-2,5.351283E-3,-4.360637E-3,-2.788162E-2,7.485501E-2,-4.0147103E-2,-6.1480463E-2,-1.4622997E-2,-2.122165E-2,9.843209E-3,-1.15394695E-2,-5.229341E-2],"categories":[],"categories_nodes":[],"categories_segments":[],"categories_sizes":[],"default_left":[0,0,0,0,0,0,0,0,0,0,0,0,0,0,0,0,0,0,0,0,0,0,0,0,0,0,0,0,0,0,0],"id":19,"left_children":[1,3,5,7,9,11,13,15,17,19,21,23,25,27,29,-1,-1,-1,-1,-1,-1,-1,-1,-1,-1,-1,-1,-1,-1,-1,-1],"loss_changes":[6.9264E0,3.8973503E0,3.4199424E0,3.6267154E0,3.7059484E0,1.555594E0,2.7253442E0,3.5787673E0,3.8964005E0,3.1622314E-1,1.7777512E0,1.4385545E0,7.26007E-1,1.8473963E0,3.4305348E0,0E0,0E0,0E0,0E0,0E0,0E0,0E0,0E0,0E0,0E0,0E0,0E0,0E0,0E0,0E0,0E0],"parents":[2147483647,0,0,1,1,2,2,3,3,4,4,5,5,6,6,7,7,8,8,9,9,10,10,11,11,12,12,13,13,14,14],"right_children":[2,4,6,8,10,12,14,16,18,20,22,24,26,28,30,-1,-1,-1,-1,-1,-1,-1,-1,-1,-1,-1,-1,-1,-1,-1,-1],"split_conditions":[1.8E1,1.8E0,7E0,1E1,3E0,8E-1,1.4E0,1.7E1,2.4E0,1.7E0,4.2E1,4.6E1,6.5E1,1E1,1.4E0,3.4606934E-2,9.067912E-3,3.152574E-3,-4.2749528E-2,5.8760118E-2,5.351283E-3,-4.360637E-3,-2.788162E-2,7.485501E-2,-4.0147103E-2,-6.1480463E-2,-1.4622997E-2,-2.122165E-2,9.843209E-3,-1.15394695E-2,-5.229341E-2],"split_indices":[4,6,1,4,0,7,7,1,7,7,1,0,0,0,6,0,0,0,0,0,0,0,0,0,0,0,0,0,0,0,0],"split_type":[0,0,0,0,0,0,0,0,0,0,0,0,0,0,0,0,0,0,0,0,0,0,0,0,0,0,0,0,0,0,0],"sum_hessian":[1.4937317E3,1.1633226E3,3.304091E2,1.0268702E3,1.3645244E2,2.7274307E1,3.031348E2,3.1824805E2,7.0862213E2,8.021856E0,1.2843059E2,2.4700177E0,2.4804289E1,1.1022341E2,1.9291138E2,6.9897606E1,2.4835043E2,6.906196E2,1.8002523E1,6.4689193E0,1.552937E0,6.415923E1,6.427135E1,1.2401742E0,1.2298435E0,1.999094E1,4.8133497E0,2.350354E1,8.671987E1,1.7020964E2,2.2701736E1],"tree_param":{"num_deleted":"0","num_feature":"8","num_nodes":"31","size_leaf_vector":"1"}},{"base_weights":[-8.601602E-3,-2.1746741E-1,2.1251772E-1,-3.720947E-1,-1.04928516E-1,1.3063632E-1,4.7803253E-1,-2.471178E-1,-4.893732E-1,2.4167445E-1,-1.4677384E-1,2.3514582E-1,4.734907E-2,5.1279885E-1,-1.3112663E-1,8.377141E-3,-3.1235619E-2,-5.0276484E-2,-7.353712E-3,3.809525E-2,-1.0168555E-2,-4.507749E-3,-2.9279912E-2,2.4576422E-2,-3.1512525E-2,4.689331E-2,1.7808824E-3,9.462073E-2,4.7036383E-2,5.86808E-2,-2.9120017E-2],"categories":[],"categories_nodes":[],"categories_segments":[],"categories_sizes":[],"default_left":[0,0,0,0,0,0,0,0,0,0,0,0,0,0,0,0,0,0,0,0,0,0,0,0,0,0,0,0,0,0,0],"id":20,"left_children":[1,3,5,7,9,11,13,15,17,19,21,23,25,27,29,-1,-1,-1,-1,-1,-1,-1,-1,-1,-1,-1,-1,-1,-1,-1,-1],"loss_changes":[6.873013E1,1.327787E1,1.5653938E1,4.598118E0,6.47957E0,4.810088E0,3.667797E0,3.4344025E0,8.822975E-1,2.3457189E0,5.8833323E0,1.5112934E0,3.845983E0,2.5166702E0,1.3172877E0,0E0,0E0,0E0,0E0,0E0,0E0,0E0,0E0,0E0,0E0,0E0,0E0,0E0,0E0,0E0,0E0],"parents":[2147483647,0,0,1,1,2,2,3,3,4,4,5,5,6,6,7,7,8,8,9,9,10,10,11,11,12,12,13,13,14,14],"right_children":[2,4,6,8,10,12,14,16,18,20,22,24,26,28,30,-1,-1,-1,-1,-1,-1,-1,-1,-1,-1,-1,-1,-1,-1,-1,-1],"split_conditions":[3E-1,-2E-1,1.1E0,1.9E1,8E0,1.2E0,7.2E1,1.4E1,7.9E1,1.6E0,1.4E0,2.6E1,5E0,5E0,6E0,8.377141E-3,-3.1235619E-2,-5.0276484E-2,-7.353712E-3,3.809525E-2,-1.0168555E-2,-4.507749E-3,-2.9279912E-2,2.4576422E-2,-3.1512525E-2,4.689331E-2,1.7808824E-3,9.462073E-2,4.7036383E-2,5.86808E-2,-2.9120017E-2],"split_indices":[2,2,2,5,5,6,0,0,0,6,6,5,5,5,5,0,0,0,0,0,0,0,0,0,0,0,0,0,0,0,0],"split_type":[0,0,0,0,0,0,0,0,0,0,0,0,0,0,0,0,0,0,0,0,0,0,0,0,0,0,0,0,0,0,0],"sum_hessian":[1.4861714E3,7.6427026E2,7.2190106E2,3.2096344E2,4.4330682E2,5.528891E2,1.6901198E2,1.5688614E2,1.6407732E2,4.724049E1,3.9606635E2,2.4439592E2,3.084932E2,1.6003645E2,8.9755125E0,2.5790842E1,1.3109529E2,1.5875569E2,5.32163E0,3.35301E1,1.3710389E1,2.3424196E2,1.6182437E2,2.4031207E2,4.083844E0,1.922657E1,2.8926663E2,1.237251E1,1.4766396E2,1.1503396E0,7.8251734E0],"tree_param":{"num_deleted":"0","num_feature":"8","num_nodes":"31","size_leaf_vector":"1"}},{"base_weights":[-6.729464E-3,1.3776504E-1,-2.766646E-1,5.0877553E-1,8.150855E-2,-3.6069843E-1,-3.291572E-2,-1.4482826E-1,5.4996747E-1,-9.995817E-2,1.6149656E-1,2.9267782E-1,-3.7741858E-1,-2.7915317E-1,1.4389233E-1,-7.266306E-2,8.236198E-2,4.7946412E-2,8.812713E-2,1.0874356E-2,-1.568178E-2,-1.3839836E-2,2.1842394E-2,-5.992977E-3,9.592208E-2,-3.2508332E-2,-5.151856E-2,-4.051299E-2,-1.2233393E-3,-1.7088304E-3,4.1021496E-2],"categories":[],"categories_nodes":[],"categories_segments":[],"categories_sizes":[],"default_left":[0,0,0,0,0,0,0,0,0,0,0,0,0,0,0,0,0,0,0,0,0,0,0,0,0,0,0,0,0,0,0],"id":21,"left_children":[1,3,5,7,9,11,13,15,17,19,21,23,25,27,29,-1,-1,-1,-1,-1,-1,-1,-1,-1,-1,-1,-1,-1,-1,-1,-1],"loss_changes":[5.7067745E1,1.9849758E1,1.0437016E1,3.4528503E0,1.20453205E1,4.2534943E0,5.7818165E0,5.2297206E0,2.3353462E0,3.0330396E0,9.856602E0,2.4138744E0,2.5017967E0,1.8598695E0,3.3263097E0,0E0,0E0,0E0,0E0,0E0,0E0,0E0,0E0,0E0,0E0,0E0,0E0,0E0,0E0,0E0,0E0],"parents":[2147483647,0,0,1,1,2,2,3,3,4,4,5,5,6,6,7,7,8,8,9,9,10,10,11,11,12,12,13,13,14,14],"right_children":[2,4,6,8,10,12,14,16,18,20,22,24,26,28,30,-1,-1,-1,-1,-1,-1,-1,-1,-1,-1,-1,-1,-1,-1,-1,-1],"split_conditions":[4E-1,-7E-1,1.4E1,9E-1,1.2E0,7E0,1E0,1.4E1,2.1E0,-3E-1,1E1,5.8E1,1.1E0,1.9E1,5.3E1,-7.266306E-2,8.236198E-2,4.7946412E-2,8.812713E-2,1.0874356E-2,-1.568178E-2,-1.3839836E-2,2.1842394E-2,-5.992977E-3,9.592208E-2,-3.2508332E-2,-5.151856E-2,-4.051299E-2,-1.2233393E-3,-1.7088304E-3,4.1021496E-2],"split_indices":[2,2,5,6,6,4,6,4,6,2,5,1,2,5,1,0,0,0,0,0,0,0,0,0,0,0,0,0,0,0,0],"split_type":[0,0,0,0,0,0,0,0,0,0,0,0,0,0,0,0,0,0,0,0,0,0,0,0,0,0,0,0,0,0,0],"sum_hessian":[1.4611428E3,9.5202155E2,5.0912122E2,1.2428968E2,8.277319E2,3.7824078E2,1.3088045E2,7.2195253E0,1.1707015E2,2.5315535E2,5.7457654E2,9.025986E0,3.6921478E2,5.445838E1,7.642207E1,4.6660547E0,2.5534706E0,9.854617E1,1.8523985E1,5.4008E1,1.9914734E2,9.1439514E1,4.8313702E2,6.498373E0,2.5276127E0,2.7000452E2,9.9210266E1,3.6645298E1,1.7813084E1,4.821438E1,2.8207695E1],"tree_param":{"num_deleted":"0","num_feature":"8","num_nodes":"31","size_leaf_vector":"1"}},{"base_weights":[1.7188301E-2,5.7620537E-2,-1.3323501E-1,9.5261484E-2,-1.6580911E-1,-1.4669557E-1,3.1716797E-1,1.1983112E-1,-3.183836E-2,5.5498764E-2,-2.0702952E-1,-1.360224E-1,-5.8959734E-2,6.8251364E-2,-5.1358175E-2,1.9024909E-2,7.329614E-3,2.6665738E-2,-1.0633387E-2,-3.4043822E-2,3.5079423E-2,-2.9523088E-2,-9.70185E-3,-1.1162764E-2,-3.3103317E-2],"categories":[],"categories_nodes":[],"categories_segments":[],"categories_sizes":[],"default_left":[0,0,0,0,0,0,0,0,0,0,0,0,0,0,0,0,0,0,0,0,0,0,0,0,0],"id":22,"left_children":[1,3,5,7,9,11,13,15,17,19,21,23,-1,-1,-1,-1,-1,-1,-1,-1,-1,-1,-1,-1,-1],"loss_changes":[8.987856E0,9.808761E0,1.9447556E0,3.1177979E0,1.5463452E0,1.3601637E0,3.20411E0,2.725051E0,3.6379638E0,3.3003373E0,1.3496361E0,1.3846478E0,0E0,0E0,0E0,0E0,0E0,0E0,0E0,0E0,0E0,0E0,0E0,0E0,0E0],"parents":[2147483647,0,0,1,1,2,2,3,3,4,4,5,5,6,6,7,7,8,8,9,9,10,10,11,11],"right_children":[2,4,6,8,10,12,14,16,18,20,22,24,-1,-1,-1,-1,-1,-1,-1,-1,-1,-1,-1,-1,-1],"split_conditions":[1.8E1,2.1E1,2.8E1,1.7E0,1.1E0,2.1E0,1.3E0,1.1E1,9E0,1E0,2.5E1,1.4E0,-5.8959734E-2,6.8251364E-2,-5.1358175E-2,1.9024909E-2,7.329614E-3,2.6665738E-2,-1.0633387E-2,-3.4043822E-2,3.5079423E-2,-2.9523088E-2,-9.70185E-3,-1.1162764E-2,-3.3103317E-2],"split_indices":[4,5,5,6,6,2,6,4,5,7,5,6,0,0,0,0,0,0,0,0,0,0,0,0,0],"split_type":[0,0,0,0,0,0,0,0,0,0,0,0,0,0,0,0,0,0,0,0,0,0,0,0,0],"sum_hessian":[1.4755293E3,1.1634286E3,3.1210068E2,9.9617737E2,1.6725125E2,3.0369876E2,8.401918E0,8.348499E2,1.6132744E2,2.6206272E1,1.4104498E2,2.978287E2,5.8700433E0,5.9594975E0,2.4424207E0,3.3095374E2,5.0389618E2,3.1705856E1,1.2962158E2,1.1130049E1,1.5076223E1,7.734777E1,6.3697216E1,2.66112E2,3.1716717E1],"tree_param":{"num_deleted":"0","num_feature":"8","num_nodes":"25","size_leaf_vector":"1"}},{"base_weights":[-7.7870768E-3,-1.5504712E-1,2.4072462E-1,-3.3742514E-1,-6.1640996E-2,3.9149616E-2,4.0365425E-1,-2.1680713E-1,-4.5275384E-1,-2.4423972E-1,1.9010676E-2,-1.666149E-1,1.9192778E-1,3.2841352E-1,6.954583E-1,-3.1326573E-2,1.6775442E-2,-4.7120374E-2,-1.3508967E-2,-3.1948585E-2,5.8144806E-3,7.209542E-2,1.5575743E-5,-1.08594205E-2,-6.0732942E-2,-7.7428753E-3,2.9632559E-2,1.768401E-2,3.9677307E-2,8.0842376E-2,4.4318482E-2],"categories":[],"categories_nodes":[],"categories_segments":[],"categories_sizes":[],"default_left":[0,0,0,0,0,0,0,0,0,0,0,0,0,0,0,0,0,0,0,0,0,0,0,0,0,0,0,0,0,0,0],"id":23,"left_children":[1,3,5,7,9,11,13,15,17,19,21,23,25,27,29,-1,-1,-1,-1,-1,-1,-1,-1,-1,-1,-1,-1,-1,-1,-1,-1],"loss_changes":[5.3750057E1,1.5689413E1,1.7932936E1,4.243725E0,9.004151E0,7.7461658E0,6.404766E0,5.7829914E0,8.66127E-1,4.2800827E0,5.622172E0,2.6214762E0,3.99612E0,2.43816E0,1.3811512E0,0E0,0E0,0E0,0E0,0E0,0E0,0E0,0E0,0E0,0E0,0E0,0E0,0E0,0E0,0E0,0E0],"parents":[2147483647,0,0,1,1,2,2,3,3,4,4,5,5,6,6,7,7,8,8,9,9,10,10,11,11,12,12,13,13,14,14],"right_children":[2,4,6,8,10,12,14,16,18,20,22,24,26,28,30,-1,-1,-1,-1,-1,-1,-1,-1,-1,-1,-1,-1,-1,-1,-1,-1],"split_conditions":[5E-1,-2E-1,1.6E0,1.9E1,1E1,1.7E1,2.3E1,1.2E1,7.8E1,1.9E0,5E0,1.6E1,1.2E0,2.8E1,1.3E1,-3.1326573E-2,1.6775442E-2,-4.7120374E-2,-1.3508967E-2,-3.1948585E-2,5.8144806E-3,7.209542E-2,1.5575743E-5,-1.08594205E-2,-6.0732942E-2,-7.7428753E-3,2.9632559E-2,1.768401E-2,3.9677307E-2,8.0842376E-2,4.4318482E-2],"split_indices":[2,2,7,5,4,4,4,4,0,7,5,5,7,0,5,0,0,0,0,0,0,0,0,0,0,0,0,0,0,0,0],"split_type":[0,0,0,0,0,0,0,0,0,0,0,0,0,0,0,0,0,0,0,0,0,0,0,0,0,0,0,0,0,0,0],"sum_hessian":[1.4667278E3,9.2121906E2,5.455087E2,3.1112552E2,6.100935E2,2.443909E2,3.0111783E2,1.5348311E2,1.5764241E2,1.8629211E2,4.238014E2,1.040985E2,1.402924E2,2.4108125E2,6.0036564E1,1.2285347E2,3.0629639E1,1.4853233E2,9.110073E0,1.4912654E2,3.7165585E1,1.01119E1,4.1368948E2,9.308953E1,1.1008966E1,3.9258915E1,1.01033485E2,7.604775E1,1.650335E2,3.9945034E1,2.009153E1],"tree_param":{"num_deleted":"0","num_feature":"8","num_nodes":"31","size_leaf_vector":"1"}},{"base_weights":[6.385899E-3,1.9660564E-1,-2.0250756E-1,2.9110901E-2,3.0626792E-1,-9.036417E-2,-3.6108035E-1,3.5058084E-1,-7.693809E-2,5.6687987E-1,2.4080318E-1,-3.7888792E-1,-3.0329254E-2,-3.8343656E-1,-7.066415E-2,-1.4137146E-2,4.5969684E-2,-1.142091E-3,-1.9973777E-2,4.952378E-2,8.386921E-2,1.778852E-2,4.5075573E-2,-4.9926188E-2,-1.7536607E-2,1.154999E-2,-1.2317224E-2,-3.2370932E-2,-4.8808068E-2,5.127898E-2,-2.249719E-2],"categories":[],"categories_nodes":[],"categories_segments":[],"categories_sizes":[],"default_left":[0,0,0,0,0,0,0,0,0,0,0,0,0,0,0,0,0,0,0,0,0,0,0,0,0,0,0,0,0,0,0],"id":24,"left_children":[1,3,5,7,9,11,13,15,17,19,21,23,25,27,29,-1,-1,-1,-1,-1,-1,-1,-1,-1,-1,-1,-1,-1,-1,-1,-1],"loss_changes":[5.8200485E1,1.4071766E1,1.2381531E1,1.0405194E1,7.765621E0,7.094577E0,1.8483009E0,4.128227E0,1.8459938E0,1.381052E0,4.8328247E0,1.6413879E0,4.6266685E0,1.5168915E0,2.084555E0,0E0,0E0,0E0,0E0,0E0,0E0,0E0,0E0,0E0,0E0,0E0,0E0,0E0,0E0,0E0,0E0],"parents":[2147483647,0,0,1,1,2,2,3,3,4,4,5,5,6,6,7,7,8,8,9,9,10,10,11,11,12,12,13,13,14,14],"right_children":[2,4,6,8,10,12,14,16,18,20,22,24,26,28,30,-1,-1,-1,-1,-1,-1,-1,-1,-1,-1,-1,-1,-1,-1,-1,-1],"split_conditions":[2E-1,1.3E0,7E-1,1E0,-7E-1,1E0,7.5E1,9E-1,1.6E0,2.1E0,1.8E0,5E-1,1.5E0,1.8E0,7.6E1,-1.4137146E-2,4.5969684E-2,-1.142091E-3,-1.9973777E-2,4.952378E-2,8.386921E-2,1.778852E-2,4.5075573E-2,-4.9926188E-2,-1.7536607E-2,1.154999E-2,-1.2317224E-2,-3.2370932E-2,-4.8808068E-2,5.127898E-2,-2.249719E-2],"split_indices":[2,6,2,7,2,6,1,6,7,6,6,2,7,7,1,0,0,0,0,0,0,0,0,0,0,0,0,0,0,0,0],"split_type":[0,0,0,0,0,0,0,0,0,0,0,0,0,0,0,0,0,0,0,0,0,0,0,0,0,0,0,0,0,0,0],"sum_hessian":[1.4626896E3,7.6559375E2,6.970958E2,3.0342197E2,4.6217178E2,4.0924548E2,2.8785037E2,7.469392E1,2.2872806E2,9.125013E1,3.7092166E2,6.957269E1,3.396728E2,2.669781E2,2.0872263E1,1.3506029E1,6.118789E1,1.4986418E2,7.886387E1,7.444935E1,1.6800783E1,2.8681656E2,8.4105095E1,4.2803345E1,2.676935E1,1.3203712E2,2.0763568E2,1.7257286E2,9.4405235E1,3.8796668E0,1.6992596E1],"tree_param":{"num_deleted":"0","num_feature":"8","num_nodes":"31","size_leaf_vector":"1"}},{"base_weights":[-2.7737333E-3,2.8807586E-2,-1.8829696E-1,-1.14133485E-1,6.692277E-2,-1.4151162E-1,-6.0793805E-1,-7.4124694E-2,-4.1375417E-1,-2.5062567E-1,8.0593936E-2,-1.934587E-1,4.7027383E-2,-6.6528685E-2,2.5290165E-2,-5.1623482E-2,-4.7918796E-3,-5.2016642E-2,3.0265216E-2,6.449627E-3,-4.2082097E-2,1.6202232E-2,3.338964E-3,6.0247176E-4,-2.62956E-2,-2.41E-2,1.6108437E-2],"categories":[],"categories_nodes":[],"categories_segments":[],"categories_sizes":[],"default_left":[0,0,0,0,0,0,0,0,0,0,0,0,0,0,0,0,0,0,0,0,0,0,0,0,0,0,0],"id":25,"left_children":[1,3,5,7,9,11,13,15,17,19,21,23,25,-1,-1,-1,-1,-1,-1,-1,-1,-1,-1,-1,-1,-1,-1],"loss_changes":[8.727355E0,6.9429255E0,4.1679873E0,3.1860986E0,4.38577E0,1.9311395E0,1.2262378E0,2.732141E0,2.550661E0,2.2662735E0,3.7032518E0,2.1372728E0,1.4578516E0,0E0,0E0,0E0,0E0,0E0,0E0,0E0,0E0,0E0,0E0,0E0,0E0,0E0,0E0],"parents":[2147483647,0,0,1,1,2,2,3,3,4,4,5,5,6,6,7,7,8,8,9,9,10,10,11,11,12,12],"right_children":[2,4,6,8,10,12,14,16,18,20,22,24,26,-1,-1,-1,-1,-1,-1,-1,-1,-1,-1,-1,-1,-1,-1],"split_conditions":[2E1,-3E-1,6.3E1,2.7E1,5E0,1.9E1,2.8E1,1E1,5.9E1,2.1E1,1.1E1,9E0,1E1,-6.6528685E-2,2.5290165E-2,-5.1623482E-2,-4.7918796E-3,-5.2016642E-2,3.0265216E-2,6.449627E-3,-4.2082097E-2,1.6202232E-2,3.338964E-3,6.0247176E-4,-2.62956E-2,-2.41E-2,1.6108437E-2],"split_indices":[4,2,0,5,5,5,5,5,1,1,5,5,0,0,0,0,0,0,0,0,0,0,0,0,0,0,0],"split_type":[0,0,0,0,0,0,0,0,0,0,0,0,0,0,0,0,0,0,0,0,0,0,0,0,0,0,0],"sum_hessian":[1.4876207E3,1.2719445E3,2.1567633E2,2.673444E2,1.00460004E3,1.952458E2,2.043053E1,2.3695132E2,3.0393064E1,4.0749714E1,9.638503E2,1.5305055E2,4.219525E1,1.9367443E1,1.0630864E0,1.2212893E1,2.2473843E2,2.6700933E1,3.6921318E0,1.4508259E1,2.6241455E1,3.5281128E2,6.11039E2,3.9780064E1,1.13270485E2,1.1653574E1,3.0541677E1],"tree_param":{"num_deleted":"0","num_feature":"8","num_nodes":"27","size_leaf_vector":"1"}},{"base_weights":[-1.2528948E-3,-1.4485227E-1,2.4622235E-1,-3.4372315E-1,-4.7487866E-2,1.4353201E-1,3.968403E-1,-3.6840475E-1,2.7102662E-2,-7.628909E-2,3.6939308E-1,3.1644013E-2,2.2370648E-1,7.862654E-1,3.3861068E-1,-1.3997409E-2,-3.9919604E-2,-3.8486924E-2,4.579329E-2,-2.0334834E-2,-1.1728824E-3,7.9886936E-2,1.3541601E-2,1.4404665E-2,-1.4944389E-2,-3.1906173E-3,2.8320564E-2,9.012329E-2,3.9883498E-2,4.453929E-2,8.619079E-3],"categories":[],"categories_nodes":[],"categories_segments":[],"categories_sizes":[],"default_left":[0,0,0,0,0,0,0,0,0,0,0,0,0,0,0,0,0,0,0,0,0,0,0,0,0,0,0,0,0,0,0],"id":26,"left_children":[1,3,5,7,9,11,13,15,17,19,21,23,25,27,29,-1,-1,-1,-1,-1,-1,-1,-1,-1,-1,-1,-1,-1,-1,-1,-1],"loss_changes":[5.143758E1,1.7718927E1,8.163521E0,2.763836E0,7.4249477E0,2.8418746E0,4.6067505E0,1.9288559E0,3.6742282E0,4.731324E0,3.9095464E0,2.743753E0,2.8203716E0,8.5194206E-1,5.0477943E0,0E0,0E0,0E0,0E0,0E0,0E0,0E0,0E0,0E0,0E0,0E0,0E0,0E0,0E0,0E0,0E0],"parents":[2147483647,0,0,1,1,2,2,3,3,4,4,5,5,6,6,7,7,8,8,9,9,10,10,11,11,12,12,13,13,14,14],"right_children":[2,4,6,8,10,12,14,16,18,20,22,24,26,28,30,-1,-1,-1,-1,-1,-1,-1,-1,-1,-1,-1,-1,-1,-1,-1,-1],"split_conditions":[5E-1,-2E-1,1E0,7.3E1,2E1,1.4E1,6E0,1.1E1,-4E-1,1E1,2E-1,5.3E1,1.3E1,1.3E0,1.2E0,-1.3997409E-2,-3.9919604E-2,-3.8486924E-2,4.579329E-2,-2.0334834E-2,-1.1728824E-3,7.9886936E-2,1.3541601E-2,1.4404665E-2,-1.4944389E-2,-3.1906173E-3,2.8320564E-2,9.012329E-2,3.9883498E-2,4.453929E-2,8.619079E-3],"split_indices":[2,2,2,1,4,4,5,5,2,4,2,1,0,6,6,0,0,0,0,0,0,0,0,0,0,0,0,0,0,0,0],"split_type":[0,0,0,0,0,0,0,0,0,0,0,0,0,0,0,0,0,0,0,0,0,0,0,0,0,0,0,0,0,0,0],"sum_hessian":[1.4454221E3,9.1493744E2,5.304847E2,2.9988315E2,6.150543E2,3.165892E2,2.1389546E2,2.811751E2,1.8708067E1,5.7607196E2,3.898231E1,1.3273904E2,1.8385014E2,2.619657E1,1.876989E2,3.4057705E1,2.4711739E2,9.61787E0,9.090196E0,1.9336533E2,3.8270667E2,1.2896273E1,2.6086039E1,8.2028114E1,5.0710926E1,3.480199E1,1.4904816E2,1.9179111E1,7.017459E0,1.3136327E2,5.633563E1],"tree_param":{"num_deleted":"0","num_feature":"8","num_nodes":"31","size_leaf_vector":"1"}},{"base_weights":[3.5853772E-3,-1.3829488E-1,1.9281533E-1,-2.4296412E-1,8.1926934E-2,-7.849943E-2,2.727311E-1,-4.257443E-1,-1.6596974E-1,1.6851732E-1,-1.7763077E-1,9.510547E-2,-2.0541926E-1,2.3130804E-1,5.9026045E-1,-2.9286468E-2,-4.7535174E-2,-3.207156E-2,-9.224071E-3,2.3859762E-2,-7.6511935E-3,-3.1210339E-2,1.8848872E-2,1.9834474E-2,-2.5013318E-2,-4.912156E-3,-3.9970696E-2,1.5562574E-2,4.266548E-2,1.4936547E-2,6.5059476E-2],"categories":[],"categories_nodes":[],"categories_segments":[],"categories_sizes":[],"default_left":[0,0,0,0,0,0,0,0,0,0,0,0,0,0,0,0,0,0,0,0,0,0,0,0,0,0,0,0,0,0,0],"id":27,"left_children":[1,3,5,7,9,11,13,15,17,19,21,23,25,27,29,-1,-1,-1,-1,-1,-1,-1,-1,-1,-1,-1,-1,-1,-1,-1,-1],"loss_changes":[3.898584E1,1.9149221E1,1.351243E1,7.849346E0,6.0557795E0,3.1560426E0,6.188286E0,9.5609856E-1,4.50692E0,3.4793015E0,3.3848095E0,2.2167094E0,2.4870667E0,6.2467365E0,1.3618221E0,0E0,0E0,0E0,0E0,0E0,0E0,0E0,0E0,0E0,0E0,0E0,0E0,0E0,0E0,0E0,0E0],"parents":[2147483647,0,0,1,1,2,2,3,3,4,4,5,5,6,6,7,7,8,8,9,9,10,10,11,11,12,12,13,13,14,14],"right_children":[2,4,6,8,10,12,14,16,18,20,22,24,26,28,30,-1,-1,-1,-1,-1,-1,-1,-1,-1,-1,-1,-1,-1,-1,-1,-1],"split_conditions":[1.5E1,1.5E0,1.1E0,9E0,1.9E0,1.1E0,1.8E0,1.1E1,1.1E0,1.2E1,1.9E0,2.3E1,5E1,2.3E1,1.6E1,-2.9286468E-2,-4.7535174E-2,-3.207156E-2,-9.224071E-3,2.3859762E-2,-7.6511935E-3,-3.1210339E-2,1.8848872E-2,1.9834474E-2,-2.5013318E-2,-4.912156E-3,-3.9970696E-2,1.5562574E-2,4.266548E-2,1.4936547E-2,6.5059476E-2],"split_indices":[5,6,6,5,7,7,6,4,6,4,6,4,1,5,5,0,0,0,0,0,0,0,0,0,0,0,0,0,0,0,0],"split_type":[0,0,0,0,0,0,0,0,0,0,0,0,0,0,0,0,0,0,0,0,0,0,0,0,0,0,0,0,0,0,0],"sum_hessian":[1.4501019E3,8.288891E2,6.2121277E2,5.6177826E2,2.6711084E2,1.4134908E2,4.798637E2,1.6516248E2,3.9661575E2,2.0055498E2,6.6555885E1,5.9801453E1,8.154762E1,4.260165E2,5.3847195E1,4.6774582E1,1.1838789E2,1.2690721E2,2.6970856E2,1.55972E2,4.458297E1,4.8785072E1,1.777081E1,4.6362743E1,1.3438709E1,4.588642E1,3.56612E1,3.083504E2,1.17666115E2,6.900105E0,4.694709E1],"tree_param":{"num_deleted":"0","num_feature":"8","num_nodes":"31","size_leaf_vector":"1"}},{"base_weights":[-3.4769664E-3,3.157162E-2,-1.3486062E-1,6.311754E-2,-1.6766402E-1,-1.5761471E-1,3.1137532E-1,-2.0541663E-1,7.354525E-2,2.1214432E-1,-2.4613547E-1,-1.29268E-1,-4.668062E-1,-4.918148E-2,4.7366285E-1,-3.5241705E-3,-6.6753656E-2,1.8072227E-2,3.105184E-3,-4.1210484E-2,3.643804E-2,-1.4531516E-2,-3.3673443E-2,-5.7524152E-2,-1.1626818E-2,-5.469063E-2,-1.0502597E-3,6.916409E-2,-4.977275E-2],"categories":[],"categories_nodes":[],"categories_segments":[],"categories_sizes":[],"default_left":[0,0,0,0,0,0,0,0,0,0,0,0,0,0,0,0,0,0,0,0,0,0,0,0,0,0,0,0,0],"id":28,"left_children":[1,3,5,7,9,11,13,15,17,19,21,23,25,-1,27,-1,-1,-1,-1,-1,-1,-1,-1,-1,-1,-1,-1,-1,-1],"loss_changes":[6.860803E0,7.403348E0,3.2348394E0,2.8606267E0,4.852347E0,2.5619726E0,2.2609754E0,2.984429E0,4.452776E0,2.8220007E0,1.1745148E0,1.5300717E0,8.9863634E-1,0E0,3.192748E0,0E0,0E0,0E0,0E0,0E0,0E0,0E0,0E0,0E0,0E0,0E0,0E0,0E0,0E0],"parents":[2147483647,0,0,1,1,2,2,3,3,4,4,5,5,6,6,7,7,8,8,9,9,10,10,11,11,12,12,14,14],"right_children":[2,4,6,8,10,12,14,16,18,20,22,24,26,-1,28,-1,-1,-1,-1,-1,-1,-1,-1,-1,-1,-1,-1,-1,-1],"split_conditions":[1.8E1,2.1E1,2.7E1,5E0,1.1E0,6.7E1,5E0,6.4E1,1E1,8E0,4.4E1,5E0,7.6E1,-4.918148E-2,4.6E1,-3.5241705E-3,-6.6753656E-2,1.8072227E-2,3.105184E-3,-4.1210484E-2,3.643804E-2,-1.4531516E-2,-3.3673443E-2,-5.7524152E-2,-1.1626818E-2,-5.469063E-2,-1.0502597E-3,6.916409E-2,-4.977275E-2],"split_indices":[4,5,5,5,6,0,0,0,5,1,1,5,0,0,1,0,0,0,0,0,0,0,0,0,0,0,0,0,0],"split_type":[0,0,0,0,0,0,0,0,0,0,0,0,0,0,0,0,0,0,0,0,0,0,0,0,0,0,0,0,0],"sum_hessian":[1.487996E3,1.1752421E3,3.1275397E2,1.01518604E3,1.60056E2,2.9819543E2,1.4558545E1,3.7249077E1,9.7793695E2,2.7114779E1,1.3294122E2,2.7445175E2,2.3743675E1,2.1058416E0,1.2452703E1,2.801051E1,9.238565E0,2.7672562E2,7.012113E2,4.9813933E0,2.2133385E1,6.415368E1,6.8787544E1,6.5484953E0,2.6790326E2,2.0029173E1,3.7145038E0,1.0405679E1,2.047025E0],"tree_param":{"num_deleted":"0","num_feature":"8","num_nodes":"29","size_leaf_vector":"1"}},{"base_weights":[3.720437E-4,-1.4133805E-1,1.8305446E-1,-2.2701305E-1,1.6328472E-1,4.6494015E-2,3.5120505E-1,-4.5678172E-1,-1.7821945E-1,-5.2773442E-2,3.5609207E-1,2.2737432E-1,-3.367687E-2,2.686626E-1,4.9008897E-1,3.9139327E-2,-4.6850007E-2,-4.244912E-3,-2.688523E-2,1.2942967E-2,-2.0656412E-2,1.8762564E-2,5.8004405E-2,7.782963E-3,4.319724E-2,3.3333004E-3,-1.9421019E-2,1.651846E-2,3.3292692E-2,3.9694518E-2,7.7017576E-2],"categories":[],"categories_nodes":[],"categories_segments":[],"categories_sizes":[],"default_left":[0,0,0,0,0,0,0,0,0,0,0,0,0,0,0,0,0,0,0,0,0,0,0,0,0,0,0,0,0,0,0],"id":29,"left_children":[1,3,5,7,9,11,13,15,17,19,21,23,25,27,29,-1,-1,-1,-1,-1,-1,-1,-1,-1,-1,-1,-1,-1,-1,-1,-1],"loss_changes":[3.7619358E1,2.1394897E1,1.4560616E1,7.0840683E0,7.5263176E0,5.1043434E0,3.1280212E0,1.2897186E0,6.495859E0,2.4325352E0,3.48907E0,3.272832E0,2.6355307E0,1.145731E0,2.427925E0,0E0,0E0,0E0,0E0,0E0,0E0,0E0,0E0,0E0,0E0,0E0,0E0,0E0,0E0,0E0,0E0],"parents":[2147483647,0,0,1,1,2,2,3,3,4,4,5,5,6,6,7,7,8,8,9,9,10,10,11,11,12,12,13,13,14,14],"right_children":[2,4,6,8,10,12,14,16,18,20,22,24,26,28,30,-1,-1,-1,-1,-1,-1,-1,-1,-1,-1,-1,-1,-1,-1,-1,-1],"split_conditions":[1.6E0,1.9E1,1.4E1,8E0,1.3E0,8E0,2E0,2E0,1.4E1,1.8E1,5.1E1,1.1E1,1.6E0,1.8E1,2.3E1,3.9139327E-2,-4.6850007E-2,-4.244912E-3,-2.688523E-2,1.2942967E-2,-2.0656412E-2,1.8762564E-2,5.8004405E-2,7.782963E-3,4.319724E-2,3.3333004E-3,-1.9421019E-2,1.651846E-2,3.3292692E-2,3.9694518E-2,7.7017576E-2],"split_indices":[7,4,4,4,7,5,7,1,5,5,1,4,6,4,4,0,0,0,0,0,0,0,0,0,0,0,0,0,0,0,0],"split_type":[0,0,0,0,0,0,0,0,0,0,0,0,0,0,0,0,0,0,0,0,0,0,0,0,0,0,0,0,0,0,0],"sum_hessian":[1.451162E3,8.1735284E2,6.338092E2,6.38133E2,1.7921982E2,3.5046326E2,2.8334592E2,1.1031221E2,5.278208E2,8.485659E1,9.4363235E1,1.07066154E2,2.4339711E2,1.7956187E2,1.03784035E2,1.061759E0,1.0925046E2,2.1188298E2,3.159378E2,3.8912964E1,4.5943626E1,5.4901634E1,3.94616E1,6.265258E1,4.4413578E1,1.7227737E2,7.111973E1,7.016041E1,1.0940147E2,7.969756E1,2.4086468E1],"tree_param":{"num_deleted":"0","num_feature":"8","num_nodes":"31","size_leaf_vector":"1"}},{"base_weights":[4.8329392E-3,2.0203081E-1,-1.6276643E-1,4.7842836E-1,1.3897106E-1,-3.6834845E-1,-7.912909E-2,4.0543014E-1,7.017207E-1,8.943738E-2,4.420024E-1,-1.5659626E-1,-4.3134573E-1,-8.45587E-3,-2.67199E-1,1.9068535E-2,5.436268E-2,8.519552E-4,7.3006436E-2,1.4465823E-2,-5.0097345E-3,4.7345184E-2,-3.3630595E-2,-2.4567414E-2,1.6079646E-2,-3.724599E-2,-6.156692E-2,1.9904643E-2,-6.6776644E-3,-4.010843E-2,-1.5100948E-2],"categories":[],"categories_nodes":[],"categories_segments":[],"categories_sizes":[],"default_left":[0,0,0,0,0,0,0,0,0,0,0,0,0,0,0,0,0,0,0,0,0,0,0,0,0,0,0,0,0,0,0],"id":30,"left_children":[1,3,5,7,9,11,13,15,17,19,21,23,25,27,29,-1,-1,-1,-1,-1,-1,-1,-1,-1,-1,-1,-1,-1,-1,-1,-1],"loss_changes":[4.8098602E1,1.1587059E1,1.349789E1,1.7333603E0,8.153255E0,2.9636745E0,7.447417E0,2.7353554E0,5.661535E-1,3.6316478E0,2.030037E0,1.5569465E0,1.6653557E0,4.955935E0,2.3204155E0,0E0,0E0,0E0,0E0,0E0,0E0,0E0,0E0,0E0,0E0,0E0,0E0,0E0,0E0,0E0,0E0],"parents":[2147483647,0,0,1,1,2,2,3,3,4,4,5,5,6,6,7,7,8,8,9,9,10,10,11,11,12,12,13,13,14,14],"right_children":[2,4,6,8,10,12,14,16,18,20,22,24,26,28,30,-1,-1,-1,-1,-1,-1,-1,-1,-1,-1,-1,-1,-1,-1,-1,-1],"split_conditions":[1E-1,-7E-1,1.1E0,6.6E1,1.8E0,1.2E0,7E-1,4.1E1,8E-1,1.6E0,7.9E1,1E0,6.4E1,1.3E0,1.3E0,1.9068535E-2,5.436268E-2,8.519552E-4,7.3006436E-2,1.4465823E-2,-5.0097345E-3,4.7345184E-2,-3.3630595E-2,-2.4567414E-2,1.6079646E-2,-3.724599E-2,-6.156692E-2,1.9904643E-2,-6.6776644E-3,-4.010843E-2,-1.5100948E-2],"split_indices":[2,2,6,0,6,7,2,1,6,7,1,6,1,7,6,0,0,0,0,0,0,0,0,0,0,0,0,0,0,0,0],"split_type":[0,0,0,0,0,0,0,0,0,0,0,0,0,0,0,0,0,0,0,0,0,0,0,0,0,0,0,0,0,0,0],"sum_hessian":[1.4533229E3,6.6760803E2,7.857149E2,1.2279549E2,5.4481256E2,2.2623102E2,5.594839E2,9.466387E1,2.8131613E1,4.693822E2,7.543036E1,5.267173E1,1.7355928E2,4.0742572E2,1.5205814E2,3.799812E1,5.6665756E1,1.1561505E0,2.6975462E1,3.3626764E2,1.3311456E2,7.2877266E1,2.5530918E0,4.1305183E1,1.1366549E1,1.3382643E2,3.9732857E1,8.885857E1,3.1856717E2,6.950988E1,8.254826E1],"tree_param":{"num_deleted":"0","num_feature":"8","num_nodes":"31","size_leaf_vector":"1"}},{"base_weights":[1.5614766E-2,3.174658E-2,-2.2407845E-1,9.768901E-2,-3.3942986E-2,3.0357555E-1,-2.7114925E-1,-3.8298316E-2,1.439036E-1,-4.968046E-1,-2.2023473E-2,-2.4651255E-1,7.14404E-1,-6.0583174E-1,-1.7513129E-1,3.1183946E-3,-2.4039155E-2,2.3406543E-2,6.410438E-3,-2.785994E-2,-6.201609E-2,-3.0426364E-4,-1.8972619E-2,1.5720425E-2,-4.938179E-2,9.718765E-2,6.2893876E-3,-1.1419235E-2,-6.729997E-2,-2.0180296E-3,-3.6628224E-2],"categories":[],"categories_nodes":[],"categories_segments":[],"categories_sizes":[],"default_left":[0,0,0,0,0,0,0,0,0,0,0,0,0,0,0,0,0,0,0,0,0,0,0,0,0,0,0,0,0,0,0],"id":31,"left_children":[1,3,5,7,9,11,13,15,17,19,21,23,25,27,29,-1,-1,-1,-1,-1,-1,-1,-1,-1,-1,-1,-1,-1,-1,-1,-1],"loss_changes":[5.768944E0,6.054883E0,2.41919E0,4.3885927E0,3.85433E0,2.0242133E0,2.6868114E0,2.5026002E0,3.7316551E0,2.9941177E-1,2.176873E0,5.009334E-1,7.6720214E-1,5.495405E-1,2.034594E0,0E0,0E0,0E0,0E0,0E0,0E0,0E0,0E0,0E0,0E0,0E0,0E0,0E0,0E0,0E0,0E0],"parents":[2147483647,0,0,1,1,2,2,3,3,4,4,5,5,6,6,7,7,8,8,9,9,10,10,11,11,12,12,13,13,14,14],"right_children":[2,4,6,8,10,12,14,16,18,20,22,24,26,28,30,-1,-1,-1,-1,-1,-1,-1,-1,-1,-1,-1,-1,-1,-1,-1,-1],"split_conditions":[1.9E0,1.3E1,3E0,-3E-1,5E0,1E-1,3.3E1,2.3E1,3.1E1,4.2E1,2.5E1,-4E-1,3E-1,1.1E0,1.4E1,3.1183946E-3,-2.4039155E-2,2.3406543E-2,6.410438E-3,-2.785994E-2,-6.201609E-2,-3.0426364E-4,-1.8972619E-2,1.5720425E-2,-4.938179E-2,9.718765E-2,6.2893876E-3,-1.1419235E-2,-6.729997E-2,-2.0180296E-3,-3.6628224E-2],"split_indices":[6,4,0,2,5,2,0,5,0,0,4,2,2,7,5,0,0,0,0,0,0,0,0,0,0,0,0,0,0,0,0],"split_type":[0,0,0,0,0,0,0,0,0,0,0,0,0,0,0,0,0,0,0,0,0,0,0,0,0,0,0,0,0,0,0],"sum_hessian":[1.4891207E3,1.3960326E3,9.3088135E1,6.964323E2,6.996002E2,7.177745E0,8.591039E1,1.7668999E2,5.197424E2,1.6542381E1,6.830578E2,3.2397587E0,3.9379861E0,1.7968697E1,6.7941696E1,1.3211339E2,4.4576595E1,2.4311906E2,2.766233E2,7.1511645E0,9.391215E0,6.145233E2,6.853449E1,1.3690944E0,1.8706642E0,2.4700928E0,1.4678934E0,2.4843643E0,1.5484333E1,3.8134575E1,2.9807121E1],"tree_param":{"num_deleted":"0","num_feature":"8","num_nodes":"31","size_leaf_vector":"1"}},{"base_weights":[-3.4938264E-3,-2.0800132E-1,1.5003724E-1,-2.4269003E-1,1.67387E-1,1.7869202E-2,2.677763E-1,-3.454936E-1,-1.417794E-1,1.0452866E-1,6.3663304E-2,-1.1878265E-1,1.4750467E-1,6.693088E-1,2.2798635E-1,-4.031442E-2,-2.2212623E-2,-1.6897714E-2,3.7646886E-2,-7.83444E-3,4.6171214E-2,-8.484001E-3,-5.0255682E-2,9.251824E-3,4.6072595E-2,4.1650828E-2,8.302716E-2,1.0072846E-3,3.0174896E-2],"categories":[],"categories_nodes":[],"categories_segments":[],"categories_sizes":[],"default_left":[0,0,0,0,0,0,0,0,0,0,0,0,0,0,0,0,0,0,0,0,0,0,0,0,0,0,0,0,0],"id":32,"left_children":[1,3,5,7,9,11,13,15,17,-1,19,21,23,25,27,-1,-1,-1,-1,-1,-1,-1,-1,-1,-1,-1,-1,-1,-1],"loss_changes":[4.5653732E1,8.159599E0,1.2919428E1,5.8762207E0,4.7899575E0,6.9681826E0,6.8640347E0,1.9177322E0,4.150227E0,0E0,2.7925465E0,2.452757E0,3.4328947E0,1.2443867E0,6.444065E0,0E0,0E0,0E0,0E0,0E0,0E0,0E0,0E0,0E0,0E0,0E0,0E0,0E0,0E0],"parents":[2147483647,0,0,1,1,2,2,3,3,4,4,5,5,6,6,7,7,8,8,10,10,11,11,12,12,13,13,14,14],"right_children":[2,4,6,8,10,12,14,16,18,-1,20,22,24,26,28,-1,-1,-1,-1,-1,-1,-1,-1,-1,-1,-1,-1,-1,-1],"split_conditions":[2E-1,2.1E0,1.6E0,-2E-1,1.2E1,1.6E1,5E0,1.2E1,2E1,1.0452866E-1,1.3E1,1.8E1,1.4E0,4E0,1.2E1,-4.031442E-2,-2.2212623E-2,-1.6897714E-2,3.7646886E-2,-7.83444E-3,4.6171214E-2,-8.484001E-3,-5.0255682E-2,9.251824E-3,4.6072595E-2,4.1650828E-2,8.302716E-2,1.0072846E-3,3.0174896E-2],"split_indices":[2,7,7,2,0,4,5,4,4,0,4,5,2,5,4,0,0,0,0,0,0,0,0,0,0,0,0,0,0],"split_type":[0,0,0,0,0,0,0,0,0,0,0,0,0,0,0,0,0,0,0,0,0,0,0,0,0,0,0,0,0],"sum_hessian":[1.4520275E3,6.22494E2,8.295335E2,5.701604E2,5.233361E1,3.9136185E2,4.3817166E2,2.8123056E2,2.8892984E2,4.5706663E0,4.7762943E1,1.905657E2,2.0079614E2,3.8079437E1,4.0009222E2,1.9011868E2,9.111188E1,2.7516318E2,1.3766656E1,3.5795677E1,1.1967269E1,1.7620264E2,1.4363055E1,1.719121E2,2.888404E1,1.6209375E1,2.1870062E1,1.0146763E2,2.9862457E2],"tree_param":{"num_deleted":"0","num_feature":"8","num_nodes":"29","size_leaf_vector":"1"}},{"base_weights":[2.4058693E-3,-1.8292196E-1,1.4728677E-1,-2.4225132E-1,3.795933E-2,7.4729644E-4,2.7244017E-1,-4.2459655E-1,-1.879981E-1,-1.2684292E-2,7.0137095E-1,-1.4365403E-1,8.524934E-2,1.8204248E-1,3.8223925E-1,-3.5167627E-2,-5.505794E-2,-1.3408931E-2,-4.0273435E-2,3.5560865E-2,-9.204665E-3,1.4773784E-3,7.947447E-2,1.1913328E-2,-1.8230936E-2,1.2238551E-3,3.4111183E-2,1.2062786E-2,4.827969E-2,2.4260556E-2,4.789838E-2],"categories":[],"categories_nodes":[],"categories_segments":[],"categories_sizes":[],"default_left":[0,0,0,0,0,0,0,0,0,0,0,0,0,0,0,0,0,0,0,0,0,0,0,0,0,0,0,0,0,0,0],"id":33,"left_children":[1,3,5,7,9,11,13,15,17,19,21,23,25,27,29,-1,-1,-1,-1,-1,-1,-1,-1,-1,-1,-1,-1,-1,-1,-1,-1],"loss_changes":[3.8524216E1,8.258875E0,1.4767958E1,4.8306274E0,4.516122E0,4.5506635E0,4.241226E0,8.4469604E-1,4.395193E0,3.7044544E0,5.993862E-1,1.4202461E0,4.3906217E0,4.3767796E0,2.5207405E0,0E0,0E0,0E0,0E0,0E0,0E0,0E0,0E0,0E0,0E0,0E0,0E0,0E0,0E0,0E0,0E0],"parents":[2147483647,0,0,1,1,2,2,3,3,4,4,5,5,6,6,7,7,8,8,9,9,10,10,11,11,12,12,13,13,14,14],"right_children":[2,4,6,8,10,12,14,16,18,20,22,24,26,28,30,-1,-1,-1,-1,-1,-1,-1,-1,-1,-1,-1,-1,-1,-1,-1,-1],"split_conditions":[1.3E1,1.6E0,1.3E0,1E0,2.4E0,1E0,1.9E1,5.1E1,2.1E0,1.3E0,5E0,9E-1,2.3E1,1.9E0,4.1E1,-3.5167627E-2,-5.505794E-2,-1.3408931E-2,-4.0273435E-2,3.5560865E-2,-9.204665E-3,1.4773784E-3,7.947447E-2,1.1913328E-2,-1.8230936E-2,1.2238551E-3,3.4111183E-2,1.2062786E-2,4.827969E-2,2.4260556E-2,4.789838E-2],"split_indices":[5,6,6,6,6,6,5,1,7,7,5,7,5,6,1,0,0,0,0,0,0,0,0,0,0,0,0,0,0,0,0],"split_type":[0,0,0,0,0,0,0,0,0,0,0,0,0,0,0,0,0,0,0,0,0,0,0,0,0,0,0,0,0,0,0],"sum_hessian":[1.4327657E3,6.285187E2,8.042471E2,4.9536536E2,1.3315334E2,3.7093408E2,4.3331296E2,1.120245E2,3.8334085E2,1.2462088E2,8.532449E0,1.3667574E2,2.3425836E2,2.3911075E2,1.9420221E2,7.335643E1,3.8668068E1,3.077146E2,7.562625E1,2.147626E1,1.0314462E2,1.160113E0,7.3723354E0,1.7259554E1,1.1941618E2,1.8306755E2,5.1190807E1,1.9972717E2,3.938358E1,8.0918434E1,1.13283775E2],"tree_param":{"num_deleted":"0","num_feature":"8","num_nodes":"31","size_leaf_vector":"1"}},{"base_weights":[2.0955836E-2,-2.4735762E-1,3.449956E-2,-4.537408E-2,-3.6263692E-1,8.6935505E-2,2.7060444E-3,6.7087874E-2,-3.8617685E-1,-5.145142E-1,-6.1167203E-2,1.1695427E-1,-2.0089369E-1,-3.092512E-1,1.3159406E-2,2.5263745E-2,-2.8036518E-2,-5.5057663E-2,1.773944E-2,-5.45845E-3,-5.5025753E-2,1.513192E-2,-5.3547062E-2,1.2380212E-2,-5.420676E-2,-6.1218194E-3,-5.61044E-2,1.67789E-2,-5.1769417E-2,9.51997E-4,7.889023E-2],"categories":[],"categories_nodes":[],"categories_segments":[],"categories_sizes":[],"default_left":[0,0,0,0,0,0,0,0,0,0,0,0,0,0,0,0,0,0,0,0,0,0,0,0,0,0,0,0,0,0,0],"id":34,"left_children":[1,3,5,7,9,11,13,15,17,19,21,23,25,27,29,-1,-1,-1,-1,-1,-1,-1,-1,-1,-1,-1,-1,-1,-1,-1,-1],"loss_changes":[5.450599E0,1.6619539E0,2.3778725E0,1.073572E0,2.0631628E0,4.6755E0,2.9033117E0,1.4507729E0,7.397549E-1,4.6786213E-1,1.7400255E0,2.270259E0,2.5421007E0,2.9572272E0,2.423883E0,0E0,0E0,0E0,0E0,0E0,0E0,0E0,0E0,0E0,0E0,0E0,0E0,0E0,0E0,0E0,0E0],"parents":[2147483647,0,0,1,1,2,2,3,3,4,4,5,5,6,6,7,7,8,8,9,9,10,10,11,11,12,12,13,13,14,14],"right_children":[2,4,6,8,10,12,14,16,18,20,22,24,26,28,30,-1,-1,-1,-1,-1,-1,-1,-1,-1,-1,-1,-1,-1,-1,-1,-1],"split_conditions":[-8E-1,1.4E0,3.2E1,2.7E1,5.7E1,2.2E1,5E0,6.1E1,4.2E1,-1.5E0,-9E-1,2E0,4.7E1,4E-1,2.9E1,2.5263745E-2,-2.8036518E-2,-5.5057663E-2,1.773944E-2,-5.45845E-3,-5.5025753E-2,1.513192E-2,-5.3547062E-2,1.2380212E-2,-5.420676E-2,-6.1218194E-3,-5.61044E-2,1.67789E-2,-5.1769417E-2,9.51997E-4,7.889023E-2],"split_indices":[2,6,0,5,1,5,5,0,0,2,2,2,1,2,5,0,0,0,0,0,0,0,0,0,0,0,0,0,0,0,0],"split_type":[0,0,0,0,0,0,0,0,0,0,0,0,0,0,0,0,0,0,0,0,0,0,0,0,0,0,0,0,0,0,0],"sum_hessian":[1.4965566E3,7.108258E1,1.4254741E3,2.6334642E1,4.4747936E1,5.3740924E2,8.880649E2,2.0404488E1,5.9301558E0,2.9286844E1,1.5461092E1,4.8719186E2,5.0217365E1,2.7866535E1,8.601983E2,1.3479139E1,6.9253473E0,4.6087823E0,1.3213737E0,2.2941265E0,2.6992718E1,1.1147855E1,4.313237E0,4.8298535E2,4.2065167E0,3.7027237E1,1.3190129E1,8.533014E0,1.933352E1,8.57189E2,3.009274E0],"tree_param":{"num_deleted":"0","num_feature":"8","num_nodes":"31","size_leaf_vector":"1"}},{"base_weights":[-8.292794E-3,-2.5303173E-1,9.639969E-2,-3.217307E-1,-3.2890517E-2,1.5753713E-2,2.67592E-1,-4.3622318E-1,-2.3579343E-1,5.407652E-1,-5.9741396E-2,8.1449896E-2,-1.523099E-1,1.7028631E-1,3.8525805E-1,-1.4217541E-2,-4.656136E-2,-1.4911278E-2,-2.9474337E-2,9.791983E-2,-1.9080117E-2,-2.68645E-3,-4.7637556E-2,-7.88067E-3,1.33107975E-2,-2.6179729E-2,-5.131691E-3,2.363432E-2,2.9499556E-3,4.9294345E-2,2.6740825E-2],"categories":[],"categories_nodes":[],"categories_segments":[],"categories_sizes":[],"default_left":[0,0,0,0,0,0,0,0,0,0,0,0,0,0,0,0,0,0,0,0,0,0,0,0,0,0,0,0,0,0,0],"id":35,"left_children":[1,3,5,7,9,11,13,15,17,19,21,23,25,27,29,-1,-1,-1,-1,-1,-1,-1,-1,-1,-1,-1,-1,-1,-1,-1,-1],"loss_changes":[3.6652195E1,6.4709415E0,1.3828721E1,3.1098862E0,1.619565E0,7.54424E0,3.6073303E0,1.1335678E0,9.202709E-1,1.6966093E0,1.3479323E0,4.0760612E0,2.1103039E0,1.6426458E0,1.70088E0,0E0,0E0,0E0,0E0,0E0,0E0,0E0,0E0,0E0,0E0,0E0,0E0,0E0,0E0,0E0,0E0],"parents":[2147483647,0,0,1,1,2,2,3,3,4,4,5,5,6,6,7,7,8,8,9,9,10,10,11,11,12,12,13,13,14,14],"right_children":[2,4,6,8,10,12,14,16,18,20,22,24,26,28,30,-1,-1,-1,-1,-1,-1,-1,-1,-1,-1,-1,-1,-1,-1,-1,-1],"split_conditions":[0E0,1.7E0,1.8E0,-4E-1,8E-1,1.4E0,7E-1,8E0,4.4E1,1.8E0,1.9E1,1.2E0,4.1E1,1.5E0,1.2E0,-1.4217541E-2,-4.656136E-2,-1.4911278E-2,-2.9474337E-2,9.791983E-2,-1.9080117E-2,-2.68645E-3,-4.7637556E-2,-7.88067E-3,1.33107975E-2,-2.6179729E-2,-5.131691E-3,2.363432E-2,2.9499556E-3,4.9294345E-2,2.6740825E-2],"split_indices":[2,7,7,2,6,6,2,1,1,7,5,7,1,6,6,0,0,0,0,0,0,0,0,0,0,0,0,0,0,0,0],"split_type":[0,0,0,0,0,0,0,0,0,0,0,0,0,0,0,0,0,0,0,0,0,0,0,0,0,0,0,0,0,0,0],"sum_hessian":[1.4285267E3,4.2757364E2,1.0009531E3,3.2552603E2,1.0204761E2,6.811611E2,3.1979208E2,1.378265E2,1.8769954E2,3.7071257E0,9.8340485E1,4.900971E2,1.9106395E2,1.7637953E2,1.4341254E2,1.3054571E1,1.24771935E2,7.740776E1,1.1029177E2,2.1063058E0,1.6008198E0,9.213456E1,6.205924E0,1.1934203E2,3.7075507E2,9.091258E1,1.0015137E2,1.1958959E2,5.6789944E1,7.327479E1,7.013775E1],"tree_param":{"num_deleted":"0","num_feature":"8","num_nodes":"31","size_leaf_vector":"1"}},{"base_weights":[3.6049646E-4,1.0987078E-1,-2.1510479E-1,3.9708075E-1,6.360367E-2,-2.9882938E-1,5.7757823E-3,3.446985E-1,6.915549E-2,-5.0985485E-2,1.4908789E-1,-3.2338133E-1,-1.583819E-2,-2.0920604E-1,1.7343357E-1,-5.789876E-3,3.763647E-2,8.567984E-3,-1.4339318E-2,-1.5385461E-2,2.0775897E-2,-2.7730012E-2,-4.524338E-2,1.2711964E-2,-5.7044853E-2,-3.754505E-2,7.9622E-3,2.0940274E-2,-5.95313E-2],"categories":[],"categories_nodes":[],"categories_segments":[],"categories_sizes":[],"default_left":[0,0,0,0,0,0,0,0,0,0,0,0,0,0,0,0,0,0,0,0,0,0,0,0,0,0,0,0,0],"id":36,"left_children":[1,3,5,7,9,11,13,15,-1,17,19,21,23,25,27,-1,-1,-1,-1,-1,-1,-1,-1,-1,-1,-1,-1,-1,-1],"loss_changes":[3.3517197E1,1.2489805E1,8.853918E0,1.7742538E0,7.9648175E0,2.406683E0,4.8138604E0,1.4594107E0,0E0,4.4049315E0,8.305819E0,1.7737427E0,2.353036E0,2.8403633E0,2.1990213E0,0E0,0E0,0E0,0E0,0E0,0E0,0E0,0E0,0E0,0E0,0E0,0E0,0E0,0E0],"parents":[2147483647,0,0,1,1,2,2,3,3,4,4,5,5,6,6,7,7,9,9,10,10,11,11,12,12,13,13,14,14],"right_children":[2,4,6,8,10,12,14,16,-1,18,20,22,24,26,28,-1,-1,-1,-1,-1,-1,-1,-1,-1,-1,-1,-1,-1,-1],"split_conditions":[4E-1,-7E-1,1.4E1,2.1E0,1.3E0,1.7E0,1.1E0,1.5E1,6.915549E-2,1.3E0,1E1,1.1E0,6.8E1,1.9E1,1.8E0,-5.789876E-3,3.763647E-2,8.567984E-3,-1.4339318E-2,-1.5385461E-2,2.0775897E-2,-2.7730012E-2,-4.524338E-2,1.2711964E-2,-5.7044853E-2,-3.754505E-2,7.9622E-3,2.0940274E-2,-5.95313E-2],"split_indices":[2,2,5,6,6,6,6,5,0,7,5,2,1,5,6,0,0,0,0,0,0,0,0,0,0,0,0,0,0],"split_type":[0,0,0,0,0,0,0,0,0,0,0,0,0,0,0,0,0,0,0,0,0,0,0,0,0,0,0,0,0],"sum_hessian":[1.4184795E3,9.408052E2,4.7767438E2,1.2947673E2,8.113284E2,3.461236E2,1.3155077E2,1.11765915E2,1.7710814E1,3.4682416E2,4.6450427E2,3.1836035E2,2.776326E1,5.753184E1,7.401892E1,8.089481E0,1.0367644E2,1.3993768E2,2.0688649E2,7.5101654E1,3.8940262E2,2.3691351E2,8.144683E1,2.268636E1,5.0769014E0,3.632429E1,2.120755E1,7.14055E1,2.6134124E0],"tree_param":{"num_deleted":"0","num_feature":"8","num_nodes":"29","size_leaf_vector":"1"}},{"base_weights":[6.2758443E-3,-1.7002268E-1,1.8904498E-2,-3.321278E-2,-3.3455697E-1,-2.1486197E-1,2.6503885E-2,-3.4627593E-1,7.8025125E-2,-5.218642E-1,-1.627791E-1,2.8922677E-1,-3.2147714E-1,1.0653869E-1,8.999668E-3,6.327313E-2,-5.0627477E-2,3.2626536E-2,-9.666477E-3,-1.3101644E-2,-5.6959566E-2,-5.00934E-2,1.0682795E-2,-4.1071825E-2,4.533918E-2,-1.4310306E-3,-4.906328E-2,2.8793663E-2,-4.7727648E-4,1.3536747E-3,-3.9766602E-2],"categories":[],"categories_nodes":[],"categories_segments":[],"categories_sizes":[],"default_left":[0,0,0,0,0,0,0,0,0,0,0,0,0,0,0,0,0,0,0,0,0,0,0,0,0,0,0,0,0,0,0],"id":37,"left_children":[1,3,5,7,9,11,13,15,17,19,21,23,25,27,29,-1,-1,-1,-1,-1,-1,-1,-1,-1,-1,-1,-1,-1,-1,-1,-1],"loss_changes":[3.3164947E0,2.23032E0,2.4742842E0,1.9590269E0,1.366054E0,2.4502296E0,1.8857427E0,2.6274135E0,1.842026E0,3.193822E-1,2.3306315E0,1.1265609E0,1.8987067E0,4.8794928E0,2.0462985E0,0E0,0E0,0E0,0E0,0E0,0E0,0E0,0E0,0E0,0E0,0E0,0E0,0E0,0E0,0E0,0E0],"parents":[2147483647,0,0,1,1,2,2,3,3,4,4,5,5,6,6,7,7,8,8,9,9,10,10,11,11,12,12,13,13,14,14],"right_children":[2,4,6,8,10,12,14,16,18,20,22,24,26,28,30,-1,-1,-1,-1,-1,-1,-1,-1,-1,-1,-1,-1,-1,-1,-1,-1],"split_conditions":[-7E-1,4.2E1,5E0,9E-1,2.2E1,0E0,9E0,1E0,-1E0,5.2E1,6.3E1,9E0,3E1,1.7E0,1.7E0,6.327313E-2,-5.0627477E-2,3.2626536E-2,-9.666477E-3,-1.3101644E-2,-5.6959566E-2,-5.00934E-2,1.0682795E-2,-4.1071825E-2,4.533918E-2,-1.4310306E-3,-4.906328E-2,2.8793663E-2,-4.7727648E-4,1.3536747E-3,-3.9766602E-2],"split_indices":[2,0,5,7,5,2,5,6,2,0,0,0,0,7,2,0,0,0,0,0,0,0,0,0,0,0,0,0,0,0,0],"split_type":[0,0,0,0,0,0,0,0,0,0,0,0,0,0,0,0,0,0,0,0,0,0,0,0,0,0,0,0,0,0,0],"sum_hessian":[1.4871697E3,9.857531E1,1.3885944E3,5.447845E1,4.4096863E1,4.2861095E1,1.3457333E3,1.3728533E1,4.074992E1,2.011996E1,2.39769E1,7.183566E0,3.567753E1,2.4059062E2,1.1051427E3,1.5134394E0,1.2215093E1,1.6473227E1,2.4276693E1,2.5972548E0,1.7522705E1,1.0255683E1,1.3721217E1,1.0794191E0,6.104147E0,1.3055276E1,2.2622253E1,9.088832E1,1.497023E2,1.0939049E3,1.1237742E1],"tree_param":{"num_deleted":"0","num_feature":"8","num_nodes":"31","size_leaf_vector":"1"}},{"base_weights":[-5.157254E-3,-2.4323016E-1,9.716518E-2,-3.1274363E-1,-2.9230062E-2,-1.20534025E-1,1.5370272E-1,-3.5060206E-1,-2.491296E-2,-5.6188464E-2,7.501644E-2,-1.7418781E-1,3.354434E-1,-7.461615E-2,1.9606924E-1,-4.67286E-2,-3.0283136E-2,-2.4220172E-2,3.554512E-2,-1.4616834E-2,1.6132295E-2,-4.5676883E-2,-1.5100214E-2,1.3715133E-2,8.922525E-2,-9.976393E-3,5.2856278E-2,1.5071459E-2,4.2908996E-2],"categories":[],"categories_nodes":[],"categories_segments":[],"categories_sizes":[],"default_left":[0,0,0,0,0,0,0,0,0,0,0,0,0,0,0,0,0,0,0,0,0,0,0,0,0,0,0,0,0],"id":38,"left_children":[1,3,5,7,9,11,13,15,17,19,-1,21,23,25,27,-1,-1,-1,-1,-1,-1,-1,-1,-1,-1,-1,-1,-1,-1],"loss_changes":[3.4652042E1,6.351658E0,1.2264235E1,3.5071106E0,2.26813E0,5.090309E0,7.6587467E0,1.4474831E0,3.274811E0,2.0459337E0,0E0,1.1410313E0,2.30616E0,1.9398644E0,6.9828434E0,0E0,0E0,0E0,0E0,0E0,0E0,0E0,0E0,0E0,0E0,0E0,0E0,0E0,0E0],"parents":[2147483647,0,0,1,1,2,2,3,3,4,4,5,5,6,6,7,7,8,8,9,9,11,11,12,12,13,13,14,14],"right_children":[2,4,6,8,10,12,14,16,18,20,-1,22,24,26,28,-1,-1,-1,-1,-1,-1,-1,-1,-1,-1,-1,-1,-1,-1],"split_conditions":[0E0,1.7E0,1.1E1,1.6E1,1.8E1,2.2E0,1.2E0,-6E-1,-2E-1,2.1E0,7.501644E-2,5E0,6E-1,1.7E0,2.3E1,-4.67286E-2,-3.0283136E-2,-2.4220172E-2,3.554512E-2,-1.4616834E-2,1.6132295E-2,-4.5676883E-2,-1.5100214E-2,1.3715133E-2,8.922525E-2,-9.976393E-3,5.2856278E-2,1.5071459E-2,4.2908996E-2],"split_indices":[2,7,4,4,4,7,7,2,2,7,0,4,2,2,4,0,0,0,0,0,0,0,0,0,0,0,0,0,0],"split_type":[0,0,0,0,0,0,0,0,0,0,0,0,0,0,0,0,0,0,0,0,0,0,0,0,0,0,0,0,0],"sum_hessian":[1.4205157E3,4.2659137E2,9.939244E2,3.2164902E2,1.0494237E2,2.0467734E2,7.89247E2,2.8406747E2,3.7581547E1,1.0233077E2,2.611602E0,1.8368192E2,2.0995426E1,1.23410446E2,6.658366E2,7.9964836E1,2.0410262E2,2.4149193E1,1.3432354E1,7.2618164E1,2.9712603E1,1.2510207E1,1.711717E2,1.6400986E1,4.59444E0,1.1927234E2,4.138106E0,5.5873285E2,1.07103775E2],"tree_param":{"num_deleted":"0","num_feature":"8","num_nodes":"29","size_leaf_vector":"1"}},{"base_weights":[-4.7595007E-3,1.2119425E-1,-1.5395536E-1,3.7077364E-1,7.345064E-2,-2.4435626E-1,-5.880336E-3,2.642018E-1,5.070546E-1,-1.8506011E-1,9.691063E-2,-1.5343687E-1,-3.6089927E-1,-5.4844566E-2,3.1773227E-1,5.6371283E-2,1.420703E-2,-4.640205E-3,5.246346E-2,4.487234E-2,-2.3384303E-2,1.026454E-2,-4.6623427E-2,2.4115164E-3,-1.9705372E-2,-3.211988E-2,-5.2082818E-2,-2.2222493E-3,-4.2505533E-2,4.191252E-2,-1.5256136E-2],"categories":[],"categories_nodes":[],"categories_segments":[],"categories_sizes":[],"default_left":[0,0,0,0,0,0,0,0,0,0,0,0,0,0,0,0,0,0,0,0,0,0,0,0,0,0,0,0,0,0,0],"id":39,"left_children":[1,3,5,7,9,11,13,15,17,19,21,23,25,27,29,-1,-1,-1,-1,-1,-1,-1,-1,-1,-1,-1,-1,-1,-1,-1,-1],"loss_changes":[2.6624699E1,9.127393E0,8.680255E0,1.6542149E0,3.9366372E0,4.2114315E0,3.9293332E0,2.5236387E0,5.3945255E-1,1.7776996E0,1.9631152E0,1.7700338E0,9.484825E-1,2.5905828E0,1.6180811E0,0E0,0E0,0E0,0E0,0E0,0E0,0E0,0E0,0E0,0E0,0E0,0E0,0E0,0E0,0E0,0E0],"parents":[2147483647,0,0,1,1,2,2,3,3,4,4,5,5,6,6,7,7,8,8,9,9,10,10,11,11,12,12,13,13,14,14],"right_children":[2,4,6,8,10,12,14,16,18,20,22,24,26,28,30,-1,-1,-1,-1,-1,-1,-1,-1,-1,-1,-1,-1,-1,-1,-1,-1],"split_conditions":[2E-1,-7E-1,1.3E1,4.5E1,9E0,7E-1,7.1E1,-1.1E0,-1.7E0,2E0,2.4E1,9E0,2.3E1,2.8E1,6.3E1,5.6371283E-2,1.420703E-2,-4.640205E-3,5.246346E-2,4.487234E-2,-2.3384303E-2,1.026454E-2,-4.6623427E-2,2.4115164E-3,-1.9705372E-2,-3.211988E-2,-5.2082818E-2,-2.2222493E-3,-4.2505533E-2,4.191252E-2,-1.5256136E-2],"split_indices":[2,2,5,0,5,2,0,2,2,0,4,4,4,4,1,0,0,0,0,0,0,0,0,0,0,0,0,0,0,0,0],"split_type":[0,0,0,0,0,0,0,0,0,0,0,0,0,0,0,0,0,0,0,0,0,0,0,0,0,0,0,0,0,0,0],"sum_hessian":[1.4148341E3,7.672749E2,6.4755927E2,1.2212122E2,6.451537E2,4.016802E2,2.4587903E2,7.0179474E1,5.194175E1,5.3103737E1,5.920499E2,2.2694714E2,1.7473308E2,2.1428687E2,3.1592165E1,1.9280651E1,5.0898823E1,1.5486059E0,5.0393143E1,3.2093792E0,4.989436E1,5.8689105E2,5.158858E0,4.484456E1,1.8210258E2,1.4239389E2,3.2339195E1,1.9790775E2,1.6379122E1,2.6078562E1,5.5136027E0],"tree_param":{"num_deleted":"0","num_feature":"8","num_nodes":"31","size_leaf_vector":"1"}},{"base_weights":[4.9155275E-3,4.7626253E-2,-3.6241315E-2,7.13741E-2,-1.409636E-1,-6.169637E-3,-2.5811252E-1,-1.8243648E-1,9.184254E-2,-2.1689447E-2,-3.5244876E-1,-1.3637239E-3,-4.320007E-1,-4.5815066E-2,-3.3593744E-1,-9.6201396E-4,-2.8238637E-2,1.3668518E-2,-2.974942E-3,-1.3505495E-2,6.049214E-2,-4.1537713E-2,2.3530314E-2,1.4664034E-2,-1.8586211E-3,1.28254015E-2,-5.775242E-2,2.091947E-2,-5.203553E-2,-1.5157508E-2,-4.386104E-2],"categories":[],"categories_nodes":[],"categories_segments":[],"categories_sizes":[],"default_left":[0,0,0,0,0,0,0,0,0,0,0,0,0,0,0,0,0,0,0,0,0,0,0,0,0,0,0,0,0,0,0],"id":40,"left_children":[1,3,5,7,9,11,13,15,17,19,21,23,25,27,29,-1,-1,-1,-1,-1,-1,-1,-1,-1,-1,-1,-1,-1,-1,-1,-1],"loss_changes":[2.6341302E0,3.3032718E0,5.090524E0,3.4130387E0,2.0752714E0,1.3769798E0,1.4892817E0,8.4575903E-1,3.3062387E0,3.9079177E0,1.1966512E0,1.7019457E0,6.862793E-1,3.20526E0,1.1919799E0,0E0,0E0,0E0,0E0,0E0,0E0,0E0,0E0,0E0,0E0,0E0,0E0,0E0,0E0,0E0,0E0],"parents":[2147483647,0,0,1,1,2,2,3,3,4,4,5,5,6,6,7,7,8,8,9,9,10,10,11,11,12,12,13,13,14,14],"right_children":[2,4,6,8,10,12,14,16,18,20,22,24,26,28,30,-1,-1,-1,-1,-1,-1,-1,-1,-1,-1,-1,-1,-1,-1,-1,-1],"split_conditions":[4.2E1,2.2E0,1.7E0,8E-1,5.4E1,2.7E0,2E1,4.1E1,1.7E1,5E1,3.9E1,8E0,9E0,1.7E0,1.2E1,-9.6201396E-4,-2.8238637E-2,1.3668518E-2,-2.974942E-3,-1.3505495E-2,6.049214E-2,-4.1537713E-2,2.3530314E-2,1.4664034E-2,-1.8586211E-3,1.28254015E-2,-5.775242E-2,2.091947E-2,-5.203553E-2,-1.5157508E-2,-4.386104E-2],"split_indices":[1,7,6,6,0,7,0,0,5,0,1,5,0,7,5,0,0,0,0,0,0,0,0,0,0,0,0,0,0,0,0],"split_type":[0,0,0,0,0,0,0,0,0,0,0,0,0,0,0,0,0,0,0,0,0,0,0,0,0,0,0,0,0,0,0],"sum_hessian":[1.4965233E3,7.3432086E2,7.622024E2,6.5274646E2,8.157442E1,6.721317E2,9.007068E1,4.8121563E1,6.046249E2,5.286307E1,2.8711346E1,6.6562274E2,6.5089903E0,2.4587503E1,6.548318E1,1.8034912E1,3.008665E1,4.4162952E2,1.6299535E2,4.5428658E1,7.434417E0,2.619954E1,2.511807E0,6.85983E1,5.970244E2,1.3665488E0,5.1424417E0,1.6356802E1,8.230701E0,2.4309198E1,4.117398E1],"tree_param":{"num_deleted":"0","num_feature":"8","num_nodes":"31","size_leaf_vector":"1"}},{"base_weights":[-1.3188482E-2,-1.7430404E-1,9.836181E-2,-3.439714E-2,-2.954362E-1,1.4430815E-1,-2.0349112E-1,3.4993616E-1,-6.926264E-2,-4.924086E-2,-2.633228E-1,6.99664E-2,2.3971365E-1,-3.1445312E-1,-1.1035042E-2,-5.3296544E-2,4.88883E-2,-1.2289965E-2,1.0166828E-2,-1.9925632E-2,-3.870305E-2,6.852361E-2,4.862714E-3,3.2173235E-2,1.695107E-2,-3.8523294E-2,6.856252E-2,1.4888629E-2,-2.3497809E-2],"categories":[],"categories_nodes":[],"categories_segments":[],"categories_sizes":[],"default_left":[0,0,0,0,0,0,0,0,0,0,0,0,0,0,0,0,0,0,0,0,0,0,0,0,0,0,0,0,0],"id":41,"left_children":[1,3,5,7,9,11,13,15,17,-1,19,21,23,25,27,-1,-1,-1,-1,-1,-1,-1,-1,-1,-1,-1,-1,-1,-1],"loss_changes":[2.5530481E1,9.838278E0,1.1671775E1,3.6528916E0,1.8396301E0,5.154749E0,2.3736248E0,3.043812E0,2.2963715E0,0E0,2.0614662E0,5.36578E0,1.7817879E0,5.2592998E0,1.5299666E0,0E0,0E0,0E0,0E0,0E0,0E0,0E0,0E0,0E0,0E0,0E0,0E0,0E0,0E0],"parents":[2147483647,0,0,1,1,2,2,3,3,4,4,5,5,6,6,7,7,8,8,10,10,11,11,12,12,13,13,14,14],"right_children":[2,4,6,8,10,12,14,16,18,-1,20,22,24,26,28,-1,-1,-1,-1,-1,-1,-1,-1,-1,-1,-1,-1,-1,-1],"split_conditions":[1.2E1,1.2E1,2.1E1,5E0,6E0,1.8E1,1.9E1,4E0,1.1E1,-4.924086E-2,1.9E1,3E0,1.2E1,6.3E1,1.1E0,-5.3296544E-2,4.88883E-2,-1.2289965E-2,1.0166828E-2,-1.9925632E-2,-3.870305E-2,6.852361E-2,4.862714E-3,3.2173235E-2,1.695107E-2,-3.8523294E-2,6.856252E-2,1.4888629E-2,-2.3497809E-2],"split_indices":[4,5,5,5,4,4,4,4,4,0,5,1,5,1,6,0,0,0,0,0,0,0,0,0,0,0,0,0,0],"split_type":[0,0,0,0,0,0,0,0,0,0,0,0,0,0,0,0,0,0,0,0,0,0,0,0,0,0,0,0,0],"sum_hessian":[1.4185774E3,5.801239E2,8.384535E2,2.6979562E2,3.1032825E2,7.2814185E2,1.10311676E2,2.1687775E1,2.4810786E2,4.1492764E1,2.6883548E2,4.1022232E2,3.1791953E2,6.9567894E1,4.0743786E1,2.5634227E0,1.9124352E1,1.8906233E2,5.904553E1,1.7883174E2,9.0003746E1,1.2707867E1,3.9751443E2,1.449686E2,1.7295091E2,6.554387E1,4.024022E0,2.396509E1,1.6778698E1],"tree_param":{"num_deleted":"0","num_feature":"8","num_nodes":"29","size_leaf_vector":"1"}},{"base_weights":[-5.4481695E-3,-1.6468866E-1,1.1621648E-1,-5.7491336E-2,-2.7101687E-1,4.0004277E-1,7.14839E-2,-7.030828E-4,-2.707687E-1,-2.2912247E-1,-4.667579E-1,2.4460511E-1,4.7106034E-1,1.07295334E-1,-1.8284078E-1,6.1953165E-2,-1.5493524E-3,-3.196556E-2,6.409397E-2,-3.5042476E-2,-1.7436303E-2,-4.8962962E-2,-3.106629E-2,-5.6624945E-2,2.917155E-2,5.672703E-2,2.9342264E-2,5.8204485E-3,2.8429164E-2,-2.4579683E-2,3.086789E-2],"categories":[],"categories_nodes":[],"categories_segments":[],"categories_sizes":[],"default_left":[0,0,0,0,0,0,0,0,0,0,0,0,0,0,0,0,0,0,0,0,0,0,0,0,0,0,0,0,0,0,0],"id":42,"left_children":[1,3,5,7,9,11,13,15,17,19,21,23,25,27,29,-1,-1,-1,-1,-1,-1,-1,-1,-1,-1,-1,-1,-1,-1,-1,-1],"loss_changes":[2.7374918E1,6.9597034E0,1.0141369E1,3.7060761E0,2.4102726E0,1.0862331E0,6.3329124E0,2.2356956E0,3.0727096E0,1.6314526E0,3.765011E-2,1.5485005E0,1.0918674E0,5.2684836E0,2.7348647E0,0E0,0E0,0E0,0E0,0E0,0E0,0E0,0E0,0E0,0E0,0E0,0E0,0E0,0E0,0E0,0E0],"parents":[2147483647,0,0,1,1,2,2,3,3,4,4,5,5,6,6,7,7,8,8,9,9,10,10,11,11,12,12,13,13,14,14],"right_children":[2,4,6,8,10,12,14,16,18,20,22,24,26,28,30,-1,-1,-1,-1,-1,-1,-1,-1,-1,-1,-1,-1,-1,-1,-1,-1],"split_conditions":[1.3E1,4E-1,-7E-1,2E0,1.2E0,2.1E1,7E-1,9E-1,7.9E1,8E0,6.7E1,1.5E1,2.5E1,2.2E1,7.4E1,6.1953165E-2,-1.5493524E-3,-3.196556E-2,6.409397E-2,-3.5042476E-2,-1.7436303E-2,-4.8962962E-2,-3.106629E-2,-5.6624945E-2,2.917155E-2,5.672703E-2,2.9342264E-2,5.8204485E-3,2.8429164E-2,-2.4579683E-2,3.086789E-2],"split_indices":[5,2,2,7,2,0,2,7,0,5,1,5,5,5,1,0,0,0,0,0,0,0,0,0,0,0,0,0,0,0,0],"split_type":[0,0,0,0,0,0,0,0,0,0,0,0,0,0,0,0,0,0,0,0,0,0,0,0,0,0,0,0,0,0,0],"sum_hessian":[1.4109885E3,6.1096924E2,8.000193E2,3.050084E2,3.0596085E2,1.0783947E2,6.921798E2,2.4166484E2,6.3343548E1,2.5380878E2,5.215206E1,3.5212784E1,7.2626686E1,6.07251E2,8.492882E1,4.676332E0,2.3698851E2,6.0736187E1,2.6073582E0,7.726133E1,1.7654745E2,4.3623436E1,8.528628E0,1.3284335E0,3.388435E1,4.5688194E1,2.693849E1,4.7643744E2,1.3081357E2,7.5729034E1,9.19979E0],"tree_param":{"num_deleted":"0","num_feature":"8","num_nodes":"31","size_leaf_vector":"1"}},{"base_weights":[9.922403E-3,1.2753496E-2,-4.5745498E-1,1.7444106E-2,-2.5069612E-1,-5.8876067E-2,2.72187E-2,2.1767917E-3,1.8500385E-1,-3.4104145E-1,2.072606E-1,9.843801E-4,-4.376494E-2,2.3501046E-2,-2.1699069E-2,-5.7362314E-2,-9.429148E-3,5.452623E-2,-4.0748652E-2],"categories":[],"categories_nodes":[],"categories_segments":[],"categories_sizes":[],"default_left":[0,0,0,0,0,0,0,0,0,0,0,0,0,0,0,0,0,0,0],"id":43,"left_children":[1,3,5,7,9,-1,-1,11,13,15,17,-1,-1,-1,-1,-1,-1,-1,-1],"loss_changes":[1.9571288E0,1.816936E0,1.0135156E0,3.6886582E0,1.1349834E0,0E0,0E0,4.4644876E0,2.4715257E0,1.2006266E0,1.232142E0,0E0,0E0,0E0,0E0,0E0,0E0,0E0,0E0],"parents":[2147483647,0,0,1,1,2,2,3,3,4,4,7,7,8,8,9,9,10,10],"right_children":[2,4,6,8,10,-1,-1,12,14,16,18,-1,-1,-1,-1,-1,-1,-1,-1],"split_conditions":[2.8E0,7.9E1,-1E-1,7.2E1,3E-1,-5.8876067E-2,2.72187E-2,7.1E1,6.7E1,1.5E1,5.6E1,9.843801E-4,-4.376494E-2,2.3501046E-2,-2.1699069E-2,-5.7362314E-2,-9.429148E-3,5.452623E-2,-4.0748652E-2],"split_indices":[6,0,2,0,2,0,0,0,1,5,1,0,0,0,0,0,0,0,0],"split_type":[0,0,0,0,0,0,0,0,0,0,0,0,0,0,0,0,0,0,0],"sum_hessian":[1.4736908E3,1.4657847E3,7.9061365E0,1.4410609E3,2.4723694E1,6.863983E0,1.0421529E0,1.3216509E3,1.1941008E2,2.0863129E1,3.8605645E0,1.2999675E3,2.1683296E1,1.0656871E2,1.2841363E1,1.005797E1,1.080516E1,2.5639033E0,1.2966611E0],"tree_param":{"num_deleted":"0","num_feature":"8","num_nodes":"19","size_leaf_vector":"1"}},{"base_weights":[-2.2308333E-2,-1.488186E-1,1.2936798E-1,-2.882007E-1,-7.465969E-2,3.8068403E-2,2.9033932E-1,-4.1714066E-1,-1.9735089E-1,1.2957934E-2,-2.023767E-1,-1.5462129E-3,2.1041188E-1,4.0448895E-1,1.8296237E-1,-1.8587405E-3,-4.4797067E-2,-9.64446E-3,-3.061263E-2,2.27774E-2,-3.262128E-3,-2.4290485E-2,1.1594833E-3,-7.4959784E-3,8.738997E-3,-3.8285695E-2,2.4573991E-2,6.9952674E-2,3.579663E-2,2.2336384E-2,-2.449861E-2],"categories":[],"categories_nodes":[],"categories_segments":[],"categories_sizes":[],"default_left":[0,0,0,0,0,0,0,0,0,0,0,0,0,0,0,0,0,0,0,0,0,0,0,0,0,0,0,0,0,0,0],"id":44,"left_children":[1,3,5,7,9,11,13,15,17,19,21,23,25,27,29,-1,-1,-1,-1,-1,-1,-1,-1,-1,-1,-1,-1,-1,-1,-1,-1],"loss_changes":[2.687642E1,7.8713207E0,9.351374E0,3.0199738E0,5.595086E0,2.783437E0,2.7500553E0,1.3257217E0,1.6966081E0,2.9188595E0,1.7667475E0,2.1771457E0,1.6910591E0,1.2711601E0,2.1389918E0,0E0,0E0,0E0,0E0,0E0,0E0,0E0,0E0,0E0,0E0,0E0,0E0,0E0,0E0,0E0,0E0],"parents":[2147483647,0,0,1,1,2,2,3,3,4,4,5,5,6,6,7,7,8,8,9,9,10,10,11,11,12,12,13,13,14,14],"right_children":[2,4,6,8,10,12,14,16,18,20,22,24,26,28,30,-1,-1,-1,-1,-1,-1,-1,-1,-1,-1,-1,-1,-1,-1,-1,-1],"split_conditions":[4E-1,-2E-1,1.8E0,1.2E0,1.4E0,1.2E0,1.2E0,6E0,1.5E0,9E-1,2E0,1.5E0,9E-1,5E0,1.4E0,-1.8587405E-3,-4.4797067E-2,-9.64446E-3,-3.061263E-2,2.27774E-2,-3.262128E-3,-2.4290485E-2,1.1594833E-3,-7.4959784E-3,8.738997E-3,-3.8285695E-2,2.4573991E-2,6.9952674E-2,3.579663E-2,2.2336384E-2,-2.449861E-2],"split_indices":[2,2,7,7,6,2,6,1,6,6,7,7,7,5,2,0,0,0,0,0,0,0,0,0,0,0,0,0,0,0,0],"split_type":[0,0,0,0,0,0,0,0,0,0,0,0,0,0,0,0,0,0,0,0,0,0,0,0,0,0,0,0,0,0,0],"sum_hessian":[1.3986411E3,7.625946E2,6.360465E2,2.638329E2,4.9876172E2,4.0664334E2,2.2940314E2,1.0757042E2,1.5626247E2,2.963532E2,2.024085E2,3.3144818E2,7.519516E1,1.09853615E2,1.19549515E2,7.8387175E0,9.9731705E1,8.204213E1,7.422034E1,5.1173553E1,2.4517967E2,1.70062E2,3.2346504E1,1.8165541E2,1.4979277E2,3.6732101E0,7.152195E1,1.305091E1,9.6802704E1,1.09673584E2,9.875931E0],"tree_param":{"num_deleted":"0","num_feature":"8","num_nodes":"31","size_leaf_vector":"1"}},{"base_weights":[5.652157E-4,5.4649815E-2,-2.5114843E-1,-3.6481656E-2,1.4943267E-1,-4.3393618E-1,-1.9328402E-1,-3.4546798E-1,-9.427853E-4,1.288972E-1,6.128469E-1,-4.9799708E-1,-1.5920147E-1,-2.934906E-1,-4.5088455E-2,-4.515204E-2,-6.601918E-3,-2.8237065E-2,1.9368584E-3,1.9016607E-2,5.521855E-3,6.865131E-2,1.0885324E-2,-4.767522E-3,-5.1538613E-2,-4.9645364E-2,5.3998637E-3,-4.096764E-2,-2.0719068E-3,2.1499459E-2,-2.3858977E-2],"categories":[],"categories_nodes":[],"categories_segments":[],"categories_sizes":[],"default_left":[0,0,0,0,0,0,0,0,0,0,0,0,0,0,0,0,0,0,0,0,0,0,0,0,0,0,0,0,0,0,0],"id":45,"left_children":[1,3,5,7,9,11,13,15,17,19,21,23,25,27,29,-1,-1,-1,-1,-1,-1,-1,-1,-1,-1,-1,-1,-1,-1,-1,-1],"loss_changes":[1.917726E1,1.0020959E1,2.5512695E0,6.499843E0,5.3317156E0,9.60906E-1,2.8237247E0,1.7797294E0,3.045835E0,2.4529257E0,8.1111336E-1,3.4704876E-1,9.3602794E-1,3.597806E0,3.989207E0,0E0,0E0,0E0,0E0,0E0,0E0,0E0,0E0,0E0,0E0,0E0,0E0,0E0,0E0,0E0,0E0],"parents":[2147483647,0,0,1,1,2,2,3,3,4,4,5,5,6,6,7,7,8,8,9,9,10,10,11,11,12,12,13,13,14,14],"right_children":[2,4,6,8,10,12,14,16,18,20,22,24,26,28,30,-1,-1,-1,-1,-1,-1,-1,-1,-1,-1,-1,-1,-1,-1,-1,-1],"split_conditions":[7E-1,1.5E1,8E0,1E0,2E0,1.5E0,1.2E0,1.3E1,6E0,1.2E0,1.8E0,1E1,2.4E1,5.9E1,1.5E0,-4.515204E-2,-6.601918E-3,-2.8237065E-2,1.9368584E-3,1.9016607E-2,5.521855E-3,6.865131E-2,1.0885324E-2,-4.767522E-3,-5.1538613E-2,-4.9645364E-2,5.3998637E-3,-4.096764E-2,-2.0719068E-3,2.1499459E-2,-2.3858977E-2],"split_indices":[2,5,5,6,6,6,6,5,5,7,7,4,0,0,7,0,0,0,0,0,0,0,0,0,0,0,0,0,0,0,0],"split_type":[0,0,0,0,0,0,0,0,0,0,0,0,0,0,0,0,0,0,0,0,0,0,0,0,0,0,0,0,0,0,0],"sum_hessian":[1.4066516E3,1.1585105E3,2.4814113E2,5.909455E2,5.6756494E2,5.8102413E1,1.9003873E2,6.0058327E1,5.308872E2,5.447053E2,2.2859623E1,4.6457176E1,1.1645234E1,1.1279131E2,7.724741E1,4.3089764E1,1.6968561E1,3.486781E1,4.9601938E2,2.9653506E2,2.4817027E2,1.9628483E1,3.231141E0,1.8663459E0,4.459083E1,3.9958262E0,7.649408E0,7.874733E1,3.4043983E1,3.2906742E1,4.434067E1],"tree_param":{"num_deleted":"0","num_feature":"8","num_nodes":"31","size_leaf_vector":"1"}},{"base_weights":[7.6282085E-3,3.4770682E-2,-9.504309E-2,8.9524865E-2,-2.1671178E-2,3.3323565E-1,-1.0960164E-1,6.8800524E-2,4.174188E-1,-3.9810497E-2,3.0253318E-1,-4.996992E-2,6.1025196E-1,-4.420964E-1,-7.805597E-2,7.976244E-3,-3.373181E-2,6.930562E-2,8.2571525E-3,5.717998E-3,-1.0102145E-2,4.6433765E-2,-2.9138127E-2,1.0890384E-1,-1.1614251E-3,-5.6723397E-2,-1.9659607E-2,-2.0660048E-3,-1.5366958E-2],"categories":[],"categories_nodes":[],"categories_segments":[],"categories_sizes":[],"default_left":[0,0,0,0,0,0,0,0,0,0,0,0,0,0,0,0,0,0,0,0,0,0,0,0,0,0,0,0,0],"id":46,"left_children":[1,3,5,7,9,11,13,15,17,19,21,-1,23,25,27,-1,-1,-1,-1,-1,-1,-1,-1,-1,-1,-1,-1,-1,-1],"loss_changes":[4.1016135E0,3.5988235E0,1.9554455E0,3.9871278E0,3.387133E0,2.6965983E0,3.09529E0,2.5067227E0,3.167045E0,3.2377343E0,3.0687315E0,0E0,2.462636E0,6.762657E-1,1.1848869E0,0E0,0E0,0E0,0E0,0E0,0E0,0E0,0E0,0E0,0E0,0E0,0E0,0E0,0E0],"parents":[2147483647,0,0,1,1,2,2,3,3,4,4,5,5,6,6,7,7,8,8,9,9,10,10,12,12,13,13,14,14],"right_children":[2,4,6,8,10,12,14,16,18,20,22,-1,24,26,28,-1,-1,-1,-1,-1,-1,-1,-1,-1,-1,-1,-1,-1,-1],"split_conditions":[1.8E1,4.4E1,8E-1,9E-1,1.7E1,-1E-1,7E0,7.9E1,1.7E0,2.8E1,7E-1,-4.996992E-2,4.1E1,1.2E0,1.6E0,7.976244E-3,-3.373181E-2,6.930562E-2,8.2571525E-3,5.717998E-3,-1.0102145E-2,4.6433765E-2,-2.9138127E-2,1.0890384E-1,-1.1614251E-3,-5.6723397E-2,-1.9659607E-2,-2.0660048E-3,-1.5366958E-2],"split_indices":[4,1,7,2,4,2,1,0,7,0,2,0,0,2,7,0,0,0,0,0,0,0,0,0,0,0,0,0,0],"split_type":[0,0,0,0,0,0,0,0,0,0,0,0,0,0,0,0,0,0,0,0,0,0,0,0,0,0,0,0,0],"sum_hessian":[1.4696393E3,1.1628788E3,3.0676056E2,5.899667E2,5.729121E2,9.365311E0,2.9739523E2,5.560328E2,3.3933884E1,5.4338666E2,2.952542E1,2.1367257E0,7.228585E0,2.464281E1,2.7275244E2,5.4220135E2,1.3831436E1,1.802578E1,1.5908106E1,2.1027148E2,3.331152E2,2.3375292E1,6.150128E0,3.659684E0,3.5689008E0,1.5454666E1,9.188144E0,1.5577882E2,1.169736E2],"tree_param":{"num_deleted":"0","num_feature":"8","num_nodes":"29","size_leaf_vector":"1"}},{"base_weights":[-1.1037744E-3,-1.1506868E-1,1.4237371E-1,-1.4186448E-2,-2.7281353E-1,-1.0226297E-1,2.3120369E-1,-1.2229141E-1,7.8558676E-2,-4.467142E-1,-2.1959358E-1,-4.068074E-1,-5.571242E-2,1.6904148E-1,3.312448E-1,-1.7200861E-2,8.375532E-3,-1.5843984E-3,1.7482037E-2,-4.797132E-2,-2.4250424E-2,-2.9918468E-2,-7.881976E-3,-2.2627521E-2,-5.06994E-2,-2.6504356E-2,4.108555E-5,1.3370315E-2,3.7087724E-2,6.6085085E-2,3.0927861E-2],"categories":[],"categories_nodes":[],"categories_segments":[],"categories_sizes":[],"default_left":[0,0,0,0,0,0,0,0,0,0,0,0,0,0,0,0,0,0,0,0,0,0,0,0,0,0,0,0,0,0,0],"id":47,"left_children":[1,3,5,7,9,11,13,15,17,19,21,23,25,27,29,-1,-1,-1,-1,-1,-1,-1,-1,-1,-1,-1,-1,-1,-1,-1,-1],"loss_changes":[2.2903019E1,1.24186125E1,1.3498138E1,4.7938976E0,2.7194881E0,2.3287716E0,2.7747326E0,2.2756243E0,2.342256E0,3.5787678E-1,2.6102095E0,2.8017044E-1,1.704009E0,1.9674034E0,1.0510883E0,0E0,0E0,0E0,0E0,0E0,0E0,0E0,0E0,0E0,0E0,0E0,0E0,0E0,0E0,0E0,0E0],"parents":[2147483647,0,0,1,1,2,2,3,3,4,4,5,5,6,6,7,7,8,8,9,9,10,10,11,11,12,12,13,13,14,14],"right_children":[2,4,6,8,10,12,14,16,18,20,22,24,26,28,30,-1,-1,-1,-1,-1,-1,-1,-1,-1,-1,-1,-1,-1,-1,-1,-1],"split_conditions":[1.4E1,1.4E1,1.3E0,1E1,8E0,-3E-1,1.8E0,2.1E0,1.7E0,1.7E0,1.4E0,4.1E1,9E-1,2.5E1,3E0,-1.7200861E-2,8.375532E-3,-1.5843984E-3,1.7482037E-2,-4.797132E-2,-2.4250424E-2,-2.9918468E-2,-7.881976E-3,-2.2627521E-2,-5.06994E-2,-2.6504356E-2,4.108555E-5,1.3370315E-2,3.7087724E-2,6.6085085E-2,3.0927861E-2],"split_indices":[4,5,7,4,4,2,7,7,7,7,7,1,7,4,1,0,0,0,0,0,0,0,0,0,0,0,0,0,0,0,0],"split_type":[0,0,0,0,0,0,0,0,0,0,0,0,0,0,0,0,0,0,0,0,0,0,0,0,0,0,0,0,0,0,0],"sum_hessian":[1.3986744E3,7.796179E2,6.190566E2,4.7617844E2,3.0343948E2,1.648661E2,4.5419043E2,2.1973445E2,2.56444E2,6.93708E1,2.3406868E2,2.083297E1,1.4403314E2,2.8178708E2,1.7240337E2,1.77154E2,4.2580452E1,1.2989397E2,1.26550026E2,5.8558933E1,1.0811862E1,1.4880922E2,8.525946E1,8.598096E0,1.2234875E1,2.9664948E1,1.14368195E2,2.4121625E2,4.0570835E1,8.954527E0,1.6344884E2],"tree_param":{"num_deleted":"0","num_feature":"8","num_nodes":"31","size_leaf_vector":"1"}},{"base_weights":[-1.4396902E-2,7.2561376E-2,-1.9668542E-1,3.1184518E-1,3.6661185E-2,-1.531459E-1,-4.286887E-1,2.6136655E-1,4.9645177E-1,1.0824179E-1,-2.1418085E-2,-2.751153E-2,-2.0875993E-1,-5.626278E-2,-3.7335017E-1,1.767157E-2,5.1664956E-2,6.0135882E-2,2.0855125E-3,1.3399633E-2,-2.137666E-2,-3.890901E-3,3.0748714E-2,8.33219E-2,-4.5166737E-3,-2.2889495E-2,-1.5056857E-4,