{"learner":{"attributes":{},"feature_names":["home_team_enc","away_team_enc","goal_diff","home_advantage","home_form","away_form","home_conceded","away_conceded"],"feature_types":["int","int","float","int","int","int","float","float"],"gradient_booster":{"model":{"gbtree_model_param":{"num_parallel_tree":"1","num_trees":"300"},"iteration_indptr":[0,3,6,9,12,15,18,21,24,27,30,33,36,39,42,45,48,51,54,57,60,63,66,69,72,75,78,81,84,87,90,93,96,99,102,105,108,111,114,117,120,123,126,129,132,135,138,141,144,147,150,153,156,159,162,165,168,171,174,177,180,183,186,189,192,195,198,201,204,207,210,213,216,219,222,225,228,231,234,237,240,243,246,249,252,255,258,261,264,267,270,273,276,279,282,285,288,291,294,297,300],"tree_info":[0,1,2,0,1,2,0,1,2,0,1,2,0,1,2,0,1,2,0,1,2,0,1,2,0,1,2,0,1,2,0,1,2,0,1,2,0,1,2,0,1,2,0,1,2,0,1,2,0,1,2,0,1,2,0,1,2,0,1,2,0,1,2,0,1,2,0,1,2,0,1,2,0,1,2,0,1,2,0,1,2,0,1,2,0,1,2,0,1,2,0,1,2,0,1,2,0,1,2,0,1,2,0,1,2,0,1,2,0,1,2,0,1,2,0,1,2,0,1,2,0,1,2,0,1,2,0,1,2,0,1,2,0,1,2,0,1,2,0,1,2,0,1,2,0,1,2,0,1,2,0,1,2,0,1,2,0,1,2,0,1,2,0,1,2,0,1,2,0,1,2,0,1,2,0,1,2,0,1,2,0,1,2,0,1,2,0,1,2,0,1,2,0,1,2,0,1,2,0,1,2,0,1,2,0,1,2,0,1,2,0,1,2,0,1,2,0,1,2,0,1,2,0,1,2,0,1,2,0,1,2,0,1,2,0,1,2,0,1,2,0,1,2,0,1,2,0,1,2,0,1,2,0,1,2,0,1,2,0,1,2,0,1,2,0,1,2,0,1,2,0,1,2,0,1,2,0,1,2,0,1,2,0,1,2,0,1,2,0,1,2,0,1,2,0,1,2,0,1,2],"trees":[{"base_weights":[-2.1533256E-2,4.6616274E-1,-2.666785E-1,9.8323554E-1,3.2830185E-1,-1.1306214E-1,-5.151586E-1,2.222222E-1,1.0303301E0,-7.8843676E-2,4.100719E-1,-2.2040333E-1,1.5561093E-1,-5.7822937E-1,-2.6440683E-1,-4.2857146E-1,2.8536585E-1,9.5468915E-1,4.1270718E-1,-2.5586358E-1,1.9933552E-1,1.7996041E-1,5.639198E-1,-2.9130548E-1,7.3394455E-2,-2.0245403E-1,2.6950815E-1,-5.002734E-1,-6.627693E-1,-4.5148522E-1,-1.5424209E-2,-7.663455E-9,-1.7027028E-1,4.658385E-1,1.04266E0,-3.3407578E-1,3.1034482E-1,4.817518E-1,-3.4682125E-2,5.809018E-1,4.6997346E-2,4.827195E-1,8.4662575E-1,-5.320601E-1,-2.3724726E-1,-2.1509439E-1,1.77931E-1,-8.310254E-2,-5.036497E-1,4.130688E-1,8.4194936E-2,-6.291162E-1,-4.3774787E-1,-2.0845853E-1,-5.3658545E-1,-5.2655894E-1,-3.973643E-8,1.318681E-1,-3.3600006E-1,-6.206898E-2,1.7234042E-1,2.1176471E-1,3.3215928E-1,-2.0224722E-1,-7.317075E-2,-9.729732E-2,2.146789E-1,-6.644297E-2,2.4545455E-1,-8.181819E-2,1.9376771E-1,2.272316E-2,-1.836735E-1,1.6673684E-1,5.157592E-2,3.1034475E-2,2.628998E-1,-1.816514E-1,-9.137058E-2,-4.1750148E-2,-1.0989476E-1,-1.1612905E-1,1.4210527E-1,-5.7600018E-2,7.536945E-2,-4.1260764E-2,2.5714284E-1,-1.8000004E-1,-4.3902453E-2,9.2580095E-2,1.8791209E-1,5.7233577E-3,2.3684211E-1,-2.0322584E-1,-1.1900829E-1,-1.5017505E-1,-8.934626E-2,-3.333335E-2,-1.9090912E-1,3.1034475E-2,-1.6779664E-1,-6.923079E-2,1.7999999E-1,2.5714284E-1,2.0689642E-2,-1.3539825E-1,1.2857142E-1],"categories":[],"categories_nodes":[],"categories_segments":[],"categories_sizes":[],"default_left":[0,0,0,0,0,0,0,0,0,0,0,0,0,0,0,0,0,0,0,0,0,0,0,0,0,0,0,0,0,0,0,0,0,0,0,0,0,0,0,0,0,0,0,0,0,0,0,0,0,0,0,0,0,0,0,0,0,0,0,0,0,0,0,0,0,0,0,0,0,0,0,0,0,0,0,0,0,0,0,0,0,0,0,0,0,0,0,0,0,0,0,0,0,0,0,0,0,0,0,0,0,0,0,0,0,0,0],"id":0,"left_children":[1,3,5,7,9,11,13,15,17,19,21,23,25,27,29,31,-1,33,-1,35,37,39,41,43,45,47,49,51,53,55,57,-1,-1,59,61,63,-1,65,67,69,71,73,75,77,79,81,83,85,87,89,91,93,95,-1,97,99,101,103,105,-1,-1,-1,-1,-1,-1,-1,-1,-1,-1,-1,-1,-1,-1,-1,-1,-1,-1,-1,-1,-1,-1,-1,-1,-1,-1,-1,-1,-1,-1,-1,-1,-1,-1,-1,-1,-1,-1,-1,-1,-1,-1,-1,-1,-1,-1,-1,-1],"loss_changes":[2.2591312E2,4.4736694E1,4.7939163E1,4.521759E0,1.6696987E1,2.2481184E1,7.440117E0,4.6775064E0,1.9404602E0,4.2147937E0,1.4661217E1,1.1614929E1,9.140022E0,2.1910858E0,4.573331E0,3.2432437E-1,0E0,4.0488815E0,0E0,5.6046906E0,2.2270641E0,8.958462E0,5.3175125E0,5.7116165E0,3.3254533E0,1.9113278E0,4.473068E0,1.3617592E0,3.583145E-1,1.9018669E0,2.0851898E0,0E0,0E0,1.4261558E0,1.1431885E0,1.3654776E0,0E0,3.1014209E0,3.2435048E0,2.5000563E0,2.465775E0,4.3581543E0,1.1088829E0,1.1763592E0,4.608961E0,3.671692E0,2.2325904E0,2.1708019E0,4.3624735E-1,1.9285965E0,3.439571E0,4.5102882E-1,1.0828285E0,0E0,1.6698675E0,1.0509233E0,1.3846154E0,1.3247442E0,1.4180936E0,0E0,0E0,0E0,0E0,0E0,0E0,0E0,0E0,0E0,0E0,0E0,0E0,0E0,0E0,0E0,0E0,0E0,0E0,0E0,0E0,0E0,0E0,0E0,0E0,0E0,0E0,0E0,0E0,0E0,0E0,0E0,0E0,0E0,0E0,0E0,0E0,0E0,0E0,0E0,0E0,0E0,0E0,0E0,0E0,0E0,0E0,0E0,0E0],"parents":[2147483647,0,0,1,1,2,2,3,3,4,4,5,5,6,6,7,7,8,8,9,9,10,10,11,11,12,12,13,13,14,14,15,15,17,17,19,19,20,20,21,21,22,22,23,23,24,24,25,25,26,26,27,27,28,28,29,29,30,30,33,33,34,34,35,35,37,37,38,38,39,39,40,40,41,41,42,42,43,43,44,44,45,45,46,46,47,47,48,48,49,49,50,50,51,51,52,52,54,54,55,55,56,56,57,57,58,58],"right_children":[2,4,6,8,10,12,14,16,18,20,22,24,26,28,30,32,-1,34,-1,36,38,40,42,44,46,48,50,52,54,56,58,-1,-1,60,62,64,-1,66,68,70,72,74,76,78,80,82,84,86,88,90,92,94,96,-1,98,100,102,104,106,-1,-1,-1,-1,-1,-1,-1,-1,-1,-1,-1,-1,-1,-1,-1,-1,-1,-1,-1,-1,-1,-1,-1,-1,-1,-1,-1,-1,-1,-1,-1,-1,-1,-1,-1,-1,-1,-1,-1,-1,-1,-1,-1,-1,-1,-1,-1,-1],"split_conditions":[0E0,-7E-1,7E-1,9E-1,1.1E1,1.5E1,1.4E1,1.4E1,2.1E0,4.2E1,1.3E0,1.6E0,1E0,1.1E0,1E0,2.3E1,2.8536585E-1,1.8E1,4.1270718E-1,7.8E1,6.5E1,1E0,1.8E0,1E0,8E0,5.9E1,1.3E0,8E0,1.3E0,6.2E1,1.1E0,-7.663455E-9,-1.7027028E-1,-1E0,1E1,1.1E0,3.1034482E-1,-3E-1,2.1E0,1.7E1,2E1,1.7E0,1.2E1,1.3E1,4E-1,2.1E0,1.3E1,5.4E1,2.5E1,2E1,1.8E0,6.6E1,6E1,-2.0845853E-1,1.5E0,5E0,1.9E1,6E0,7.2E1,-6.206898E-2,1.7234042E-1,2.1176471E-1,3.3215928E-1,-2.0224722E-1,-7.317075E-2,-9.729732E-2,2.146789E-1,-6.644297E-2,2.4545455E-1,-8.181819E-2,1.9376771E-1,2.272316E-2,-1.836735E-1,1.6673684E-1,5.157592E-2,3.1034475E-2,2.628998E-1,-1.816514E-1,-9.137058E-2,-4.1750148E-2,-1.0989476E-1,-1.1612905E-1,1.4210527E-1,-5.7600018E-2,7.536945E-2,-4.1260764E-2,2.5714284E-1,-1.8000004E-1,-4.3902453E-2,9.2580095E-2,1.8791209E-1,5.7233577E-3,2.3684211E-1,-2.0322584E-1,-1.1900829E-1,-1.5017505E-1,-8.934626E-2,-3.333335E-2,-1.9090912E-1,3.1034475E-2,-1.6779664E-1,-6.923079E-2,1.7999999E-1,2.5714284E-1,2.0689642E-2,-1.3539825E-1,1.2857142E-1],"split_indices":[2,2,2,6,5,5,5,4,6,1,6,6,6,2,6,5,0,5,0,0,1,7,6,6,5,0,7,5,6,0,2,0,0,2,1,6,0,2,6,5,4,7,5,5,2,6,1,0,5,5,6,0,0,0,7,0,5,1,1,0,0,0,0,0,0,0,0,0,0,0,0,0,0,0,0,0,0,0,0,0,0,0,0,0,0,0,0,0,0,0,0,0,0,0,0,0,0,0,0,0,0,0,0,0,0,0,0],"split_type":[0,0,0,0,0,0,0,0,0,0,0,0,0,0,0,0,0,0,0,0,0,0,0,0,0,0,0,0,0,0,0,0,0,0,0,0,0,0,0,0,0,0,0,0,0,0,0,0,0,0,0,0,0,0,0,0,0,0,0,0,0,0,0,0,0,0,0,0,0,0,0,0,0,0,0,0,0,0,0,0,0,0,0,0,0,0,0,0,0,0,0,0,0,0,0,0,0,0,0,0,0,0,0,0,0,0,0],"sum_hessian":[1.8875554E3,6.311111E2,1.2564443E3,1.3155554E2,4.995555E2,7.773333E2,4.7911108E2,7.9999995E0,1.2355555E2,8.355555E1,4.1599997E2,5.5555554E2,2.2177777E2,3.8177774E2,9.733333E1,4.444444E0,3.5555553E0,1.04444435E2,1.911111E1,5.1111107E1,3.2444443E1,1.6755554E2,2.4844443E2,4.4755554E2,1.0799999E2,5.333333E1,1.6844443E2,2.0222221E2,1.7955554E2,5.5111107E1,4.222222E1,1.3333333E0,3.111111E0,1.6888887E1,8.755555E1,4.8888885E1,2.222222E0,1.4222221E1,1.8222221E1,4.0888885E1,1.2666666E2,1.951111E2,5.333333E1,8.044444E1,3.6711108E2,2.8444443E1,7.955555E1,3.9111107E1,1.4222221E1,9.422221E1,7.422222E1,6.3111107E1,1.391111E2,1.3955554E2,3.9999996E1,4.7111107E1,7.9999995E0,2.9333332E1,1.2888888E1,2.222222E0,1.4666666E1,1.5999999E1,7.155555E1,8.888888E0,3.9999996E1,3.111111E0,1.1111111E1,1.5555554E1,2.6666665E0,2.6666665E0,3.822222E1,1.2222221E2,4.444444E0,1.5733333E2,3.7777775E1,2.222222E0,5.1111107E1,5.9555553E1,2.0888887E1,2.0977777E2,1.5733333E2,2.311111E1,5.333333E0,1.2888888E1,6.6666664E1,3.7777775E1,1.3333333E0,1.0666666E1,3.5555553E0,6.4888885E1,2.9333332E1,6.8888885E1,5.333333E0,5.0666664E1,1.2444444E1,9.422221E1,4.4888885E1,7.9999995E0,3.1999998E1,2.222222E0,4.4888885E1,6.222222E0,1.7777777E0,1.3333333E0,2.7999998E1,1.1555555E1,1.3333333E0],"tree_param":{"num_deleted":"0","num_feature":"8","num_nodes":"107","size_leaf_vector":"1"}},{"base_weights":[-1.8197334E-1,-1.2253031E-1,-3.6277083E-1,-8.684868E-2,-3.2281435E-1,-2.7112523E-1,-4.626941E-1,-4.6381753E-2,-1.8415289E-1,6.885242E-2,-3.940135E-1,-2.927178E-1,1.239669E-1,-3.4782615E-1,-5.1119137E-1,2.014134E-1,-7.700165E-2,-2.6865717E-2,-2.5534827E-1,-2.068966E-1,3.0177513E-1,-2.8089893E-1,-4.970415E-1,-5.414635E-1,-2.64567E-1,3.8961035E-1,-2.8301892E-1,-4.3708614E-1,-1.01694964E-1,-5.221306E-1,-1.9672136E-1,-8.713698E-2,3.111831E-1,-3.5294122E-1,-6.477122E-2,-3.2530126E-1,7.0588194E-2,-1.61782E-1,-3.1263864E-1,-1.8679248E-1,2.970293E-2,-3.529416E-2,5.8064514E-1,3.0612242E-1,-3.1537455E-1,-5.946903E-1,-2.906575E-1,-5.7512957E-1,-7.663455E-9,2.970293E-2,-2.7964705E-1,-3.2432437E-1,8.5714287E-1,3.1034475E-2,-1.6363637E-1,-3.388705E-1,-5.9627336E-1,3.934426E-1,-3.3600006E-1,-4.8837215E-1,-2.1381217E-1,-4.0000004E-1,7.2E-2,-7.461142E-2,1.4210527E-1,1.776824E-1,4.1221365E-2,-5.373136E-2,-2.0412374E-1,6.1960804E-4,-3.5207838E-2,-3.284673E-2,-1.6363639E-1,5.7525765E-2,-4.0484447E-2,-1.8461553E-2,-1.10469334E-1,-1.598131E-1,-7.26225E-2,-1.5517244E-1,6.666666E-2,9.473684E-2,-1.7027028E-1,2.8421053E-1,-1.07288365E-8,1.9459459E-1,-1.2857145E-1,-1.0656208E-1,3.9130427E-2,-1.9272353E-1,-8.7096795E-2,-2.7950324E-2,-1.5109491E-1,-1.9328861E-1,-8.490568E-2,1.1886792E-1,-9.473686E-2,8.9108795E-3,-8.890182E-2,-1.4400001E-1,-7.663455E-9,3.4054056E-1,-7.663455E-9,-4.285716E-2,-1.8595044E-1,-2.0769234E-1,-8.490568E-2,-4.3902453E-2,3.1034482E-1,-3.333335E-2,-1.8679248E-1,-1.304507E-1,-1.8051578E-1,-1.6363637E-1,-7.663455E-9],"categories":[],"categories_nodes":[],"categories_segments":[],"categories_sizes":[],"default_left":[0,0,0,0,0,0,0,0,0,0,0,0,0,0,0,0,0,0,0,0,0,0,0,0,0,0,0,0,0,0,0,0,0,0,0,0,0,0,0,0,0,0,0,0,0,0,0,0,0,0,0,0,0,0,0,0,0,0,0,0,0,0,0,0,0,0,0,0,0,0,0,0,0,0,0,0,0,0,0,0,0,0,0,0,0,0,0,0,0,0,0,0,0,0,0,0,0,0,0,0,0,0,0,0,0,0,0,0,0,0,0,0,0,0,0],"id":1,"left_children":[1,3,5,7,9,11,13,15,17,19,21,23,25,27,29,31,33,35,37,39,41,43,45,47,49,51,53,55,57,59,61,63,65,67,69,71,73,75,77,-1,79,81,83,85,87,89,91,93,-1,95,97,99,101,-1,-1,103,105,107,109,111,-1,113,-1,-1,-1,-1,-1,-1,-1,-1,-1,-1,-1,-1,-1,-1,-1,-1,-1,-1,-1,-1,-1,-1,-1,-1,-1,-1,-1,-1,-1,-1,-1,-1,-1,-1,-1,-1,-1,-1,-1,-1,-1,-1,-1,-1,-1,-1,-1,-1,-1,-1,-1,-1,-1],"loss_changes":[2.0252136E1,1.0139788E1,4.149086E0,4.752019E0,6.0164948E0,2.1339817E0,1.0582886E0,6.5044746E0,3.9659824E0,2.2390585E0,1.9801102E0,1.491415E0,1.5637878E0,1.4714565E0,4.266739E-1,3.0150385E0,2.548408E0,3.2706432E0,1.2579651E0,1.6032649E0,1.7855763E0,1.8977189E0,1.719307E0,4.152155E-1,9.476013E-1,3.1337314E0,6.536937E-1,5.8488655E-1,2.4137902E0,6.048126E-1,6.9770485E-1,2.544158E0,3.2673984E0,1.706109E0,2.5687935E0,1.2547705E0,2.142689E0,1.9387829E0,2.2055798E0,0E0,1.2966124E0,1.9441385E0,2.20034E0,1.6480972E0,1.5478373E0,7.2532845E-1,1.3037906E0,2.5091648E-1,0E0,1.5462064E0,1.0490141E0,2.0756751E-1,1.2972972E0,0E0,0E0,1.753329E0,3.4221888E-1,2.4966567E0,8.2613003E-1,5.211525E-1,0E0,2.9090917E-1,0E0,0E0,0E0,0E0,0E0,0E0,0E0,0E0,0E0,0E0,0E0,0E0,0E0,0E0,0E0,0E0,0E0,0E0,0E0,0E0,0E0,0E0,0E0,0E0,0E0,0E0,0E0,0E0,0E0,0E0,0E0,0E0,0E0,0E0,0E0,0E0,0E0,0E0,0E0,0E0,0E0,0E0,0E0,0E0,0E0,0E0,0E0,0E0,0E0,0E0,0E0,0E0,0E0],"parents":[2147483647,0,0,1,1,2,2,3,3,4,4,5,5,6,6,7,7,8,8,9,9,10,10,11,11,12,12,13,13,14,14,15,15,16,16,17,17,18,18,19,19,20,20,21,21,22,22,23,23,24,24,25,25,26,26,27,27,28,28,29,29,30,30,31,31,32,32,33,33,34,34,35,35,36,36,37,37,38,38,40,40,41,41,42,42,43,43,44,44,45,45,46,46,47,47,49,49,50,50,51,51,52,52,55,55,56,56,57,57,58,58,59,59,61,61],"right_children":[2,4,6,8,10,12,14,16,18,20,22,24,26,28,30,32,34,36,38,40,42,44,46,48,50,52,54,56,58,60,62,64,66,68,70,72,74,76,78,-1,80,82,84,86,88,90,92,94,-1,96,98,100,102,-1,-1,104,106,108,110,112,-1,114,-1,-1,-1,-1,-1,-1,-1,-1,-1,-1,-1,-1,-1,-1,-1,-1,-1,-1,-1,-1,-1,-1,-1,-1,-1,-1,-1,-1,-1,-1,-1,-1,-1,-1,-1,-1,-1,-1,-1,-1,-1,-1,-1,-1,-1,-1,-1,-1,-1,-1,-1,-1,-1],"split_conditions":[1.8E1,2.1E1,1.6E0,1.8E0,1.1E0,2.8E1,1.8E1,9E0,2.5E1,1E0,4.4E1,7E0,4.6E1,5.7E1,2E1,2.3E1,-8E-1,7E0,2.4E1,1.8E1,-5E-1,3E0,5.6E1,7.2E1,8E0,7E0,1.1E0,3E1,6.9E1,1.4E0,5E1,6.5E1,1E1,5.2E1,1.1E1,2.1E0,1.2E1,1.1E1,1.2E0,-1.8679248E-1,1.8E1,1.3E0,5.9E1,2.6E1,4.1E1,1.3E0,1E0,1.5E0,-7.663455E-9,1.2E0,6E-1,5E0,2.9E1,3.1034475E-2,-1.6363637E-1,1.3E0,1E1,1E1,1.2E0,6.1E1,-2.1381217E-1,5.9E1,7.2E-2,-7.461142E-2,1.4210527E-1,1.776824E-1,4.1221365E-2,-5.373136E-2,-2.0412374E-1,6.1960804E-4,-3.5207838E-2,-3.284673E-2,-1.6363639E-1,5.7525765E-2,-4.0484447E-2,-1.8461553E-2,-1.10469334E-1,-1.598131E-1,-7.26225E-2,-1.5517244E-1,6.666666E-2,9.473684E-2,-1.7027028E-1,2.8421053E-1,-1.07288365E-8,1.9459459E-1,-1.2857145E-1,-1.0656208E-1,3.9130427E-2,-1.9272353E-1,-8.7096795E-2,-2.7950324E-2,-1.5109491E-1,-1.9328861E-1,-8.490568E-2,1.1886792E-1,-9.473686E-2,8.9108795E-3,-8.890182E-2,-1.4400001E-1,-7.663455E-9,3.4054056E-1,-7.663455E-9,-4.285716E-2,-1.8595044E-1,-2.0769234E-1,-8.490568E-2,-4.3902453E-2,3.1034482E-1,-3.333335E-2,-1.8679248E-1,-1.304507E-1,-1.8051578E-1,-1.6363637E-1,-7.663455E-9],"split_indices":[4,5,7,7,6,5,0,5,0,7,1,1,0,1,5,1,2,0,1,1,2,0,0,0,5,0,6,1,1,6,1,0,4,0,4,7,4,5,6,0,0,7,1,5,1,7,7,2,0,2,6,0,5,0,0,2,0,5,6,0,0,0,0,0,0,0,0,0,0,0,0,0,0,0,0,0,0,0,0,0,0,0,0,0,0,0,0,0,0,0,0,0,0,0,0,0,0,0,0,0,0,0,0,0,0,0,0,0,0,0,0,0,0,0,0],"split_type":[0,0,0,0,0,0,0,0,0,0,0,0,0,0,0,0,0,0,0,0,0,0,0,0,0,0,0,0,0,0,0,0,0,0,0,0,0,0,0,0,0,0,0,0,0,0,0,0,0,0,0,0,0,0,0,0,0,0,0,0,0,0,0,0,0,0,0,0,0,0,0,0,0,0,0,0,0,0,0,0,0,0,0,0,0,0,0,0,0,0,0,0,0,0,0,0,0,0,0,0,0,0,0,0,0,0,0,0,0,0,0,0,0,0,0],"sum_hessian":[1.8875554E3,1.4217777E3,4.6577774E2,1.2079999E3,2.1377777E2,2.4488887E2,2.2088887E2,8.5422217E2,3.5377777E2,3.2888885E1,1.8088889E2,2.3244443E2,1.2444444E1,6.799999E1,1.5288889E2,9.333333E1,7.6088885E2,1.1066666E2,2.431111E2,1.5111111E1,1.7777777E1,8.799999E1,9.2888885E1,2.1777777E1,2.1066666E2,7.5555553E0,4.8888884E0,4.9333332E1,1.8666666E1,1.471111E2,5.7777777E0,2.5777777E1,6.755555E1,3.1111109E1,7.297777E2,2.6666664E1,8.399999E1,9.377777E1,1.4933333E2,4.8888884E0,1.0222221E1,8.444444E0,9.333333E0,4.444444E0,8.355555E1,6.1777775E1,3.1111109E1,2.0444443E1,1.3333333E0,1.0222221E1,2.0044443E2,3.111111E0,4.444444E0,2.222222E0,2.6666665E0,3.2444443E1,1.6888887E1,5.7777777E0,1.2888888E1,1.2799999E2,1.911111E1,3.9999998E0,1.7777777E0,2.0444443E1,5.333333E0,2.4888887E1,4.2666664E1,2.1333332E1,9.777777E0,3.2177777E2,4.0799997E2,1.4222221E1,1.2444444E1,5.2888885E1,3.1111109E1,6.3999996E1,2.9777777E1,3.4666664E1,1.1466666E2,2.222222E0,7.9999995E0,5.333333E0,3.111111E0,5.333333E0,3.9999998E0,3.111111E0,1.3333333E0,7.6888885E1,6.666666E0,5.2444443E1,9.333333E0,1.6888887E1,1.4222221E1,1.5555554E1,4.8888884E0,4.8888884E0,5.333333E0,1.0222221E1,1.9022221E2,1.7777777E0,1.3333333E0,3.111111E0,1.3333333E0,1.9999998E1,1.2444444E1,1.1999999E1,4.8888884E0,3.5555553E0,2.222222E0,7.9999995E0,4.8888884E0,9.022221E1,3.7777775E1,2.6666665E0,1.3333333E0],"tree_param":{"num_deleted":"0","num_feature":"8","num_nodes":"115","size_leaf_vector":"1"}},{"base_weights":[2.0350647E-1,-1.0717534E-1,6.370297E-1,-3.9002272E-1,8.169436E-2,4.9311078E-1,1.0138248E0,-4.9759355E-1,-1.5974946E-1,2.2345065E-1,-1.11860424E-1,2.1394098E-1,6.496815E-1,5.9055114E-1,1.1100569E0,-6.278382E-1,-4.1720688E-1,-2.6283994E-1,1.945392E-1,9.387939E-2,4.4304788E-1,2.1089627E-1,-2.049975E-1,3.9879152E-1,3.4051773E-3,5.0228906E-1,7.7321327E-1,7.674418E-1,-6.7415774E-2,1.1340274E0,2.2641507E-1,-6.4805067E-1,-2.8767127E-1,-4.621568E-1,-8.4507085E-2,3.296699E-2,-3.7037042E-1,-1.6363637E-1,2.7881038E-1,2.172784E-2,6.506024E-1,8.832487E-1,3.5944697E-1,-4.3161986E-8,3.7854886E-1,-2.5603598E-1,2.8571424E-1,2.1052627E-1,5.88957E-1,-3.8181823E-1,9.103444E-2,8.95522E-2,5.609573E-1,6.486486E-1,8.989547E-1,-8.1081115E-2,8.5714287E-1,3.0612242E-1,-4.2857146E-1,3.5596478E-1,8.787879E-1,2.5714284E-1,-1.463415E-1,-1.4776123E-1,-2.0449145E-1,7.2E-2,-1.4210528E-1,8.9108795E-3,-1.4839402E-1,2.2075471E-1,-1.0118345E-1,1.0551724E-1,-9.197082E-2,-3.887045E-2,-1.5858126E-1,1.7107438E-1,1.1464956E-2,-8.608697E-2,2.6487153E-2,2.7785236E-1,6.605504E-2,1.5132743E-1,3.7741938E-1,2.9508185E-2,1.3688213E-1,1.4693877E-1,-3.2579202E-2,1.6609442E-1,-2.9032271E-2,-1.4961042E-1,-5.6370124E-2,-1.4400001E-1,1.14450864E-1,-1.23287685E-1,9.220489E-2,1.8679246E-1,-1.2857145E-1,-2.3376636E-2,-1.7628868E-1,-2.4688294E-2,8.918919E-2,-1.23287685E-1,1.0510948E-1,-1.2261528E-8,1.813054E-1,1.366762E-1,2.2615384E-1,2.782402E-1,-6.206898E-2,-1.4400001E-1,1.2857142E-1,9.473684E-2,2.8800002E-1,-1.4400001E-1,2.4545455E-1,-1.7027028E-1,-7.663455E-9,3.026201E-1,1.1688311E-1,-1.2857145E-1,3.1034475E-2],"categories":[],"categories_nodes":[],"categories_segments":[],"categories_sizes":[],"default_left":[0,0,0,0,0,0,0,0,0,0,0,0,0,0,0,0,0,0,0,0,0,0,0,0,0,0,0,0,0,0,0,0,0,0,0,0,0,0,0,0,0,0,0,0,0,0,0,0,0,0,0,0,0,0,0,0,0,0,0,0,0,0,0,0,0,0,0,0,0,0,0,0,0,0,0,0,0,0,0,0,0,0,0,0,0,0,0,0,0,0,0,0,0,0,0,0,0,0,0,0,0,0,0,0,0,0,0,0,0,0,0,0,0,0,0,0,0,0,0,0,0],"id":2,"left_children":[1,3,5,7,9,11,13,15,17,19,21,23,25,27,29,31,33,35,37,39,41,43,45,47,49,51,53,55,57,59,61,63,65,67,69,71,73,-1,75,77,79,81,83,85,87,89,91,93,95,97,99,101,103,105,107,109,111,113,115,-1,117,-1,119,-1,-1,-1,-1,-1,-1,-1,-1,-1,-1,-1,-1,-1,-1,-1,-1,-1,-1,-1,-1,-1,-1,-1,-1,-1,-1,-1,-1,-1,-1,-1,-1,-1,-1,-1,-1,-1,-1,-1,-1,-1,-1,-1,-1,-1,-1,-1,-1,-1,-1,-1,-1,-1,-1,-1,-1,-1,-1],"loss_changes":[2.5443365E2,5.884871E1,4.226181E1,1.0844383E1,1.8161253E1,2.4887299E1,8.183411E0,2.8802032E0,5.2334523E0,1.0824476E1,8.463546E0,8.063244E0,6.281708E0,4.97884E0,3.4640656E0,5.874634E-1,2.780754E0,3.5217218E0,2.1822472E0,9.684307E0,4.887842E0,2.2353673E0,5.53022E0,3.8261166E0,3.3391783E0,4.063553E0,2.5094452E0,2.6150665E0,1.4652601E0,1.2466583E0,1.5099599E0,2.1503448E-1,9.098197E-1,2.66568E0,5.15576E0,3.3907936E0,3.0178556E0,0E0,2.0739586E0,4.4383435E0,3.077653E0,2.4733868E0,3.0027828E0,1.5957153E0,2.9850783E0,3.1782188E0,1.723402E0,3.5562418E0,2.1291142E0,1.1008704E0,2.9044297E0,3.0593715E0,3.6161613E0,1.743927E0,3.2083206E0,1.0415444E0,1.3858662E0,2.5843415E0,3.2432437E-1,0E0,1.7046852E0,0E0,3.6549324E-1,0E0,0E0,0E0,0E0,0E0,0E0,0E0,0E0,0E0,0E0,0E0,0E0,0E0,0E0,0E0,0E0,0E0,0E0,0E0,0E0,0E0,0E0,0E0,0E0,0E0,0E0,0E0,0E0,0E0,0E0,0E0,0E0,0E0,0E0,0E0,0E0,0E0,0E0,0E0,0E0,0E0,0E0,0E0,0E0,0E0,0E0,0E0,0E0,0E0,0E0,0E0,0E0,0E0,0E0,0E0,0E0,0E0,0E0],"parents":[2147483647,0,0,1,1,2,2,3,3,4,4,5,5,6,6,7,7,8,8,9,9,10,10,11,11,12,12,13,13,14,14,15,15,16,16,17,17,18,18,19,19,20,20,21,21,22,22,23,23,24,24,25,25,26,26,27,27,28,28,29,29,30,30,31,31,32,32,33,33,34,34,35,35,36,36,38,38,39,39,40,40,41,41,42,42,43,43,44,44,45,45,46,46,47,47,48,48,49,49,50,50,51,51,52,52,53,53,54,54,55,55,56,56,57,57,58,58,60,60,62,62],"right_children":[2,4,6,8,10,12,14,16,18,20,22,24,26,28,30,32,34,36,38,40,42,44,46,48,50,52,54,56,58,60,62,64,66,68,70,72,74,-1,76,78,80,82,84,86,88,90,92,94,96,98,100,102,104,106,108,110,112,114,116,-1,118,-1,120,-1,-1,-1,-1,-1,-1,-1,-1,-1,-1,-1,-1,-1,-1,-1,-1,-1,-1,-1,-1,-1,-1,-1,-1,-1,-1,-1,-1,-1,-1,-1,-1,-1,-1,-1,-1,-1,-1,-1,-1,-1,-1,-1,-1,-1,-1,-1,-1,-1,-1,-1,-1,-1,-1,-1,-1,-1,-1],"split_conditions":[4E-1,-2E-1,1.1E0,1.5E0,1.4E0,1.5E0,1.4E0,-7E-1,1.2E1,1.6E0,1E1,1.2E0,1.8E0,1.3E0,1.6E0,1.4E0,7.1E1,1.1E1,1.2E1,2E1,9E-1,9E0,1.6E1,7E-1,1E1,1.1E1,7E-1,9E-1,4E1,1.3E0,5E1,1E1,1.2E0,6E0,1.4E1,-3E-1,1.5E0,-1.6363637E-1,4.7E1,1E0,9E-1,2E-1,1E1,1.9E1,9E0,7E0,9E-1,9E-1,2.6E1,1.6E0,1.3E0,3E1,7E0,2.9E1,7.9E1,5.4E1,1.2E0,1E1,1.5E0,3.5596478E-1,1.5E0,2.5714284E-1,2.9E1,-1.4776123E-1,-2.0449145E-1,7.2E-2,-1.4210528E-1,8.9108795E-3,-1.4839402E-1,2.2075471E-1,-1.0118345E-1,1.0551724E-1,-9.197082E-2,-3.887045E-2,-1.5858126E-1,1.7107438E-1,1.1464956E-2,-8.608697E-2,2.6487153E-2,2.7785236E-1,6.605504E-2,1.5132743E-1,3.7741938E-1,2.9508185E-2,1.3688213E-1,1.4693877E-1,-3.2579202E-2,1.6609442E-1,-2.9032271E-2,-1.4961042E-1,-5.6370124E-2,-1.4400001E-1,1.14450864E-1,-1.23287685E-1,9.220489E-2,1.8679246E-1,-1.2857145E-1,-2.3376636E-2,-1.7628868E-1,-2.4688294E-2,8.918919E-2,-1.23287685E-1,1.0510948E-1,-1.2261528E-8,1.813054E-1,1.366762E-1,2.2615384E-1,2.782402E-1,-6.206898E-2,-1.4400001E-1,1.2857142E-1,9.473684E-2,2.8800002E-1,-1.4400001E-1,2.4545455E-1,-1.7027028E-1,-7.663455E-9,3.026201E-1,1.1688311E-1,-1.2857145E-1,3.1034475E-2],"split_indices":[2,2,2,7,6,7,7,2,4,7,5,6,7,6,6,7,1,5,1,4,6,4,4,2,4,4,2,7,1,6,0,1,6,1,0,2,6,0,1,7,6,2,4,0,5,4,7,7,5,6,7,0,0,0,1,1,2,5,6,0,2,0,1,0,0,0,0,0,0,0,0,0,0,0,0,0,0,0,0,0,0,0,0,0,0,0,0,0,0,0,0,0,0,0,0,0,0,0,0,0,0,0,0,0,0,0,0,0,0,0,0,0,0,0,0,0,0,0,0,0,0],"split_type":[0,0,0,0,0,0,0,0,0,0,0,0,0,0,0,0,0,0,0,0,0,0,0,0,0,0,0,0,0,0,0,0,0,0,0,0,0,0,0,0,0,0,0,0,0,0,0,0,0,0,0,0,0,0,0,0,0,0,0,0,0,0,0,0,0,0,0,0,0,0,0,0,0,0,0,0,0,0,0,0,0,0,0,0,0,0,0,0,0,0,0,0,0,0,0,0,0,0,0,0,0,0,0,0,0,0,0,0,0,0,0,0,0,0,0,0,0,0,0,0,0],"sum_hessian":[1.8875554E3,1.0999999E3,7.875555E2,4.3999997E2,6.5999994E2,5.7155554E2,2.1599998E2,2.9911108E2,1.4088889E2,3.8088885E2,2.7911108E2,2.0622221E2,3.653333E2,4.1333332E1,1.7466666E2,1.1155555E2,1.8755554E2,1.0933333E2,3.1555553E1,2.4044443E2,1.4044444E2,6.2222218E1,2.1688887E2,1.0933333E2,9.6888885E1,1.6888889E2,1.9644443E2,3.2444443E1,8.888888E0,1.6977777E2,4.8888884E0,1.04444435E2,7.1111107E0,1.6488889E2,2.2666666E1,2.9333332E1,7.999999E1,2.6666665E0,2.8888887E1,2.1377777E2,2.6666664E1,2.0888887E1,1.1955555E2,2.7999998E1,3.422222E1,1.9688887E2,1.9999998E1,5.5999996E1,5.333333E1,1.7333332E1,7.955555E1,2.1333332E1,1.4755554E2,1.0177777E2,9.4666664E1,3.111111E0,2.9333332E1,4.444444E0,4.444444E0,1.3777777E2,3.1999998E1,1.3333333E0,3.5555553E0,2.1333332E1,8.311111E1,1.7777777E0,5.333333E0,1.0222221E1,1.5466666E2,4.8888884E0,1.7777777E1,1.5111111E1,1.4222221E1,3.2444443E1,4.7555553E1,1.2444444E1,1.6444443E1,3.7333332E1,1.7644443E2,1.5555554E1,1.1111111E1,1.1555555E1,9.333333E0,3.2888885E1,8.6666664E1,4.444444E0,2.3555553E1,2.4888887E1,9.333333E0,4.1777775E1,1.551111E2,1.7777777E0,1.8222221E1,7.1111107E0,4.8888885E1,5.1999996E1,1.3333333E0,7.5555553E0,9.777777E0,4.3555553E1,3.5999996E1,7.1111107E0,1.4222221E1,1.0666666E1,1.3688889E2,3.7777775E1,6.3999996E1,9.244444E1,2.222222E0,1.7777777E0,1.3333333E0,5.333333E0,2.3999998E1,1.7777777E0,2.6666665E0,3.111111E0,1.3333333E0,2.4444443E1,7.5555553E0,1.3333333E0,2.222222E0],"tree_param":{"num_deleted":"0","num_feature":"8","num_nodes":"121","size_leaf_vector":"1"}},{"base_weights":[-1.7579002E-2,3.0381197E-1,-2.4746026E-1,6.965924E-1,2.129269E-1,-1.18279286E-1,-4.396191E-1,1.6262443E-1,7.273984E-1,-9.261147E-2,2.7801937E-1,-1.9503695E-1,1.3168426E-1,-5.0115067E-1,-2.0746039E-1,-4.119945E-1,2.2783029E-1,6.708398E-1,2.9637083E-1,-1.8048781E-1,2.4578023E-1,1.9539729E-1,5.125561E-1,-5.2212024E-1,-1.4129958E-1,-1.22593544E-1,2.519907E-1,-4.2814413E-1,-5.83727E-1,-3.781499E-1,4.531157E-3,-4.5689875E-3,-1.6289823E-1,1.8373275E-1,7.0971173E-1,-2.1820879E-1,2.1860044E-1,5.391254E-1,-1.857104E-1,1.1910488E-1,4.3304202E-1,6.262243E-1,3.8203362E-1,-5.427879E-1,-1.1361865E-1,-8.381326E-2,-3.5914803E-1,1.4656154E-2,-5.088324E-1,1.792249E-1,4.564869E-1,-4.851715E-1,-3.02289E-1,-3.4219217E-2,-5.8887017E-1,-4.528861E-1,4.1767813E-2,2.3850912E-1,-1.5948762E-1,-1.4718288E-1,1.1832408E-1,1.9140348E-1,2.690587E-1,-1.3082795E-1,-3.010209E-2,2.852955E-1,5.548701E-3,-1.7963107E-1,6.610632E-2,4.382728E-2,-8.0660895E-2,1.7727666E-1,6.696446E-2,1.986509E-1,-8.545336E-2,6.5150075E-2,1.6058965E-1,-2.0113024E-1,-1.4280626E-1,1.5267381E-1,-1.4652823E-1,3.6937667E-3,-6.0673635E-2,1.3076378E-1,-1.12820886E-1,3.261833E-2,-1.7612599E-1,7.826604E-3,-1.7080869E-1,6.052767E-2,-1.4948533E-1,2.9631057E-1,4.8103075E-2,6.431291E-2,-1.4940234E-1,-1.3676485E-1,-4.0420674E-2,-3.7602365E-2,-1.7820281E-1,3.6779072E-2,-1.4578536E-1,-5.1035207E-2,1.6054216E-1,-1.0732072E-3,1.7904224E-1,-7.035548E-2,1.3419871E-1],"categories":[],"categories_nodes":[],"categories_segments":[],"categories_sizes":[],"default_left":[0,0,0,0,0,0,0,0,0,0,0,0,0,0,0,0,0,0,0,0,0,0,0,0,0,0,0,0,0,0,0,0,0,0,0,0,0,0,0,0,0,0,0,0,0,0,0,0,0,0,0,0,0,0,0,0,0,0,0,0,0,0,0,0,0,0,0,0,0,0,0,0,0,0,0,0,0,0,0,0,0,0,0,0,0,0,0,0,0,0,0,0,0,0,0,0,0,0,0,0,0,0,0,0,0,0,0],"id":3,"left_children":[1,3,5,7,9,11,13,15,17,19,21,23,25,27,29,31,-1,33,-1,35,37,39,41,43,45,47,49,51,53,55,57,-1,-1,59,61,63,-1,65,67,69,71,73,75,77,79,81,83,85,87,89,91,93,95,-1,97,99,101,103,105,-1,-1,-1,-1,-1,-1,-1,-1,-1,-1,-1,-1,-1,-1,-1,-1,-1,-1,-1,-1,-1,-1,-1,-1,-1,-1,-1,-1,-1,-1,-1,-1,-1,-1,-1,-1,-1,-1,-1,-1,-1,-1,-1,-1,-1,-1,-1,-1],"loss_changes":[1.3757059E2,2.7570961E1,2.6894226E1,2.2746124E0,1.2595634E1,1.2506631E1,6.1246185E0,3.4757118E0,1.3594437E0,3.367441E0,1.000108E1,8.680798E0,4.7242556E0,1.8236923E0,3.3689847E0,2.6964694E-1,0E0,2.0637856E0,0E0,3.221114E0,3.0697227E0,6.9666615E0,1.7663269E0,5.2858734E-1,5.3445044E0,2.655241E0,1.472794E0,1.1905327E0,3.160553E-1,1.637106E0,1.6688709E0,0E0,0E0,1.6019051E0,8.6315155E-1,2.1777568E0,0E0,3.0320792E0,1.8492554E0,3.1216593E0,2.97188E0,2.5036392E0,1.5385561E0,2.457447E-1,1.32925E0,3.8830636E0,1.3652878E0,2.204946E0,4.3977332E-1,1.3020732E0,4.053317E0,1.2432327E0,1.501976E0,0E0,2.9881287E-1,8.9409447E-1,1.0011508E0,1.5559366E0,1.2696414E0,0E0,0E0,0E0,0E0,0E0,0E0,0E0,0E0,0E0,0E0,0E0,0E0,0E0,0E0,0E0,0E0,0E0,0E0,0E0,0E0,0E0,0E0,0E0,0E0,0E0,0E0,0E0,0E0,0E0,0E0,0E0,0E0,0E0,0E0,0E0,0E0,0E0,0E0,0E0,0E0,0E0,0E0,0E0,0E0,0E0,0E0,0E0,0E0],"parents":[2147483647,0,0,1,1,2,2,3,3,4,4,5,5,6,6,7,7,8,8,9,9,10,10,11,11,12,12,13,13,14,14,15,15,17,17,19,19,20,20,21,21,22,22,23,23,24,24,25,25,26,26,27,27,28,28,29,29,30,30,33,33,34,34,35,35,37,37,38,38,39,39,40,40,41,41,42,42,43,43,44,44,45,45,46,46,47,47,48,48,49,49,50,50,51,51,52,52,54,54,55,55,56,56,57,57,58,58],"right_children":[2,4,6,8,10,12,14,16,18,20,22,24,26,28,30,32,-1,34,-1,36,38,40,42,44,46,48,50,52,54,56,58,-1,-1,60,62,64,-1,66,68,70,72,74,76,78,80,82,84,86,88,90,92,94,96,-1,98,100,102,104,106,-1,-1,-1,-1,-1,-1,-1,-1,-1,-1,-1,-1,-1,-1,-1,-1,-1,-1,-1,-1,-1,-1,-1,-1,-1,-1,-1,-1,-1,-1,-1,-1,-1,-1,-1,-1,-1,-1,-1,-1,-1,-1,-1,-1,-1,-1,-1,-1],"split_conditions":[1E-1,-7E-1,7E-1,9E-1,1.1E1,1.6E1,1.4E1,1.4E1,2.1E0,1.7E0,1.6E0,1E0,1.1E0,1.1E0,1E0,2.3E1,2.2783029E-1,1.5E1,2.9637083E-1,7.5E1,1.9E0,2.2E1,1.4E0,2.4E0,2E0,6.1E1,2.1E1,6E1,1E0,6.2E1,9E-1,-4.5689875E-3,-1.6289823E-1,-1E0,2.7E1,8E0,2.1860044E-1,5.1E1,5.2E1,1.8E1,-3E-1,1.6E1,1.9E0,1.8E1,2.5E0,4E-1,2E0,6.7E1,9E-1,2.2E1,2.9E1,7E0,1E1,-3.4219217E-2,1E1,5E0,1.9E1,5E1,2.7E1,-1.4718288E-1,1.1832408E-1,1.9140348E-1,2.690587E-1,-1.3082795E-1,-3.010209E-2,2.852955E-1,5.548701E-3,-1.7963107E-1,6.610632E-2,4.382728E-2,-8.0660895E-2,1.7727666E-1,6.696446E-2,1.986509E-1,-8.545336E-2,6.5150075E-2,1.6058965E-1,-2.0113024E-1,-1.4280626E-1,1.5267381E-1,-1.4652823E-1,3.6937667E-3,-6.0673635E-2,1.3076378E-1,-1.12820886E-1,3.261833E-2,-1.7612599E-1,7.826604E-3,-1.7080869E-1,6.052767E-2,-1.4948533E-1,2.9631057E-1,4.8103075E-2,6.431291E-2,-1.4940234E-1,-1.3676485E-1,-4.0420674E-2,-3.7602365E-2,-1.7820281E-1,3.6779072E-2,-1.4578536E-1,-5.1035207E-2,1.6054216E-1,-1.0732072E-3,1.7904224E-1,-7.035548E-2,1.3419871E-1],"split_indices":[2,2,2,6,5,5,5,4,6,6,6,6,6,2,6,5,0,5,0,0,7,5,7,7,7,0,5,0,1,0,2,0,0,2,5,5,0,0,0,4,2,4,6,0,7,2,0,1,7,4,1,4,5,0,4,0,5,1,4,0,0,0,0,0,0,0,0,0,0,0,0,0,0,0,0,0,0,0,0,0,0,0,0,0,0,0,0,0,0,0,0,0,0,0,0,0,0,0,0,0,0,0,0,0,0,0,0],"split_type":[0,0,0,0,0,0,0,0,0,0,0,0,0,0,0,0,0,0,0,0,0,0,0,0,0,0,0,0,0,0,0,0,0,0,0,0,0,0,0,0,0,0,0,0,0,0,0,0,0,0,0,0,0,0,0,0,0,0,0,0,0,0,0,0,0,0,0,0,0,0,0,0,0,0,0,0,0,0,0,0,0,0,0,0,0,0,0,0,0,0,0,0,0,0,0,0,0,0,0,0,0,0,0,0,0,0,0],"sum_hessian":[1.8600195E3,7.7549646E2,1.084523E3,1.4447041E2,6.3102606E2,6.495028E2,4.3502017E2,8.222737E0,1.3624768E2,1.1075043E2,5.2027563E2,4.9708118E2,1.5242168E2,3.4296237E2,9.2057785E1,4.3470216E0,3.8757157E0,1.14880844E2,2.1366837E1,8.828935E1,2.2461075E1,3.860958E2,1.3417986E2,6.8912895E1,4.2816827E2,4.894766E1,1.0347401E2,1.8531145E2,1.5765092E2,5.0562508E1,4.1495277E1,1.3560749E0,2.9909465E0,8.913365E0,1.05967476E2,8.550186E1,2.7874947E0,1.3222456E1,9.23862E0,2.934039E2,9.269189E1,6.9690544E1,6.448931E1,6.5281334E1,3.6315613E0,3.3986792E2,8.830034E1,3.6824245E1,1.2123416E1,7.770181E1,2.5772194E1,1.2556191E2,5.9749535E1,1.9587513E0,1.5569218E2,4.2856476E1,7.706031E0,1.6913492E1,2.4581787E1,1.8055422E0,7.1078234E0,7.980289E1,2.616459E1,2.9068262E1,5.6433598E1,6.920882E0,6.3015738E0,4.344605E0,4.894015E0,2.749059E2,1.8497972E1,5.1856956E1,4.0834934E1,6.730816E1,2.3823848E0,3.2233173E1,3.225614E1,1.9314388E1,4.5966946E1,1.2303096E0,2.4012518E0,1.8809563E2,1.517723E2,1.3242495E0,8.697609E1,3.2554283E1,4.269962E0,1.2902331E0,1.0833182E1,7.588024E1,1.8215758E0,8.388995E0,1.73832E1,1.9795582E0,1.2358236E2,3.027555E1,2.9473982E1,1.9856572E0,1.5370653E2,2.181457E0,4.067502E1,5.849209E0,1.8568218E0,1.0684475E1,6.229016E0,2.2422815E1,2.1589713E0],"tree_param":{"num_deleted":"0","num_feature":"8","num_nodes":"107","size_leaf_vector":"1"}},{"base_weights":[-1.4295927E-1,-9.376452E-2,-2.9894975E-1,-6.40517E-2,-2.6706544E-1,-2.1895579E-1,-3.894163E-1,-3.030065E-1,-5.313715E-2,5.923253E-2,-3.303567E-1,-2.3831224E-1,1.1925962E-1,-3.514136E-1,-5.29995E-1,1.35284E-1,-3.449832E-1,-4.449608E-2,-3.407579E-1,-1.0483064E-1,3.5868493E-1,-2.2494143E-1,-4.2944694E-1,-4.7804692E-1,-2.121755E-1,3.4014887E-1,-2.4147715E-1,-1.7914052E-1,-3.222711E-1,-2.1896736E-1,-5.848494E-1,-1.7728598E-1,-5.5006206E-1,2.0983206E-2,-9.529075E-2,4.2031667E-1,-4.330952E-1,-1.8358982E-1,1.3091542E-1,-3.6342424E-1,6.914419E-1,-1.6157559E-1,-5.731876E-1,-5.2733445E-1,-2.3096508E-1,-5.1130736E-1,3.468121E-3,-3.36688E-1,-1.7406328E-1,-2.8629357E-1,7.1354806E-1,3.1301472E-2,-1.4846356E-1,-2.5855428E-1,-4.033784E-1,1.06092E-1,-4.2140916E-1,-1.8329048E-1,2.3247276E-2,-4.226046E-3,-1.8632738E-1,-8.500412E-2,-2.0166297E-1,7.039755E-2,-4.4067088E-3,-3.039929E-2,1.5787221E-1,1.9029261E-1,-2.417982E-3,-1.5189095E-1,2.8382123E-2,6.500881E-2,-1.07478626E-1,-1.4238739E-1,-3.6879934E-2,2.6902324E-2,2.6545766E-1,1.12434484E-1,-5.9578493E-2,1.4159936E-2,-1.9374348E-1,-1.724908E-1,-7.224085E-2,-1.40136955E-2,-1.3203219E-1,-1.7514843E-1,-6.676456E-2,-1.1559919E-1,1.3448589E-1,1.4449257E-2,-7.525834E-2,1.21780485E-2,-1.3645998E-1,2.8125358E-1,-2.7579386E-3,-3.133954E-2,-1.1072885E-1,-1.913824E-1,-1.021327E-1,-1.6566747E-1,1.8202271E-2],"categories":[],"categories_nodes":[],"categories_segments":[],"categories_sizes":[],"default_left":[0,0,0,0,0,0,0,0,0,0,0,0,0,0,0,0,0,0,0,0,0,0,0,0,0,0,0,0,0,0,0,0,0,0,0,0,0,0,0,0,0,0,0,0,0,0,0,0,0,0,0,0,0,0,0,0,0,0,0,0,0,0,0,0,0,0,0,0,0,0,0,0,0,0,0,0,0,0,0,0,0,0,0,0,0,0,0,0,0,0,0,0,0,0,0,0,0,0,0,0,0],"id":4,"left_children":[1,3,5,7,9,11,13,15,17,19,21,23,25,27,29,-1,31,33,35,37,39,41,43,45,47,49,51,-1,53,55,57,59,61,63,65,67,69,71,-1,73,75,77,79,81,83,85,-1,87,89,91,93,-1,-1,95,97,-1,99,-1,-1,-1,-1,-1,-1,-1,-1,-1,-1,-1,-1,-1,-1,-1,-1,-1,-1,-1,-1,-1,-1,-1,-1,-1,-1,-1,-1,-1,-1,-1,-1,-1,-1,-1,-1,-1,-1,-1,-1,-1,-1,-1,-1],"loss_changes":[1.3976955E1,7.134742E0,3.077961E0,3.0795527E0,4.2111263E0,1.5620632E0,9.027424E-1,1.7897158E0,2.8089683E0,1.6991789E0,1.680645E0,1.2890673E0,1.145735E0,9.7787285E-1,5.784435E-1,0E0,1.6040783E0,3.6749604E0,2.5006104E0,1.0444587E0,3.1820924E0,1.7729263E0,1.5607948E0,3.4817362E-1,8.9949226E-1,2.2378802E0,5.471008E-1,0E0,6.619749E-1,1.0539912E0,6.459646E-1,2.0696092E0,5.191765E-1,3.68687E0,2.3887048E0,3.7886703E-1,1.2035904E0,1.5077112E0,0E0,6.207663E-2,9.3257E-1,1.5222634E0,5.991678E-1,6.425276E-1,1.1502573E0,2.8266478E-1,0E0,1.9385529E0,2.6856027E0,2.3670182E-1,9.3666816E-1,0E0,0E0,1.4233284E0,7.194929E-1,0E0,4.260149E-1,0E0,0E0,0E0,0E0,0E0,0E0,0E0,0E0,0E0,0E0,0E0,0E0,0E0,0E0,0E0,0E0,0E0,0E0,0E0,0E0,0E0,0E0,0E0,0E0,0E0,0E0,0E0,0E0,0E0,0E0,0E0,0E0,0E0,0E0,0E0,0E0,0E0,0E0,0E0,0E0,0E0,0E0,0E0,0E0],"parents":[2147483647,0,0,1,1,2,2,3,3,4,4,5,5,6,6,7,7,8,8,9,9,10,10,11,11,12,12,13,13,14,14,16,16,17,17,18,18,19,19,20,20,21,21,22,22,23,23,24,24,25,25,26,26,28,28,29,29,30,30,31,31,32,32,33,33,34,34,35,35,36,36,37,37,39,39,40,40,41,41,42,42,43,43,44,44,45,45,47,47,48,48,49,49,50,50,53,53,54,54,56,56],"right_children":[2,4,6,8,10,12,14,16,18,20,22,24,26,28,30,-1,32,34,36,38,40,42,44,46,48,50,52,-1,54,56,58,60,62,64,66,68,70,72,-1,74,76,78,80,82,84,86,-1,88,90,92,94,-1,-1,96,98,-1,100,-1,-1,-1,-1,-1,-1,-1,-1,-1,-1,-1,-1,-1,-1,-1,-1,-1,-1,-1,-1,-1,-1,-1,-1,-1,-1,-1,-1,-1,-1,-1,-1,-1,-1,-1,-1,-1,-1,-1,-1,-1,-1,-1,-1],"split_conditions":[1.8E1,2.1E1,1.6E0,5E0,1.1E0,2.8E1,6.1E1,4E0,2.3E0,-3E-1,4.4E1,7E0,4.6E1,9E0,1.9E1,1.35284E-1,5.2E1,1.1E1,1.2E0,2.9E1,1.3E1,2.7E1,5.6E1,7.2E1,1E1,7E0,1.1E0,-1.7914052E-1,1.2E0,6.7E1,7.6E1,9E-1,1.3E0,8E0,1.4E0,-2E-1,0E0,1E1,1.3091542E-1,1.3E1,1.2E1,3E0,1.2E0,1.3E0,1E0,1.5E0,3.468121E-3,1.3E0,4.1E1,0E0,2.9E1,3.1301472E-2,-1.4846356E-1,1.1E0,8E-1,1.06092E-1,1.3E1,-1.8329048E-1,2.3247276E-2,-4.226046E-3,-1.8632738E-1,-8.500412E-2,-2.0166297E-1,7.039755E-2,-4.4067088E-3,-3.039929E-2,1.5787221E-1,1.9029261E-1,-2.417982E-3,-1.5189095E-1,2.8382123E-2,6.500881E-2,-1.07478626E-1,-1.4238739E-1,-3.6879934E-2,2.6902324E-2,2.6545766E-1,1.12434484E-1,-5.9578493E-2,1.4159936E-2,-1.9374348E-1,-1.724908E-1,-7.224085E-2,-1.40136955E-2,-1.3203219E-1,-1.7514843E-1,-6.676456E-2,-1.1559919E-1,1.3448589E-1,1.4449257E-2,-7.525834E-2,1.21780485E-2,-1.3645998E-1,2.8125358E-1,-2.7579386E-3,-3.133954E-2,-1.1072885E-1,-1.913824E-1,-1.021327E-1,-1.6566747E-1,1.8202271E-2],"split_indices":[4,5,7,5,6,5,0,4,6,2,1,1,0,1,4,0,0,4,7,5,0,5,0,0,0,0,6,0,2,0,0,2,6,5,2,2,2,4,0,4,4,0,6,7,7,2,0,6,0,2,5,0,0,6,6,0,5,0,0,0,0,0,0,0,0,0,0,0,0,0,0,0,0,0,0,0,0,0,0,0,0,0,0,0,0,0,0,0,0,0,0,0,0,0,0,0,0,0,0,0,0],"split_type":[0,0,0,0,0,0,0,0,0,0,0,0,0,0,0,0,0,0,0,0,0,0,0,0,0,0,0,0,0,0,0,0,0,0,0,0,0,0,0,0,0,0,0,0,0,0,0,0,0,0,0,0,0,0,0,0,0,0,0,0,0,0,0,0,0,0,0,0,0,0,0,0,0,0,0,0,0,0,0,0,0,0,0,0,0,0,0,0,0,0,0,0,0,0,0,0,0,0,0,0,0],"sum_hessian":[1.8240123E3,1.3879084E3,4.3610388E2,1.1859452E3,2.0196324E2,2.3326361E2,2.0284027E2,5.063434E1,1.1353109E3,3.2820637E1,1.6914261E2,2.2091574E2,1.2347874E1,1.6243019E2,4.041008E1,2.1565862E0,4.8477753E1,1.1033182E3,3.1992588E1,2.1623524E1,1.1197112E1,8.3540115E1,8.56025E1,2.0017597E1,2.0089815E2,7.69381E0,4.6540637E0,1.5155228E1,1.4727496E2,6.8068223E0,3.360326E1,2.7695251E1,2.0782501E1,4.8224466E2,6.210736E2,3.0772126E0,2.8915377E1,1.9453394E1,2.1701305E0,3.5030506E0,7.6940613E0,7.191808E1,1.1622033E1,5.6219337E1,2.938316E1,1.8702744E1,1.3148533E0,4.5245876E1,1.5565227E2,2.9604368E0,4.733373E0,2.2169094E0,2.4371545E0,8.482519E1,6.2449768E1,1.5828507E0,5.2239714E0,3.2403038E1,1.2002225E0,2.1003456E1,6.6917953E0,7.570877E0,1.3211623E1,6.8193016E1,4.1405167E2,6.159248E2,5.1487675E0,1.7315196E0,1.345693E0,2.5428272E1,3.4871042E0,5.8368497E0,1.3616545E1,1.7296953E0,1.7733552E0,2.2274745E0,5.466587E0,4.0542316E0,6.7863846E1,1.2546153E0,1.0367418E1,4.7342205E1,8.877131E0,1.6271467E1,1.3111693E1,1.4131752E1,4.570992E0,4.3085133E1,2.160744E0,4.007149E1,1.1558077E2,1.2655494E0,1.6948874E0,3.3867283E0,1.3466449E0,3.624572E1,4.8579468E1,1.1278484E1,5.1171284E1,3.994537E0,1.2294344E0],"tree_param":{"num_deleted":"0","num_feature":"8","num_nodes":"101","size_leaf_vector":"1"}},{"base_weights":[1.5298086E-1,-1.5637726E-1,3.9162323E-1,-3.267127E-1,8.233864E-3,2.2395778E-1,5.71815E-1,-1.761051E-1,-4.690914E-1,1.6473596E-1,-1.3831323E-1,-2.9369086E-2,2.954046E-1,4.598228E-1,7.3550886E-1,-2.859936E-1,2.33518E-1,-4.865902E-1,-1.278063E-1,1.0415712E-2,3.3889824E-1,-2.2789945E-1,2.6862922E-1,-8.559101E-2,3.275153E-1,2.6492026E-1,8.479597E-1,1.9809671E-1,5.706463E-1,8.365235E-1,5.8959526E-1,1.16784856E-1,-3.4460676E-1,4.803536E-1,5.4730147E-2,-5.0112677E-1,-1.9011179E-1,-3.4380263E-1,2.1600038E-1,-8.5963346E-2,3.005891E-1,2.4736065E-2,4.6599528E-1,-2.52228E-1,8.211664E-2,3.9350232E-1,-4.6972156E-1,5.379121E-3,-3.1405607E-1,4.9169597E-1,-1.5854447E-1,2.432081E-1,8.373705E-1,1.0082036E0,2.6776943E-1,3.039534E-1,-1.14402205E-1,4.518332E-1,7.220015E-1,7.225504E-1,2.9630902E-1,4.6889997E-1,8.387319E-1,-1.3171911E-2,3.0095172E-1,-6.987817E-2,-1.3778968E-1,6.2490005E-2,2.9311404E-1,1.7941731E-1,-2.1066613E-2,-1.3260828E-1,-1.746945E-1,-9.902741E-2,1.5085109E-1,4.8666976E-2,-1.7063761E-1,-2.007087E-3,1.5130973E-1,2.043613E-2,-1.19224265E-1,2.7500745E-3,1.3041465E-1,-7.942216E-2,1.9630109E-1,1.0114604E-1,2.1749663E-1,3.9757017E-2,-8.2334965E-2,-2.8950728E-2,2.1009903E-1,1.330813E-1,-1.4064647E-1,-6.7451517E-3,-1.7663544E-1,2.6002308E-2,-9.79575E-2,-1.0698352E-1,7.4754916E-2,3.217003E-2,2.1587908E-1,1.3920027E-2,8.8537514E-2,2.8357103E-1,-2.8398385E-2,3.2973385E-1,9.273585E-2,-3.235011E-2,1.8657264E-1,1.0011952E-1,-1.565029E-1,-1.0125752E-1,1.803118E-1,2.814265E-2,1.6173384E-1,-5.7276897E-3,2.2317693E-1,2.2377512E-1,3.548216E-2,1.6405597E-1,-2.2169556E-2,9.541164E-2,2.7311498E-1],"categories":[],"categories_nodes":[],"categories_segments":[],"categories_sizes":[],"default_left":[0,0,0,0,0,0,0,0,0,0,0,0,0,0,0,0,0,0,0,0,0,0,0,0,0,0,0,0,0,0,0,0,0,0,0,0,0,0,0,0,0,0,0,0,0,0,0,0,0,0,0,0,0,0,0,0,0,0,0,0,0,0,0,0,0,0,0,0,0,0,0,0,0,0,0,0,0,0,0,0,0,0,0,0,0,0,0,0,0,0,0,0,0,0,0,0,0,0,0,0,0,0,0,0,0,0,0,0,0,0,0,0,0,0,0,0,0,0,0,0,0,0,0],"id":5,"left_children":[1,3,5,7,9,11,13,15,17,19,21,23,25,27,29,31,33,35,37,39,41,43,45,47,49,51,53,55,57,59,61,63,65,67,69,71,73,75,77,79,81,83,85,87,89,91,93,95,97,99,-1,101,103,105,107,109,111,113,115,117,-1,119,121,-1,-1,-1,-1,-1,-1,-1,-1,-1,-1,-1,-1,-1,-1,-1,-1,-1,-1,-1,-1,-1,-1,-1,-1,-1,-1,-1,-1,-1,-1,-1,-1,-1,-1,-1,-1,-1,-1,-1,-1,-1,-1,-1,-1,-1,-1,-1,-1,-1,-1,-1,-1,-1,-1,-1,-1,-1,-1,-1,-1],"loss_changes":[1.4175594E2,2.3458286E1,3.2614914E1,8.733639E0,9.801995E0,1.0199461E1,9.226379E0,9.132305E0,1.196392E0,5.550495E0,8.108674E0,2.5315819E0,7.174572E0,8.949844E0,2.6061172E0,3.799777E0,1.8780086E0,7.671547E-1,9.382684E-1,3.1188633E0,3.8636255E0,1.3892918E0,3.899241E0,2.2584724E0,2.6754677E0,4.9887238E0,1.8231144E0,3.1601417E0,3.611641E0,1.3860703E0,2.295189E0,3.031896E0,1.6769009E0,2.2284188E0,1.817553E0,6.5494156E-1,1.2294927E0,9.4972426E-1,3.3109158E-1,4.0485663E0,1.0825467E0,5.4604154E0,2.059411E0,1.4770079E0,1.6088879E0,1.7202325E0,3.213626E-1,2.1503205E0,8.3046913E-1,1.231884E0,0E0,4.113243E0,1.5830793E0,7.583866E-1,8.9626837E-1,1.9159179E0,4.134994E0,3.8663502E0,1.5515137E0,9.454613E-1,0E0,2.684865E0,7.517624E-1,0E0,0E0,0E0,0E0,0E0,0E0,0E0,0E0,0E0,0E0,0E0,0E0,0E0,0E0,0E0,0E0,0E0,0E0,0E0,0E0,0E0,0E0,0E0,0E0,0E0,0E0,0E0,0E0,0E0,0E0,0E0,0E0,0E0,0E0,0E0,0E0,0E0,0E0,0E0,0E0,0E0,0E0,0E0,0E0,0E0,0E0,0E0,0E0,0E0,0E0,0E0,0E0,0E0,0E0,0E0,0E0,0E0,0E0,0E0,0E0],"parents":[2147483647,0,0,1,1,2,2,3,3,4,4,5,5,6,6,7,7,8,8,9,9,10,10,11,11,12,12,13,13,14,14,15,15,16,16,17,17,18,18,19,19,20,20,21,21,22,22,23,23,24,24,25,25,26,26,27,27,28,28,29,29,30,30,31,31,32,32,33,33,34,34,35,35,36,36,37,37,38,38,39,39,40,40,41,41,42,42,43,43,44,44,45,45,46,46,47,47,48,48,49,49,51,51,52,52,53,53,54,54,55,55,56,56,57,57,58,58,59,59,61,61,62,62],"right_children":[2,4,6,8,10,12,14,16,18,20,22,24,26,28,30,32,34,36,38,40,42,44,46,48,50,52,54,56,58,60,62,64,66,68,70,72,74,76,78,80,82,84,86,88,90,92,94,96,98,100,-1,102,104,106,108,110,112,114,116,118,-1,120,122,-1,-1,-1,-1,-1,-1,-1,-1,-1,-1,-1,-1,-1,-1,-1,-1,-1,-1,-1,-1,-1,-1,-1,-1,-1,-1,-1,-1,-1,-1,-1,-1,-1,-1,-1,-1,-1,-1,-1,-1,-1,-1,-1,-1,-1,-1,-1,-1,-1,-1,-1,-1,-1,-1,-1,-1,-1,-1,-1,-1],"split_conditions":[2E-1,-2E-1,7E-1,1.9E1,1.3E0,1.3E0,1.8E0,1.2E1,7.8E1,1.3E1,1.9E0,6.7E1,2.2E1,1.7E1,1.2E0,1.4E1,4.8E1,1.9E1,1.4E0,1E-1,1.1E0,1.6E1,1.9E0,6.2E1,6E-1,2.5E0,5.8E1,1.2E1,1.2E0,1.3E0,2.3E0,2.2E0,1.4E1,3.5E1,1E0,4.5E1,1.5E0,2E1,1.5E1,1.5E1,1E1,2E1,1.7E1,8E0,5E1,2.9E0,5E0,6.2E1,7.6E1,1.3E1,-1.5854447E-1,1E1,1.9E1,2.7E1,7.2E1,1.8E0,1.6E0,1.7E1,9E-1,7.5E1,2.9630902E-1,1.4E0,4E0,-1.3171911E-2,3.0095172E-1,-6.987817E-2,-1.3778968E-1,6.2490005E-2,2.9311404E-1,1.7941731E-1,-2.1066613E-2,-1.3260828E-1,-1.746945E-1,-9.902741E-2,1.5085109E-1,4.8666976E-2,-1.7063761E-1,-2.007087E-3,1.5130973E-1,2.043613E-2,-1.19224265E-1,2.7500745E-3,1.3041465E-1,-7.942216E-2,1.9630109E-1,1.0114604E-1,2.1749663E-1,3.9757017E-2,-8.2334965E-2,-2.8950728E-2,2.1009903E-1,1.330813E-1,-1.4064647E-1,-6.7451517E-3,-1.7663544E-1,2.6002308E-2,-9.79575E-2,-1.0698352E-1,7.4754916E-2,3.217003E-2,2.1587908E-1,1.3920027E-2,8.8537514E-2,2.8357103E-1,-2.8398385E-2,3.2973385E-1,9.273585E-2,-3.235011E-2,1.8657264E-1,1.0011952E-1,-1.565029E-1,-1.0125752E-1,1.803118E-1,2.814265E-2,1.6173384E-1,-5.7276897E-3,2.2317693E-1,2.2377512E-1,3.548216E-2,1.6405597E-1,-2.2169556E-2,9.541164E-2,2.7311498E-1],"split_indices":[2,2,2,5,6,7,7,4,0,4,7,1,4,4,6,0,1,4,6,2,7,4,6,0,2,7,1,5,2,2,7,7,5,1,6,0,6,5,4,5,5,4,4,5,0,7,5,1,0,4,0,4,4,4,1,6,7,1,7,1,0,2,5,0,0,0,0,0,0,0,0,0,0,0,0,0,0,0,0,0,0,0,0,0,0,0,0,0,0,0,0,0,0,0,0,0,0,0,0,0,0,0,0,0,0,0,0,0,0,0,0,0,0,0,0,0,0,0,0,0,0,0,0],"split_type":[0,0,0,0,0,0,0,0,0,0,0,0,0,0,0,0,0,0,0,0,0,0,0,0,0,0,0,0,0,0,0,0,0,0,0,0,0,0,0,0,0,0,0,0,0,0,0,0,0,0,0,0,0,0,0,0,0,0,0,0,0,0,0,0,0,0,0,0,0,0,0,0,0,0,0,0,0,0,0,0,0,0,0,0,0,0,0,0,0,0,0,0,0,0,0,0,0,0,0,0,0,0,0,0,0,0,0,0,0,0,0,0,0,0,0,0,0,0,0,0,0,0,0],"sum_hessian":[1.9183074E3,8.355315E2,1.0827759E3,4.101421E2,4.2538943E2,5.6204517E2,5.207307E2,2.0039838E2,2.097437E2,2.056478E2,2.1974164E2,1.2377367E2,4.3827148E2,3.114555E2,2.0927524E2,1.5824753E2,4.215084E1,1.9910896E2,1.0634735E1,1.095969E2,9.605089E1,1.8045532E2,3.928631E1,1.0758534E2,1.6188328E1,4.1675845E2,2.1513042E1,9.347882E1,2.1797668E2,1.2086708E2,8.840816E1,1.9976986E1,1.3827055E2,1.6997402E1,2.5153439E1,1.8914479E2,9.964175E0,6.5313997E0,4.103336E0,8.2799416E1,2.6797491E1,2.8009876E1,6.8041016E1,1.6749736E2,1.2957967E1,3.4002678E1,5.2836304E0,7.7645096E1,2.994024E1,1.394018E1,2.2481472E0,4.0290182E2,1.3856599E1,1.6279158E1,5.233886E0,6.984627E1,2.3632557E1,1.2434879E2,9.3627884E1,7.220764E1,4.865944E1,6.149752E1,2.6910635E1,1.7715794E1,2.2611911E0,7.159096E1,6.667959E1,1.18992195E1,5.098182E0,3.995141E0,2.1158298E1,1.1319295E2,7.595185E1,8.725265E0,1.2389104E0,2.0960732E0,4.4353266E0,2.866486E0,1.2368499E0,5.5916954E1,2.6882462E1,8.782883E0,1.8014608E1,1.9584751E1,8.425126E0,4.697439E1,2.1066626E1,8.874802E0,1.5862256E2,1.0708022E1,2.2499447E0,3.2594475E1,1.4082049E0,1.3608197E0,3.9228106E0,6.2962242E1,1.4682857E1,2.8178093E1,1.7621474E0,5.7353435E0,8.204837E0,8.4493935E1,3.184079E2,1.2406589E1,1.4500109E0,1.389945E1,2.3797064E0,2.8774955E0,2.3563905E0,6.798983E1,1.8564332E0,1.8417095E1,5.215462E0,2.4779026E1,9.956977E1,2.6936507E0,9.0934235E1,6.929374E1,2.9139013E0,5.37682E1,7.7293205E0,3.913048E0,2.2997587E1],"tree_param":{"num_deleted":"0","num_feature":"8","num_nodes":"123","size_leaf_vector":"1"}},{"base_weights":[-1.5504245E-2,2.2996691E-1,-2.0380047E-1,5.3926265E-1,1.5888076E-1,-9.479289E-2,-3.7886563E-1,1.0448266E-1,5.642641E-1,2.6725253E-2,2.4897751E-1,-1.6893168E-1,8.9001924E-2,-4.4048342E-1,-1.5946001E-1,-3.9098558E-1,5.9949493E-1,5.154931E-1,2.3937826E-1,3.14325E-1,-5.3270612E-2,-6.2385146E-2,2.927396E-1,-2.670122E-1,-3.487543E-2,-1.7949754E-1,1.7299934E-1,-4.8045307E-1,-2.816881E-1,-3.1986314E-1,2.6646584E-2,-6.8700104E-3,-1.5481369E-1,6.0821958E-2,2.1347556E-1,2.4927028E-1,5.62531E-1,-1.1518932E-1,3.7682906E-1,2.0776326E-3,-2.7227437E-1,-1.6929522E-1,4.582553E-1,6.111268E-1,2.6517886E-1,-4.5438892E-1,-2.1025889E-1,-3.7547156E-1,6.8758847E-3,-6.861533E-2,-4.628075E-1,4.6650293E-1,1.1307366E-1,-4.1213965E-1,-5.4712754E-1,-3.558338E-1,1.6409981E-3,-3.944138E-1,6.806197E-2,2.1332075E-1,-1.1256151E-1,1.13899216E-1,-2.5398701E-2,1.2200943E-1,1.8764935E-1,5.45141E-2,-1.5938643E-1,1.3534398E-1,1.4209675E-2,-1.5023622E-1,8.924279E-3,2.020276E-1,-1.03371434E-1,-6.243499E-2,9.673388E-2,-3.569483E-3,2.0359418E-1,-2.7953008E-2,1.9699863E-1,5.85842E-2,1.0608719E-1,-1.4294924E-1,-1.962185E-2,7.7948594E-3,-7.784186E-2,-1.3717207E-1,1.5890253E-1,2.5083363E-2,-3.0516094E-2,-3.860273E-2,2.194921E-1,3.929578E-3,-1.5636669E-1,2.641472E-2,2.5975758E-1,9.799912E-2,7.894569E-3,-1.6546176E-1,-9.7910434E-2,7.688109E-3,-1.662796E-1,-1.4677423E-1,-7.615674E-2,2.18184E-1,-5.9961468E-2,-1.3376239E-1,1.1436274E-2,-1.2589505E-1,7.215786E-2,2.1606875E-3,1.5063831E-1,-5.5096626E-2,1.24519125E-1],"categories":[],"categories_nodes":[],"categories_segments":[],"categories_sizes":[],"default_left":[0,0,0,0,0,0,0,0,0,0,0,0,0,0,0,0,0,0,0,0,0,0,0,0,0,0,0,0,0,0,0,0,0,0,0,0,0,0,0,0,0,0,0,0,0,0,0,0,0,0,0,0,0,0,0,0,0,0,0,0,0,0,0,0,0,0,0,0,0,0,0,0,0,0,0,0,0,0,0,0,0,0,0,0,0,0,0,0,0,0,0,0,0,0,0,0,0,0,0,0,0,0,0,0,0,0,0,0,0,0,0,0,0],"id":6,"left_children":[1,3,5,7,9,11,13,15,17,19,21,23,25,27,29,31,33,35,-1,37,39,41,43,45,47,49,51,53,55,57,59,-1,-1,-1,-1,61,63,65,67,69,71,73,75,77,79,81,83,85,87,89,91,93,95,97,99,101,103,105,107,109,111,-1,-1,-1,-1,-1,-1,-1,-1,-1,-1,-1,-1,-1,-1,-1,-1,-1,-1,-1,-1,-1,-1,-1,-1,-1,-1,-1,-1,-1,-1,-1,-1,-1,-1,-1,-1,-1,-1,-1,-1,-1,-1,-1,-1,-1,-1,-1,-1,-1,-1,-1,-1],"loss_changes":[8.382916E1,1.7224964E1,1.9549583E1,1.5358925E0,7.6328144E0,8.651617E0,5.249504E0,2.4921198E0,1.1671677E0,6.0264673E0,5.2150593E0,5.93347E0,4.1545763E0,1.810955E0,2.6308968E0,2.2782022E-1,7.807422E-2,1.3301754E0,0E0,1.5733914E0,2.488193E0,2.739506E0,2.7737732E0,2.6785488E0,2.7345576E0,1.3523154E0,2.405686E0,8.838997E-1,1.3467741E0,1.3935432E0,1.1047347E0,0E0,0E0,0E0,0E0,8.780465E-1,7.169552E-1,1.0855753E0,1.2025013E0,2.3081734E0,3.0632982E0,8.3846605E-1,8.8022673E-1,8.9141846E-1,1.845438E0,4.8295116E-1,2.3562193E0,1.79621E0,1.442816E0,1.6725428E0,3.4652233E-1,3.457325E0,2.1668413E0,1.306881E0,5.056381E-1,5.6686974E-1,2.2344522E0,9.0260077E-1,8.1343555E-1,1.0744783E0,9.943913E-1,0E0,0E0,0E0,0E0,0E0,0E0,0E0,0E0,0E0,0E0,0E0,0E0,0E0,0E0,0E0,0E0,0E0,0E0,0E0,0E0,0E0,0E0,0E0,0E0,0E0,0E0,0E0,0E0,0E0,0E0,0E0,0E0,0E0,0E0,0E0,0E0,0E0,0E0,0E0,0E0,0E0,0E0,0E0,0E0,0E0,0E0,0E0,0E0,0E0,0E0,0E0,0E0],"parents":[2147483647,0,0,1,1,2,2,3,3,4,4,5,5,6,6,7,7,8,8,9,9,10,10,11,11,12,12,13,13,14,14,15,15,16,16,17,17,19,19,20,20,21,21,22,22,23,23,24,24,25,25,26,26,27,27,28,28,29,29,30,30,35,35,36,36,37,37,38,38,39,39,40,40,41,41,42,42,43,43,44,44,45,45,46,46,47,47,48,48,49,49,50,50,51,51,52,52,53,53,54,54,55,55,56,56,57,57,58,58,59,59,60,60],"right_children":[2,4,6,8,10,12,14,16,18,20,22,24,26,28,30,32,34,36,-1,38,40,42,44,46,48,50,52,54,56,58,60,-1,-1,-1,-1,62,64,66,68,70,72,74,76,78,80,82,84,86,88,90,92,94,96,98,100,102,104,106,108,110,112,-1,-1,-1,-1,-1,-1,-1,-1,-1,-1,-1,-1,-1,-1,-1,-1,-1,-1,-1,-1,-1,-1,-1,-1,-1,-1,-1,-1,-1,-1,-1,-1,-1,-1,-1,-1,-1,-1,-1,-1,-1,-1,-1,-1,-1,-1,-1,-1,-1,-1,-1,-1],"split_conditions":[1E-1,-7E-1,7E-1,9E-1,1.3E0,1.5E1,1.4E1,1.4E1,2.1E0,1E0,1E1,1.4E0,1E0,1.4E0,1E0,2.3E1,5.7E1,1.8E1,2.3937826E-1,9E-1,1.5E1,2.3E0,6E0,1E0,6E0,5.9E1,1.7E1,1.1E0,1.2E1,6.2E1,9E-1,-6.8700104E-3,-1.5481369E-1,6.0821958E-2,2.1347556E-1,6.4E1,1.3E0,-3E-1,2.8E1,7E0,1E1,7.8E1,3.2E1,8E0,1.6E0,2.4E0,1.4E0,1.7E1,4E-1,5.4E1,9E-1,5.3E1,3.7E1,9E0,1E0,3.1E1,1.4E1,7.2E1,3.8E1,5E1,2.7E1,1.13899216E-1,-2.5398701E-2,1.2200943E-1,1.8764935E-1,5.45141E-2,-1.5938643E-1,1.3534398E-1,1.4209675E-2,-1.5023622E-1,8.924279E-3,2.020276E-1,-1.03371434E-1,-6.243499E-2,9.673388E-2,-3.569483E-3,2.0359418E-1,-2.7953008E-2,1.9699863E-1,5.85842E-2,1.0608719E-1,-1.4294924E-1,-1.962185E-2,7.7948594E-3,-7.784186E-2,-1.3717207E-1,1.5890253E-1,2.5083363E-2,-3.0516094E-2,-3.860273E-2,2.194921E-1,3.929578E-3,-1.5636669E-1,2.641472E-2,2.5975758E-1,9.799912E-2,7.894569E-3,-1.6546176E-1,-9.7910434E-2,7.688109E-3,-1.662796E-1,-1.4677423E-1,-7.615674E-2,2.18184E-1,-5.9961468E-2,-1.3376239E-1,1.1436274E-2,-1.2589505E-1,7.215786E-2,2.1606875E-3,1.5063831E-1,-5.5096626E-2,1.24519125E-1],"split_indices":[2,2,2,6,6,5,5,4,6,7,5,6,6,6,6,5,0,5,0,6,4,6,0,6,5,0,0,2,5,0,2,0,0,0,0,1,6,2,5,5,1,0,1,1,6,7,7,4,2,0,7,1,1,5,1,1,4,1,1,1,4,0,0,0,0,0,0,0,0,0,0,0,0,0,0,0,0,0,0,0,0,0,0,0,0,0,0,0,0,0,0,0,0,0,0,0,0,0,0,0,0,0,0,0,0,0,0,0,0,0,0,0,0],"split_type":[0,0,0,0,0,0,0,0,0,0,0,0,0,0,0,0,0,0,0,0,0,0,0,0,0,0,0,0,0,0,0,0,0,0,0,0,0,0,0,0,0,0,0,0,0,0,0,0,0,0,0,0,0,0,0,0,0,0,0,0,0,0,0,0,0,0,0,0,0,0,0,0,0,0,0,0,0,0,0,0,0,0,0,0,0,0,0,0,0,0,0,0,0,0,0,0,0,0,0,0,0,0,0,0,0,0,0,0,0,0,0,0,0],"sum_hessian":[1.8116342E3,7.863252E2,1.025309E3,1.4571844E2,6.4060675E2,6.3281586E2,3.9249316E2,8.205331E0,1.375131E2,2.6021518E2,3.8039157E2,4.5098093E2,1.8183493E2,3.0564758E2,8.684557E1,4.205803E0,3.9995275E0,1.1641974E2,2.1093378E1,5.5990356E1,2.0422482E2,4.6823277E1,3.3356827E2,2.598634E2,1.9111754E2,4.3059E1,1.3877592E2,2.425666E2,6.3080982E1,4.6257797E1,4.0587772E1,1.3666106E0,2.8391924E0,1.4997449E0,2.4997826E0,1.8426975E1,9.799276E1,7.0057096E0,4.8984646E1,1.6381485E2,4.0409985E1,3.940629E1,7.416989E0,2.4887623E1,3.0868066E2,5.8782104E1,2.010813E2,1.9996702E1,1.7112083E2,3.183972E1,1.1219277E1,2.2379763E1,1.16396164E2,1.23357834E2,1.1920876E2,4.97942E1,1.328678E1,3.8787056E1,7.4707427E0,1.7110579E1,2.3477196E1,1.3153758E1,5.2732177E0,3.034719E1,6.764557E1,4.4171734E0,2.5885363E0,3.966746E1,9.317183E0,7.6519623E0,1.5616289E2,2.2793736E0,3.813061E1,3.7057495E1,2.3487928E0,2.6691046E0,4.7478843E0,1.4478097E0,2.3439814E1,1.7421017E2,1.3447047E2,5.5407917E1,3.3741896E0,3.4748795E1,1.663325E2,1.8793766E1,1.2029375E0,1.0040417E2,7.071666E1,3.0397545E1,1.4421762E0,1.3113617E0,9.907916E0,1.211722E1,1.0262543E1,3.282335E1,8.3572815E1,4.492062E1,7.843722E1,1.4354258E0,1.1777334E2,1.992698E1,2.9867222E1,2.3207486E0,1.0966032E1,3.463546E1,4.151596E0,1.5772299E0,5.8935127E0,1.0582732E1,6.5278454E0,2.1263945E1,2.2132509E0],"tree_param":{"num_deleted":"0","num_feature":"8","num_nodes":"113","size_leaf_vector":"1"}},{"base_weights":[-1.1049285E-1,-7.062602E-2,-2.4301714E-1,-4.6633378E-2,-2.1726045E-1,-2.7453876E-1,-4.9901914E-2,-1.7165871E-2,-1.1999728E-1,5.930491E-2,-2.742504E-1,-2.5519496E-1,-4.7854298E-1,-2.4153951E-1,5.308242E-2,1.6978939E-1,-4.1269656E-2,1.0675763E-2,-1.8164422E-1,-1.7541896E-1,2.4570492E-1,-1.7374976E-1,-3.7221742E-1,-4.6619752E-1,-2.3341848E-1,-5.80601E-1,-2.3885664E-1,1.8137512E-1,-3.906406E-1,2.9486582E-1,-2.2618747E-1,2.0733213E-1,-4.4613332E-1,1.15690865E-1,-6.0987987E-2,-2.5741625E-1,9.3367144E-2,-1.3066962E-1,-2.7061966E-1,-1.702565E-1,3.164089E-2,-1.514025E-2,4.4387534E-1,-1.1653194E-1,-5.134173E-1,-4.7157264E-1,-1.8190849E-1,-2.0065567E-1,-5.4035366E-1,-1.8455772E-1,-3.1935903E-1,-1.90236E-1,-1.8684006E-1,-1.5674828E-1,-2.7270714E-2,5.541806E-1,-1.293666E-1,-4.7332722E-1,-1.9105522E-2,-1.4206828E-1,4.1367835E-1,-4.2218757E-1,2.69475E-1,1.2917215E-1,2.2541102E-2,-1.6931239E-1,-1.222078E-2,3.2309105E-3,1.8149684E-1,1.4949659E-3,-3.180866E-2,-1.1155788E-1,3.2755528E-2,4.9633015E-2,-4.732906E-2,-2.3492442E-2,-9.428481E-2,-9.228478E-2,3.056106E-2,-1.385275E-1,5.776246E-2,8.760257E-2,-1.5621832E-1,2.1598016E-1,-5.723395E-3,-9.4296776E-2,-1.3709764E-3,1.7833801E-2,-1.769429E-1,-1.5616873E-1,-5.9652254E-2,-6.126367E-3,-1.3350025E-1,9.8967366E-2,-1.5896593E-1,-1.7342402E-1,-2.473241E-2,3.6017739E-3,-6.386722E-2,-8.159483E-2,-1.5760149E-1,-1.1837647E-1,3.4282584E-2,8.408921E-2,-5.367356E-2,2.3238361E-1,8.728737E-3,-1.0750242E-2,-1.5978809E-1,-1.3227978E-1,1.4199044E-1,1.9135381E-1,4.432074E-2,3.15955E-2,-1.4360733E-1,-5.9982095E-2,1.9658583E-1],"categories":[],"categories_nodes":[],"categories_segments":[],"categories_sizes":[],"default_left":[0,0,0,0,0,0,0,0,0,0,0,0,0,0,0,0,0,0,0,0,0,0,0,0,0,0,0,0,0,0,0,0,0,0,0,0,0,0,0,0,0,0,0,0,0,0,0,0,0,0,0,0,0,0,0,0,0,0,0,0,0,0,0,0,0,0,0,0,0,0,0,0,0,0,0,0,0,0,0,0,0,0,0,0,0,0,0,0,0,0,0,0,0,0,0,0,0,0,0,0,0,0,0,0,0,0,0,0,0,0,0,0,0,0,0,0,0],"id":7,"left_children":[1,3,5,7,9,11,13,15,17,19,21,23,25,27,29,31,33,35,37,39,41,43,45,47,49,51,53,55,57,59,61,63,65,67,69,71,73,75,77,-1,79,81,83,85,87,89,91,93,95,97,99,101,-1,-1,103,105,-1,107,109,-1,111,113,115,-1,-1,-1,-1,-1,-1,-1,-1,-1,-1,-1,-1,-1,-1,-1,-1,-1,-1,-1,-1,-1,-1,-1,-1,-1,-1,-1,-1,-1,-1,-1,-1,-1,-1,-1,-1,-1,-1,-1,-1,-1,-1,-1,-1,-1,-1,-1,-1,-1,-1,-1,-1,-1,-1],"loss_changes":[9.30748E0,4.7681384E0,2.4683514E0,2.5240023E0,3.02207E0,1.2602558E0,1.1661265E0,3.7688906E0,2.6979198E0,1.5046772E0,1.4939156E0,1.371233E0,5.7552767E-1,1.3702611E0,2.6886542E0,2.3015478E0,2.2981813E0,2.4231846E0,9.962373E-1,1.2657925E0,9.907223E-1,1.4952726E0,1.4133596E0,4.6519947E-1,1.1755066E0,2.0733309E-1,6.10986E-1,1.6216513E0,4.6874762E-1,2.1356587E0,1.9192463E0,2.6451402E0,2.5530994E-1,4.252623E0,1.9566128E0,1.1221018E0,1.536481E0,1.3842516E0,1.1601381E0,0E0,9.626001E-1,1.578461E0,1.4004595E0,1.5436981E0,5.270376E-1,5.8408165E-1,1.2154868E0,1.5634274E0,3.3552027E-1,1.0595427E0,8.835907E-1,2.547548E-1,0E0,0E0,3.7765703E-1,4.6375299E-1,0E0,3.098569E-1,1.013211E0,0E0,1.0345831E0,4.5898533E-1,1.1953342E0,0E0,0E0,0E0,0E0,0E0,0E0,0E0,0E0,0E0,0E0,0E0,0E0,0E0,0E0,0E0,0E0,0E0,0E0,0E0,0E0,0E0,0E0,0E0,0E0,0E0,0E0,0E0,0E0,0E0,0E0,0E0,0E0,0E0,0E0,0E0,0E0,0E0,0E0,0E0,0E0,0E0,0E0,0E0,0E0,0E0,0E0,0E0,0E0,0E0,0E0,0E0,0E0,0E0,0E0],"parents":[2147483647,0,0,1,1,2,2,3,3,4,4,5,5,6,6,7,7,8,8,9,9,10,10,11,11,12,12,13,13,14,14,15,15,16,16,17,17,18,18,19,19,20,20,21,21,22,22,23,23,24,24,25,25,26,26,27,27,28,28,29,29,30,30,31,31,32,32,33,33,34,34,35,35,36,36,37,37,38,38,40,40,41,41,42,42,43,43,44,44,45,45,46,46,47,47,48,48,49,49,50,50,51,51,54,54,55,55,57,57,58,58,60,60,61,61,62,62],"right_children":[2,4,6,8,10,12,14,16,18,20,22,24,26,28,30,32,34,36,38,40,42,44,46,48,50,52,54,56,58,60,62,64,66,68,70,72,74,76,78,-1,80,82,84,86,88,90,92,94,96,98,100,102,-1,-1,104,106,-1,108,110,-1,112,114,116,-1,-1,-1,-1,-1,-1,-1,-1,-1,-1,-1,-1,-1,-1,-1,-1,-1,-1,-1,-1,-1,-1,-1,-1,-1,-1,-1,-1,-1,-1,-1,-1,-1,-1,-1,-1,-1,-1,-1,-1,-1,-1,-1,-1,-1,-1,-1,-1,-1,-1,-1,-1,-1,-1],"split_conditions":[1.8E1,2.1E1,2.1E1,1.8E0,1.1E0,6.7E1,3.8E1,9E0,2.5E1,1E0,4.4E1,7E0,7.2E1,8E-1,4.7E1,2E0,1.2E1,7E0,4.3E1,1.8E1,-5E-1,2.7E1,5.6E1,2E1,1.2E0,3E-1,1.2E1,4.6E1,6.2E1,5E0,6.2E1,1E1,5.6E1,6E-1,3.5E1,1.1E1,1.3E1,2.3E0,7.9E1,-1.702565E-1,1.8E1,1.3E0,5.9E1,8E0,1.2E0,1.3E0,-3E-1,1E0,1.9E1,1.7E1,6.9E1,1.3E0,-1.8684006E-1,-1.5674828E-1,2E1,8E0,-1.293666E-1,7E0,3E-1,-1.4206828E-1,1E-1,2.2E1,3.8E1,1.2917215E-1,2.2541102E-2,-1.6931239E-1,-1.222078E-2,3.2309105E-3,1.8149684E-1,1.4949659E-3,-3.180866E-2,-1.1155788E-1,3.2755528E-2,4.9633015E-2,-4.732906E-2,-2.3492442E-2,-9.428481E-2,-9.228478E-2,3.056106E-2,-1.385275E-1,5.776246E-2,8.760257E-2,-1.5621832E-1,2.1598016E-1,-5.723395E-3,-9.4296776E-2,-1.3709764E-3,1.7833801E-2,-1.769429E-1,-1.5616873E-1,-5.9652254E-2,-6.126367E-3,-1.3350025E-1,9.8967366E-2,-1.5896593E-1,-1.7342402E-1,-2.473241E-2,3.6017739E-3,-6.386722E-2,-8.159483E-2,-1.5760149E-1,-1.1837647E-1,3.4282584E-2,8.408921E-2,-5.367356E-2,2.3238361E-1,8.728737E-3,-1.0750242E-2,-1.5978809E-1,-1.3227978E-1,1.4199044E-1,1.9135381E-1,4.432074E-2,3.15955E-2,-1.4360733E-1,-5.9982095E-2,1.9658583E-1],"split_indices":[4,5,5,7,6,0,1,5,0,7,1,1,0,7,1,6,1,0,1,1,2,5,0,4,2,2,5,0,0,0,1,4,0,2,0,5,4,7,1,0,0,7,1,1,6,7,2,6,5,1,1,7,0,0,1,1,0,0,2,0,2,5,0,0,0,0,0,0,0,0,0,0,0,0,0,0,0,0,0,0,0,0,0,0,0,0,0,0,0,0,0,0,0,0,0,0,0,0,0,0,0,0,0,0,0,0,0,0,0,0,0,0,0,0,0,0,0],"split_type":[0,0,0,0,0,0,0,0,0,0,0,0,0,0,0,0,0,0,0,0,0,0,0,0,0,0,0,0,0,0,0,0,0,0,0,0,0,0,0,0,0,0,0,0,0,0,0,0,0,0,0,0,0,0,0,0,0,0,0,0,0,0,0,0,0,0,0,0,0,0,0,0,0,0,0,0,0,0,0,0,0,0,0,0,0,0,0,0,0,0,0,0,0,0,0,0,0,0,0,0,0,0,0,0,0,0,0,0,0,0,0,0,0,0,0,0,0],"sum_hessian":[1.7639203E3,1.357178E3,4.0674234E2,1.1674718E3,1.8970619E2,3.4930475E2,5.7437595E1,8.3379987E2,3.3367194E2,3.2405514E1,1.5730067E2,3.2110803E2,2.8196716E1,1.9606882E1,3.783071E1,9.453301E1,7.3926685E2,1.0722144E2,2.2645052E2,1.436957E1,1.8035942E1,7.901537E1,7.828531E1,2.8130445E1,2.9297757E2,1.8778519E1,9.418197E0,5.05429E0,1.4552592E1,2.0246264E1,1.7584448E1,8.9727196E1,4.8058195E0,8.196304E1,6.5730383E2,2.4777582E1,8.244386E1,1.4553894E2,8.091157E1,4.364257E0,1.0005313E1,8.185388E0,9.850555E0,6.87734E1,1.0241971E1,5.0462334E1,2.7822971E1,6.9498696E0,2.1180574E1,1.8879012E2,1.0418746E2,2.3692966E0,1.6409224E1,3.3961422E0,6.022054E0,3.201392E0,1.8528981E0,1.1679333E1,2.8732595E0,2.311396E0,1.7934868E1,1.2707679E1,4.8767695E0,3.253214E1,5.7195053E1,3.4170306E0,1.3887892E0,6.833241E1,1.3630629E1,2.6704837E2,3.9025543E2,1.887192E1,5.9056616E0,6.4323715E1,1.8120142E1,1.1435459E2,3.118435E1,7.3759796E1,7.1517706E0,2.0006173E0,8.004696E0,5.3547606E0,2.830627E0,5.8231373E0,4.027418E0,2.4205276E1,4.4568123E1,1.2311866E0,9.010784E0,4.200792E1,8.454416E0,1.790836E1,9.914613E0,2.660514E0,4.2893558E0,1.9325928E1,1.8546468E0,2.385682E1,1.649333E2,8.659143E1,1.7596031E1,1.2408053E0,1.1284913E0,1.7084477E0,4.3136063E0,1.9201127E0,1.2812792E0,1.5856011E0,1.0093731E1,1.6038425E0,1.269417E0,8.972963E0,8.961905E0,1.1458955E0,1.1561783E1,2.417351E0,2.4594183E0],"tree_param":{"num_deleted":"0","num_feature":"8","num_nodes":"117","size_leaf_vector":"1"}},{"base_weights":[1.17072664E-1,-1.259141E-1,2.9398993E-1,-2.741291E-1,8.561316E-3,2.130392E-1,5.083493E-1,-1.3971855E-1,-4.0884733E-1,1.3457027E-1,-1.13695435E-1,9.760982E-2,3.231637E-1,2.357916E-1,5.7986796E-1,-2.3790486E-1,2.0153902E-1,-5.598773E-1,-3.639959E-1,7.90117E-3,2.7441964E-1,-2.0869654E-1,1.6071446E-1,-9.1920584E-2,1.779667E-1,3.9216056E-1,2.0987749E-1,-1.6713919E-1,3.483786E-1,8.097588E-1,5.3145474E-1,1.2570494E-1,-2.9367092E-1,4.054956E-1,4.9809363E-2,-5.818454E-1,1.5940513E-2,-3.8931385E-1,-3.550989E-2,1.5471837E-1,-1.5611629E-1,5.584305E-1,1.5976827E-1,-1.6730714E-1,-4.4382834E-1,-1.7973803E-1,2.6408452E-1,-2.1268965E-1,1.0063821E-2,5.8250677E-2,2.649313E-1,2.7660885E-1,4.583279E-1,8.976172E-3,3.053008E-1,1.0531736E-1,-4.63055E-1,4.327214E-1,-1.4115873E-1,5.410549E-1,8.598935E-1,6.157512E-1,4.105854E-1,1.8204081E-1,-3.6236227E-2,-1.3644937E-1,-6.335019E-2,6.2066976E-2,2.7309713E-1,1.5160422E-1,-1.8092113E-2,-7.0885695E-3,-1.8160526E-1,-1.3500527E-1,-7.2944164E-2,-6.702399E-2,8.9712724E-2,-7.81104E-2,6.2175043E-2,-5.970287E-2,1.1893289E-1,3.7460793E-2,2.1029304E-1,1.2442357E-2,1.6923457E-1,-5.8109708E-2,2.4465036E-2,4.8541866E-2,-1.7660865E-1,4.364536E-2,-1.4552106E-1,9.552056E-2,-1.5467092E-1,-1.3437327E-2,-1.2087978E-1,6.060325E-2,-7.796623E-2,4.1626576E-2,-7.5514644E-2,-9.549966E-3,1.0382595E-1,2.559228E-2,1.0398255E-1,2.2774536E-2,1.498938E-1,-2.0283613E-2,2.4991669E-1,-3.6649134E-2,1.0472597E-1,-3.846398E-2,1.2537386E-1,-6.1946068E-2,-1.8980247E-1,1.6368249E-1,-3.841873E-3,1.323508E-1,-1.9413097E-1,2.0674685E-1,4.9616583E-3,1.1728939E-1,2.658628E-1,2.0162712E-1,1.3027552E-1,1.357146E-1,-5.998326E-2],"categories":[],"categories_nodes":[],"categories_segments":[],"categories_sizes":[],"default_left":[0,0,0,0,0,0,0,0,0,0,0,0,0,0,0,0,0,0,0,0,0,0,0,0,0,0,0,0,0,0,0,0,0,0,0,0,0,0,0,0,0,0,0,0,0,0,0,0,0,0,0,0,0,0,0,0,0,0,0,0,0,0,0,0,0,0,0,0,0,0,0,0,0,0,0,0,0,0,0,0,0,0,0,0,0,0,0,0,0,0,0,0,0,0,0,0,0,0,0,0,0,0,0,0,0,0,0,0,0,0,0,0,0,0,0,0,0,0,0,0,0,0,0,0,0],"id":8,"left_children":[1,3,5,7,9,11,13,15,17,19,21,23,25,27,29,31,33,35,37,39,41,43,45,47,49,51,53,55,57,59,61,63,65,67,69,71,-1,73,75,77,79,81,83,85,87,89,91,93,95,97,99,101,103,105,107,109,111,113,115,117,119,121,123,-1,-1,-1,-1,-1,-1,-1,-1,-1,-1,-1,-1,-1,-1,-1,-1,-1,-1,-1,-1,-1,-1,-1,-1,-1,-1,-1,-1,-1,-1,-1,-1,-1,-1,-1,-1,-1,-1,-1,-1,-1,-1,-1,-1,-1,-1,-1,-1,-1,-1,-1,-1,-1,-1,-1,-1,-1,-1,-1,-1,-1,-1],"loss_changes":[8.196369E1,1.6020267E1,1.903366E1,6.865923E0,6.521462E0,1.0168934E1,5.7436523E0,6.5114903E0,1.0861416E0,3.6900995E0,5.6357656E0,6.0051737E0,3.124218E0,2.9792168E0,2.2216263E0,3.0837526E0,1.3303636E0,5.930748E-1,1.2310257E0,2.6826234E0,3.1354823E0,1.4835191E0,2.01227E0,1.4522746E0,2.863062E0,1.8137131E0,3.0152955E0,1.2370124E0,2.1524034E0,6.7417145E-2,1.7822876E0,2.5257828E0,1.6401758E0,1.6641946E0,1.3429794E0,5.155754E-1,0E0,1.1227627E0,8.09325E-1,1.3351531E0,1.3265843E0,1.6478758E0,3.4181957E0,9.202759E-1,2.1442313E0,1.4208955E0,1.9949682E0,1.7051983E0,3.409603E0,2.9699218E0,3.8612442E0,1.2417188E0,2.4880333E0,3.3210201E0,2.0398006E0,6.73203E-1,1.8488157E-1,2.1924067E0,2.7008674E0,6.810868E-1,4.3800354E-2,8.909302E-1,2.2612057E0,0E0,0E0,0E0,0E0,0E0,0E0,0E0,0E0,0E0,0E0,0E0,0E0,0E0,0E0,0E0,0E0,0E0,0E0,0E0,0E0,0E0,0E0,0E0,0E0,0E0,0E0,0E0,0E0,0E0,0E0,0E0,0E0,0E0,0E0,0E0,0E0,0E0,0E0,0E0,0E0,0E0,0E0,0E0,0E0,0E0,0E0,0E0,0E0,0E0,0E0,0E0,0E0,0E0,0E0,0E0,0E0,0E0,0E0,0E0,0E0,0E0,0E0],"parents":[2147483647,0,0,1,1,2,2,3,3,4,4,5,5,6,6,7,7,8,8,9,9,10,10,11,11,12,12,13,13,14,14,15,15,16,16,17,17,18,18,19,19,20,20,21,21,22,22,23,23,24,24,25,25,26,26,27,27,28,28,29,29,30,30,31,31,32,32,33,33,34,34,35,35,37,37,38,38,39,39,40,40,41,41,42,42,43,43,44,44,45,45,46,46,47,47,48,48,49,49,50,50,51,51,52,52,53,53,54,54,55,55,56,56,57,57,58,58,59,59,60,60,61,61,62,62],"right_children":[2,4,6,8,10,12,14,16,18,20,22,24,26,28,30,32,34,36,38,40,42,44,46,48,50,52,54,56,58,60,62,64,66,68,70,72,-1,74,76,78,80,82,84,86,88,90,92,94,96,98,100,102,104,106,108,110,112,114,116,118,120,122,124,-1,-1,-1,-1,-1,-1,-1,-1,-1,-1,-1,-1,-1,-1,-1,-1,-1,-1,-1,-1,-1,-1,-1,-1,-1,-1,-1,-1,-1,-1,-1,-1,-1,-1,-1,-1,-1,-1,-1,-1,-1,-1,-1,-1,-1,-1,-1,-1,-1,-1,-1,-1,-1,-1,-1,-1,-1,-1,-1,-1,-1,-1],"split_conditions":[2E-1,-2E-1,1E0,1.9E1,1.3E0,1.6E0,1.4E0,1.2E1,8E0,1.3E1,1.8E0,1.2E1,1.4E0,1.9E1,6E0,1.4E1,4.8E1,7.2E1,7.4E1,4.4E1,1.3E1,1.9E0,7E0,1E1,1.3E0,1.8E0,4E-1,1.5E1,1.3E0,2E0,1.1E0,1.4E0,6E0,3.8E1,1E0,1E0,1.5940513E-2,1.2E0,1.4E0,1E0,6.5E1,0E0,2E1,1.6E1,1E1,1.7E0,2.9E0,4E-1,1.3E1,6.2E1,1E1,2.7E1,1E1,2.5E0,1.2E1,5.8E1,1.7E1,1.9E1,4E1,1.3E0,6E0,1.3E1,7.2E1,1.8204081E-1,-3.6236227E-2,-1.3644937E-1,-6.335019E-2,6.2066976E-2,2.7309713E-1,1.5160422E-1,-1.8092113E-2,-7.0885695E-3,-1.8160526E-1,-1.3500527E-1,-7.2944164E-2,-6.702399E-2,8.9712724E-2,-7.81104E-2,6.2175043E-2,-5.970287E-2,1.1893289E-1,3.7460793E-2,2.1029304E-1,1.2442357E-2,1.6923457E-1,-5.8109708E-2,2.4465036E-2,4.8541866E-2,-1.7660865E-1,4.364536E-2,-1.4552106E-1,9.552056E-2,-1.5467092E-1,-1.3437327E-2,-1.2087978E-1,6.060325E-2,-7.796623E-2,4.1626576E-2,-7.5514644E-2,-9.549966E-3,1.0382595E-1,2.559228E-2,1.0398255E-1,2.2774536E-2,1.498938E-1,-2.0283613E-2,2.4991669E-1,-3.6649134E-2,1.0472597E-1,-3.846398E-2,1.2537386E-1,-6.1946068E-2,-1.8980247E-1,1.6368249E-1,-3.841873E-3,1.323508E-1,-1.9413097E-1,2.0674685E-1,4.9616583E-3,1.1728939E-1,2.658628E-1,2.0162712E-1,1.3027552E-1,1.357146E-1,-5.998326E-2],"split_indices":[2,2,2,5,6,7,7,4,4,4,7,4,6,4,5,0,1,1,0,1,5,6,4,4,7,7,2,4,6,7,6,6,4,1,6,0,0,7,6,6,0,2,4,4,5,6,7,2,5,0,5,0,4,7,0,1,1,5,1,6,0,5,0,0,0,0,0,0,0,0,0,0,0,0,0,0,0,0,0,0,0,0,0,0,0,0,0,0,0,0,0,0,0,0,0,0,0,0,0,0,0,0,0,0,0,0,0,0,0,0,0,0,0,0,0,0,0,0,0,0,0,0,0,0,0],"split_type":[0,0,0,0,0,0,0,0,0,0,0,0,0,0,0,0,0,0,0,0,0,0,0,0,0,0,0,0,0,0,0,0,0,0,0,0,0,0,0,0,0,0,0,0,0,0,0,0,0,0,0,0,0,0,0,0,0,0,0,0,0,0,0,0,0,0,0,0,0,0,0,0,0,0,0,0,0,0,0,0,0,0,0,0,0,0,0,0,0,0,0,0,0,0,0,0,0,0,0,0,0,0,0,0,0,0,0,0,0,0,0,0,0,0,0,0,0,0,0,0,0,0,0,0,0],"sum_hessian":[1.9047788E3,8.0265784E2,1.102121E3,3.8132913E2,4.213287E2,8.0145374E2,3.0066727E2,1.9190228E2,1.8942686E2,2.0743083E2,2.1389786E2,3.92223E2,4.0923074E2,6.3388916E1,2.3727835E2,1.4926015E2,4.2642136E1,4.074424E1,1.4868263E2,1.0939888E2,9.803196E1,1.5906781E2,5.4830044E1,1.16738556E2,2.7548444E2,2.5280086E2,1.5642989E2,1.3738064E1,4.9650852E1,3.854079E1,1.9873756E2,1.968094E1,1.2957921E2,1.747695E1,2.5165186E1,3.9383713E1,1.3605273E0,1.3787108E2,1.0811539E1,5.775619E1,5.1642693E1,2.7079866E1,7.095209E1,1.3671407E2,2.2353743E1,1.2598317E1,4.2231728E1,5.2950047E1,6.378851E1,1.1661766E2,1.5886678E2,9.393582E1,1.5886505E2,5.0726326E1,1.0570356E2,7.4878883E0,6.2501755E0,4.24527E1,7.1981516E0,7.914415E0,3.0626377E1,1.1467017E2,8.406738E1,6.1722817E0,1.3508658E1,4.234697E1,8.723223E1,1.3554329E1,3.92262E0,4.200213E0,2.0964973E1,1.6723871E0,3.7711327E1,9.594563E1,4.1925453E1,7.135848E0,3.6756914E0,6.0438166E0,5.171237E1,4.8516373E1,3.1263187E0,7.16455E0,1.9915318E1,5.574591E1,1.5206179E1,1.23805824E2,1.2908241E1,4.292307E0,1.8061436E1,6.3539596E0,6.244357E0,4.0034214E1,2.197512E0,2.8783052E1,2.4166992E1,3.742757E1,2.636094E1,9.301271E1,2.3604954E1,3.424585E1,1.2462092E2,2.5758738E1,6.8177086E1,1.5767645E1,1.430974E2,4.7252712E1,3.4736137E0,9.655019E0,9.6048546E1,4.623588E0,2.8643003E0,3.3700163E0,2.8801594E0,3.369141E1,8.761292E0,3.405985E0,3.7921665E0,5.9269924E0,1.9874221E0,2.4699621E0,2.8156416E1,8.544444E1,2.9225737E1,7.892336E1,5.1440277E0],"tree_param":{"num_deleted":"0","num_feature":"8","num_nodes":"125","size_leaf_vector":"1"}},{"base_weights":[-1.357903E-2,1.5383546E-1,-1.9143027E-1,4.366711E-1,1.0082389E-1,-2.8127366E-1,-3.85897E-2,3.9037994E-1,2.073523E-1,6.4331725E-2,3.3077732E-1,-2.2174326E-1,-4.6090767E-1,-2.75577E-1,7.268527E-2,3.3528224E-1,5.791196E-1,-1.7149111E-2,1.6649884E-1,4.323428E-1,3.4393262E-2,-1.7809221E-1,-3.965619E-1,-4.9998918E-1,-3.392173E-1,-5.265003E-1,-2.1141784E-1,1.2855377E-2,2.9018223E-1,2.6858407E-1,5.801848E-1,6.445952E-1,1.4733303E-1,-2.8792343E-1,1.3029295E-2,2.2395812E-1,-5.797863E-3,1.8101506E-1,5.8576226E-1,2.4896759E-1,-2.707529E-1,1.8781061E-1,-2.0143875E-1,-4.7973877E-1,-2.4944083E-1,-4.049508E-1,-5.2779585E-1,2.5228363E-1,-4.466867E-1,-2.652373E-1,-1.7971693E-1,2.4308856E-1,-2.5509337E-1,5.456366E-2,-3.751574E-1,2.0221794E-1,6.615825E-1,5.1516097E-2,1.0947264E-1,-5.2551415E-2,2.0914303E-1,1.13515496E-1,2.2332889E-1,-5.371498E-2,1.5716518E-1,-1.0862281E-1,1.0525686E-1,-1.275833E-2,4.8911944E-2,8.179517E-2,1.522778E-2,1.27411615E-2,-1.9922024E-1,5.073344E-3,2.2420037E-1,2.0985171E-1,1.2444508E-1,1.2999599E-1,6.1335335E-3,-1.2285351E-1,5.559433E-2,1.5984511E-1,-2.6434394E-2,-1.02266304E-1,-4.8133373E-2,-1.6204062E-1,-3.5305306E-2,4.883443E-2,-9.783421E-2,-1.66251E-1,-7.636043E-2,-1.6444762E-1,-1.10977195E-1,2.1205273E-1,-6.8388246E-2,-4.6880636E-3,-1.4940745E-1,3.913887E-2,-1.5315686E-1,2.064908E-1,3.0450427E-3,-9.812158E-2,-7.7620936E-3,4.9460564E-2,-2.7939891E-2,-1.24675274E-1,2.677203E-2,-4.426663E-3,1.2057985E-1,-3.912557E-2,2.6637533E-1],"categories":[],"categories_nodes":[],"categories_segments":[],"categories_sizes":[],"default_left":[0,0,0,0,0,0,0,0,0,0,0,0,0,0,0,0,0,0,0,0,0,0,0,0,0,0,0,0,0,0,0,0,0,0,0,0,0,0,0,0,0,0,0,0,0,0,0,0,0,0,0,0,0,0,0,0,0,0,0,0,0,0,0,0,0,0,0,0,0,0,0,0,0,0,0,0,0,0,0,0,0,0,0,0,0,0,0,0,0,0,0,0,0,0,0,0,0,0,0,0,0,0,0,0,0,0,0,0,0,0,0],"id":9,"left_children":[1,3,5,7,9,11,13,15,-1,17,19,21,23,25,27,29,31,33,35,37,39,41,43,45,47,49,51,53,55,57,59,61,63,65,67,69,71,73,75,77,79,81,83,85,87,89,91,93,95,97,-1,99,101,103,105,107,109,-1,-1,-1,-1,-1,-1,-1,-1,-1,-1,-1,-1,-1,-1,-1,-1,-1,-1,-1,-1,-1,-1,-1,-1,-1,-1,-1,-1,-1,-1,-1,-1,-1,-1,-1,-1,-1,-1,-1,-1,-1,-1,-1,-1,-1,-1,-1,-1,-1,-1,-1,-1,-1,-1],"loss_changes":[5.2317604E1,1.3527473E1,1.1688042E1,1.409872E0,6.3863134E0,5.633892E0,8.367998E0,1.0841904E0,0E0,5.49916E0,3.1259527E0,3.0185032E0,4.609642E-1,1.5204029E0,2.809729E0,1.4372377E0,6.514597E-1,3.0126226E0,2.9023066E0,2.8869715E0,1.8821421E0,2.8205233E0,8.601284E-1,4.5907974E-2,2.3592167E0,2.1961737E-1,1.6974635E0,2.7814968E0,1.3885589E0,6.69899E-1,1.8902464E0,3.1974316E-1,6.8036914E-1,1.8780291E0,2.7759297E0,1.8396006E0,2.3876522E0,2.856268E0,6.3832474E-1,6.986439E-1,8.3034676E-1,1.9561145E0,1.6985235E0,1.0312319E0,1.032923E0,4.5453072E-1,3.0975342E-2,1.4868163E0,6.620326E-1,6.6201925E-1,0E0,7.951832E-1,1.2397189E0,2.539307E0,3.503542E-1,1.7008857E0,1.6364126E0,0E0,0E0,0E0,0E0,0E0,0E0,0E0,0E0,0E0,0E0,0E0,0E0,0E0,0E0,0E0,0E0,0E0,0E0,0E0,0E0,0E0,0E0,0E0,0E0,0E0,0E0,0E0,0E0,0E0,0E0,0E0,0E0,0E0,0E0,0E0,0E0,0E0,0E0,0E0,0E0,0E0,0E0,0E0,0E0,0E0,0E0,0E0,0E0,0E0,0E0,0E0,0E0,0E0,0E0],"parents":[2147483647,0,0,1,1,2,2,3,3,4,4,5,5,6,6,7,7,9,9,10,10,11,11,12,12,13,13,14,14,15,15,16,16,17,17,18,18,19,19,20,20,21,21,22,22,23,23,24,24,25,25,26,26,27,27,28,28,29,29,30,30,31,31,32,32,33,33,34,34,35,35,36,36,37,37,38,38,39,39,40,40,41,41,42,42,43,43,44,44,45,45,46,46,47,47,48,48,49,49,51,51,52,52,53,53,54,54,55,55,56,56],"right_children":[2,4,6,8,10,12,14,16,-1,18,20,22,24,26,28,30,32,34,36,38,40,42,44,46,48,50,52,54,56,58,60,62,64,66,68,70,72,74,76,78,80,82,84,86,88,90,92,94,96,98,-1,100,102,104,106,108,110,-1,-1,-1,-1,-1,-1,-1,-1,-1,-1,-1,-1,-1,-1,-1,-1,-1,-1,-1,-1,-1,-1,-1,-1,-1,-1,-1,-1,-1,-1,-1,-1,-1,-1,-1,-1,-1,-1,-1,-1,-1,-1,-1,-1,-1,-1,-1,-1,-1,-1,-1,-1,-1,-1],"split_conditions":[2E-1,-7E-1,1.3E1,2.1E0,1.8E0,1E0,1E0,2.7E1,2.073523E-1,1.7E1,1.8E0,2.1E0,1.3E0,7E-1,6.6E1,6.6E1,7E1,8E0,1.6E1,6E0,7E0,7E0,5.3E1,1.9E1,1.3E0,1.1E0,9E-1,1.1E0,1.9E1,4.8E1,7E0,1.3E0,-9E-1,7.4E1,1.5E0,6.2E1,7.2E1,1.7E0,9E0,5.6E1,1.5E1,1.5E0,1.9E1,1.7E0,5.7E1,8E0,1.9E0,5E1,1.2E1,1E1,-1.7971693E-1,2.8E1,1.9E1,1.5E0,2.7E1,4.5E1,1.2E0,5.1516097E-2,1.0947264E-1,-5.2551415E-2,2.0914303E-1,1.13515496E-1,2.2332889E-1,-5.371498E-2,1.5716518E-1,-1.0862281E-1,1.0525686E-1,-1.275833E-2,4.8911944E-2,8.179517E-2,1.522778E-2,1.27411615E-2,-1.9922024E-1,5.073344E-3,2.2420037E-1,2.0985171E-1,1.2444508E-1,1.2999599E-1,6.1335335E-3,-1.2285351E-1,5.559433E-2,1.5984511E-1,-2.6434394E-2,-1.02266304E-1,-4.8133373E-2,-1.6204062E-1,-3.5305306E-2,4.883443E-2,-9.783421E-2,-1.66251E-1,-7.636043E-2,-1.6444762E-1,-1.10977195E-1,2.1205273E-1,-6.8388246E-2,-4.6880636E-3,-1.4940745E-1,3.913887E-2,-1.5315686E-1,2.064908E-1,3.0450427E-3,-9.812158E-2,-7.7620936E-3,4.9460564E-2,-2.7939891E-2,-1.24675274E-1,2.677203E-2,-4.426663E-3,1.2057985E-1,-3.912557E-2,2.6637533E-1],"split_indices":[2,2,5,6,6,2,6,5,0,5,7,7,6,6,0,0,0,5,4,4,4,4,0,4,7,7,7,2,5,1,1,6,2,0,6,1,0,7,4,0,5,7,0,6,0,5,2,0,1,0,0,0,5,7,4,1,6,0,0,0,0,0,0,0,0,0,0,0,0,0,0,0,0,0,0,0,0,0,0,0,0,0,0,0,0,0,0,0,0,0,0,0,0,0,0,0,0,0,0,0,0,0,0,0,0,0,0,0,0,0,0],"split_type":[0,0,0,0,0,0,0,0,0,0,0,0,0,0,0,0,0,0,0,0,0,0,0,0,0,0,0,0,0,0,0,0,0,0,0,0,0,0,0,0,0,0,0,0,0,0,0,0,0,0,0,0,0,0,0,0,0,0,0,0,0,0,0,0,0,0,0,0,0,0,0,0,0,0,0,0,0,0,0,0,0,0,0,0,0,0,0,0,0,0,0,0,0,0,0,0,0,0,0,0,0,0,0,0,0,0,0,0,0,0,0],"sum_hessian":[1.7551168E3,9.041549E2,8.5096185E2,1.4157335E2,7.6258154E2,5.3540027E2,3.1556158E2,1.2192965E2,1.9643707E1,6.592435E2,1.0333802E2,4.038121E2,1.315882E2,1.00354836E2,2.1520674E2,9.652738E1,2.5402262E1,3.6721362E2,2.920299E2,7.662224E1,2.6715782E1,3.2474432E2,7.9067764E1,9.724783E1,3.434036E1,1.896755E1,8.138728E1,1.6960913E2,4.559762E1,7.751359E1,1.9013794E1,2.1629532E1,3.7727315E0,3.596637E1,3.3124725E2,2.187718E2,7.325811E1,2.9869947E1,4.6752293E1,1.5793868E1,1.0921914E1,1.9055109E1,3.056892E2,4.906651E1,3.0001253E1,2.5535389E1,7.171245E1,5.0727806E0,2.9267576E1,5.1345334E0,1.3833017E1,6.734926E0,7.465236E1,1.53923E2,1.5686121E1,3.8114796E1,7.482825E0,4.0036133E1,3.7477455E1,2.4826057E0,1.6531187E1,7.2056527E0,1.4423878E1,2.3019612E0,1.4707704E0,3.26136E1,3.3527677E0,2.4224663E2,8.900062E1,1.7031572E2,4.8456093E1,6.912492E1,4.133186E0,2.3957561E1,5.912385E0,2.621644E1,2.0535854E1,8.245735E0,7.5481334E0,8.452359E0,2.469555E0,8.053856E0,1.1001252E1,6.7786385E1,2.3790283E2,4.1630066E1,7.4364424E0,4.52895E0,2.5472303E1,1.1471209E1,1.4064179E1,6.132975E1,1.0382695E1,2.3636813E0,2.7090995E0,3.2535527E0,2.6014025E1,2.1439629E0,2.9905705E0,1.6419003E0,5.093026E0,5.6487507E1,1.8164852E1,8.804885E1,6.587415E1,1.4526654E1,1.1594671E0,1.871195E1,1.9402845E1,1.7573206E0,5.7255044E0],"tree_param":{"num_deleted":"0","num_feature":"8","num_nodes":"111","size_leaf_vector":"1"}},{"base_weights":[-8.3866745E-2,-5.160136E-2,-1.9596258E-1,-3.143261E-2,-1.8002239E-1,-3.9664302E-2,-2.276017E-1,1.2165446E-2,-7.158524E-2,4.6336345E-2,-2.2900118E-1,-2.977241E-1,3.5591614E-2,-4.6974182E-1,-2.0360401E-1,2.5474347E-2,-4.2327058E-1,-4.5396067E-2,-2.133734E-1,-3.458182E-1,1.3417277E-1,-1.3519406E-1,-3.2430717E-1,1.1821215E-1,-5.0418127E-1,7.2627753E-1,-9.918571E-2,-4.9681777E-1,-8.076608E-3,-2.165989E-1,6.562477E-2,7.470047E-3,2.3058106E-1,-5.092674E-1,2.8476069E-2,-3.0537624E-2,-3.0321115E-1,-4.2954862E-1,-1.4289866E-1,-1.7453943E-1,2.8294964E-2,-1.0331391E-2,4.212417E-1,4.722467E-2,-2.3059991E-1,-4.2605162E-1,-1.4146708E-1,4.2308137E-1,-1.2655635E-1,-1.7663375E-1,2.386076E-2,1.0346519E0,2.25539E-1,-2.1882473E-1,1.23989515E-1,-1.8090099E-1,-2.954994E-1,-1.9161592E-1,-4.0976477E-1,-1.3091546E-1,2.4335447E-1,6.201524E-3,-8.8210456E-2,1.7995617E-1,-4.012179E-2,-1.6904046E-1,-1.606945E-2,3.2552954E-2,-1.9877996E-2,-1.2817839E-1,5.3515386E-2,-1.6284691E-1,6.1128423E-2,1.8597974E-2,-7.681656E-2,1.11553065E-1,-4.9142305E-2,-4.968938E-2,1.8322918E-1,-1.3161889E-1,6.561125E-2,-8.622776E-2,7.1418636E-2,-1.5226448E-1,-7.4004576E-2,-9.5497206E-2,3.1069176E-2,-1.0759894E-1,2.4953307E-1,3.2419693E-2,3.8361138E-1,1.6308054E-1,-5.0508928E-2,-8.5623816E-2,1.19919926E-1,1.8614279E-1,-1.2247384E-2,2.2501506E-2,-1.5890835E-1,-1.6195875E-1,-5.416998E-2,3.7907496E-2,-1.4568551E-1,-9.261057E-2,1.4755775E-1],"categories":[],"categories_nodes":[],"categories_segments":[],"categories_sizes":[],"default_left":[0,0,0,0,0,0,0,0,0,0,0,0,0,0,0,0,0,0,0,0,0,0,0,0,0,0,0,0,0,0,0,0,0,0,0,0,0,0,0,0,0,0,0,0,0,0,0,0,0,0,0,0,0,0,0,0,0,0,0,0,0,0,0,0,0,0,0,0,0,0,0,0,0,0,0,0,0,0,0,0,0,0,0,0,0,0,0,0,0,0,0,0,0,0,0,0,0,0,0,0,0,0,0,0,0],"id":10,"left_children":[1,3,5,7,9,11,13,15,17,19,21,23,25,27,29,31,33,35,37,39,41,43,45,47,49,51,53,55,-1,57,59,61,63,65,-1,67,69,71,73,-1,-1,75,77,79,81,83,85,87,-1,-1,-1,89,91,93,95,-1,97,99,101,103,-1,-1,-1,-1,-1,-1,-1,-1,-1,-1,-1,-1,-1,-1,-1,-1,-1,-1,-1,-1,-1,-1,-1,-1,-1,-1,-1,-1,-1,-1,-1,-1,-1,-1,-1,-1,-1,-1,-1,-1,-1,-1,-1,-1,-1],"loss_changes":[6.173725E0,3.4364903E0,1.8789196E0,2.013671E0,2.008173E0,1.2823151E0,1.7481022E0,3.2103004E0,2.213446E0,1.1790493E0,1.281949E0,1.3383836E0,4.8746433E0,3.2048607E-1,1.0303822E0,1.9800916E0,7.8055E-1,1.9314688E0,1.3565478E0,7.088859E-1,1.1486733E0,1.3413928E0,1.2948399E0,1.1251853E0,5.476413E-1,1.0859318E0,1.2032311E0,3.8154554E-1,0E0,1.2597351E0,2.1783235E0,1.9739581E0,5.9020185E0,3.2176995E-1,0E0,2.3920276E0,1.7188025E0,1.7163601E0,1.6779399E0,0E0,0E0,1.1944205E0,1.131158E0,2.3527958E0,1.4097829E0,5.5166435E-1,1.2264315E0,1.6320448E0,0E0,0E0,0E0,9.9447775E-1,6.5969354E-1,1.3100904E0,1.335448E0,0E0,9.944283E-1,8.545971E-1,1.3171439E0,1.4862512E0,0E0,0E0,0E0,0E0,0E0,0E0,0E0,0E0,0E0,0E0,0E0,0E0,0E0,0E0,0E0,0E0,0E0,0E0,0E0,0E0,0E0,0E0,0E0,0E0,0E0,0E0,0E0,0E0,0E0,0E0,0E0,0E0,0E0,0E0,0E0,0E0,0E0,0E0,0E0,0E0,0E0,0E0,0E0,0E0,0E0],"parents":[2147483647,0,0,1,1,2,2,3,3,4,4,5,5,6,6,7,7,8,8,9,9,10,10,11,11,12,12,13,13,14,14,15,15,16,16,17,17,18,18,19,19,20,20,21,21,22,22,23,23,24,24,25,25,26,26,27,27,29,29,30,30,31,31,32,32,33,33,35,35,36,36,37,37,38,38,41,41,42,42,43,43,44,44,45,45,46,46,47,47,51,51,52,52,53,53,54,54,56,56,57,57,58,58,59,59],"right_children":[2,4,6,8,10,12,14,16,18,20,22,24,26,28,30,32,34,36,38,40,42,44,46,48,50,52,54,56,-1,58,60,62,64,66,-1,68,70,72,74,-1,-1,76,78,80,82,84,86,88,-1,-1,-1,90,92,94,96,-1,98,100,102,104,-1,-1,-1,-1,-1,-1,-1,-1,-1,-1,-1,-1,-1,-1,-1,-1,-1,-1,-1,-1,-1,-1,-1,-1,-1,-1,-1,-1,-1,-1,-1,-1,-1,-1,-1,-1,-1,-1,-1,-1,-1,-1,-1,-1,-1],"split_conditions":[1.8E1,2.1E1,1.1E0,4.2E1,1.1E0,1E1,9E0,7.9E1,1.7E0,8E0,4.4E1,9E-1,3.5E1,2.9E1,2.2E1,9E-1,3E-1,1E0,-3E-1,4.5E1,-3E-1,1E1,5.6E1,1E0,1.1E0,2.2E1,2.3E1,1.2E0,-8.076608E-3,1.4E0,1.3E0,1.7E1,1.7E0,1.9E1,2.8476069E-2,1E1,7E1,2E1,5.5E1,-1.7453943E-1,2.8294964E-2,2.2E1,1.3E1,-1.1E0,4.1E1,-4E-1,2.5E1,5E0,-1.2655635E-1,-1.7663375E-1,2.386076E-2,6E0,1.9E1,7.2E1,4.1E1,-1.8090099E-1,2.2E1,5E0,6E0,6.2E1,2.4335447E-1,6.201524E-3,-8.8210456E-2,1.7995617E-1,-4.012179E-2,-1.6904046E-1,-1.606945E-2,3.2552954E-2,-1.9877996E-2,-1.2817839E-1,5.3515386E-2,-1.6284691E-1,6.1128423E-2,1.8597974E-2,-7.681656E-2,1.11553065E-1,-4.9142305E-2,-4.968938E-2,1.8322918E-1,-1.3161889E-1,6.561125E-2,-8.622776E-2,7.1418636E-2,-1.5226448E-1,-7.4004576E-2,-9.5497206E-2,3.1069176E-2,-1.0759894E-1,2.4953307E-1,3.2419693E-2,3.8361138E-1,1.6308054E-1,-5.0508928E-2,-8.5623816E-2,1.19919926E-1,1.8614279E-1,-1.2247384E-2,2.2501506E-2,-1.5890835E-1,-1.6195875E-1,-5.416998E-2,3.7907496E-2,-1.4568551E-1,-9.261057E-2,1.4755775E-1],"split_indices":[4,5,7,1,6,0,1,0,6,1,1,7,0,4,5,2,2,2,2,0,2,4,0,2,2,5,4,2,0,6,6,4,7,5,0,5,0,5,1,0,0,5,0,2,1,2,5,0,0,0,0,1,4,0,0,0,4,5,5,1,0,0,0,0,0,0,0,0,0,0,0,0,0,0,0,0,0,0,0,0,0,0,0,0,0,0,0,0,0,0,0,0,0,0,0,0,0,0,0,0,0,0,0,0,0],"split_type":[0,0,0,0,0,0,0,0,0,0,0,0,0,0,0,0,0,0,0,0,0,0,0,0,0,0,0,0,0,0,0,0,0,0,0,0,0,0,0,0,0,0,0,0,0,0,0,0,0,0,0,0,0,0,0,0,0,0,0,0,0,0,0,0,0,0,0,0,0,0,0,0,0,0,0,0,0,0,0,0,0,0,0,0,0,0,0,0,0,0,0,0,0,0,0,0,0,0,0,0,0,0,0,0,0],"sum_hessian":[1.7087462E3,1.3279677E3,3.807786E2,1.1487925E3,1.7917516E2,6.448323E1,3.1629538E2,5.511003E2,5.976922E2,3.188242E1,1.4729274E2,1.3891562E1,5.0591663E1,2.6845554E1,2.8944983E2,5.3566925E2,1.5430988E1,5.0562097E2,9.2071236E1,5.2968826E0,2.6585537E1,7.544892E1,7.184382E1,4.7498217E0,9.141742E0,7.543775E0,4.304789E1,2.518377E1,1.6617863E0,2.763087E2,1.3141132E1,4.933954E2,4.2273907E1,1.3249394E1,2.1815941E0,4.7912634E2,2.649464E1,2.1383646E1,7.0687584E1,3.2386205E0,2.058262E0,1.8325098E1,8.260439E0,2.6082825E1,4.93661E1,4.5303654E1,2.6540161E1,3.1744485E0,1.5753729E0,7.9769697E0,1.1647718E0,4.0087676E0,3.5350072E0,2.8037264E1,1.5010626E1,1.5181176E1,1.0002592E1,2.4642894E2,2.9879747E1,1.1052049E1,2.0890841E0,4.7359018E2,1.9805191E1,2.0673191E1,2.1600718E1,1.1629688E1,1.6197056E0,9.7515335E1,3.8161102E2,2.1157644E1,5.3369946E0,1.8260447E1,3.1232E0,2.5310375E1,4.5377213E1,4.8428917E0,1.3482206E1,2.047189E0,6.21325E0,6.3967195E0,1.9686106E1,4.437257E1,4.993528E0,2.9892416E1,1.5411238E1,1.5240705E1,1.1299457E1,1.1318631E0,2.0425854E0,1.136532E0,2.8722358E0,1.7455171E0,1.78949E0,2.5798616E1,2.2386465E0,3.0520182E0,1.1958608E1,4.1371756E0,5.8654165E0,6.106553E0,2.4032239E2,3.6210225E0,2.6258726E1,8.989956E0,2.062093E0],"tree_param":{"num_deleted":"0","num_feature":"8","num_nodes":"105","size_leaf_vector":"1"}},{"base_weights":[8.948663E-2,-1.6549087E-1,1.9265154E-1,-3.0051425E-1,-6.352234E-2,1.02286935E-1,3.3282387E-1,-3.908999E-1,-1.5528025E-1,-8.643548E-2,6.4090145E-1,-3.653495E-2,1.616166E-1,2.5645065E-1,4.4901943E-1,-4.1980222E-2,-4.208902E-1,-2.3770419E-1,1.3679607E-1,2.1859556E-2,-1.962495E-1,8.410221E-1,2.561874E-2,-1.1866514E-1,1.91926E-1,-3.892335E-2,2.0531282E-1,6.989235E-2,3.2029086E-1,5.3068453E-1,3.376063E-1,4.3052977E-1,-1.6432203E-1,6.1672977E-3,-4.350378E-1,-2.687579E-1,1.7324002E-1,5.925696E-1,-2.6496422E-1,-5.527777E-2,1.778509E-1,-2.8743452E-1,-1.601953E-2,7.768399E-2,2.8307003E-1,-1.145869E-1,1.2384491E-1,4.5893705E-3,-2.1338536E-1,-1.6824594E-1,2.83089E-1,3.8615223E-2,-1.8025556E-1,2.3179899E-1,-7.8370504E-4,-4.151545E-2,4.3677282E-1,2.3853701E-1,4.3769646E-1,4.368402E-1,6.675212E-1,2.4223205E-1,5.4354686E-1,2.9754558E-1,4.299875E-2,1.7856205E-1,-1.3998741E-1,-1.3494983E-1,-2.3634356E-2,8.630904E-2,-8.8796206E-2,2.9887354E-1,1.0338426E-1,-1.5287092E-1,9.522485E-2,-4.3111023E-2,7.325425E-2,2.3280999E-1,2.9127445E-2,-1.6038345E-1,-6.4152025E-2,6.693891E-2,-4.743005E-2,-1.2541454E-2,1.223084E-1,-1.5736327E-1,-4.7286276E-2,-3.4984776E-3,-1.6561845E-1,7.011056E-3,1.3503924E-1,-2.3850172E-3,1.4877355E-1,-1.7122802E-1,-3.5251196E-2,1.8100162E-1,6.582882E-2,-3.4509253E-2,1.1275351E-1,1.4239533E-2,-1.1219683E-1,1.5397979E-2,1.8705797E-1,-7.685678E-3,9.4392985E-2,-5.4569814E-2,1.384664E-1,1.3730991E-1,-1.1731053E-2,2.1085352E-1,9.5988736E-2,9.277908E-2,-6.0938366E-2,4.4412006E-2,1.8096754E-1],"categories":[],"categories_nodes":[],"categories_segments":[],"categories_sizes":[],"default_left":[0,0,0,0,0,0,0,0,0,0,0,0,0,0,0,0,0,0,0,0,0,0,0,0,0,0,0,0,0,0,0,0,0,0,0,0,0,0,0,0,0,0,0,0,0,0,0,0,0,0,0,0,0,0,0,0,0,0,0,0,0,0,0,0,0,0,0,0,0,0,0,0,0,0,0,0,0,0,0,0,0,0,0,0,0,0,0,0,0,0,0,0,0,0,0,0,0,0,0,0,0,0,0,0,0,0,0,0,0,0,0,0,0,0,0],"id":11,"left_children":[1,3,5,7,9,11,13,15,17,19,21,23,25,27,29,31,33,35,37,39,41,43,45,47,49,51,53,55,57,59,61,63,-1,65,67,69,-1,71,73,75,77,79,81,-1,-1,-1,-1,83,85,87,89,91,93,95,97,99,101,103,105,107,109,111,113,-1,-1,-1,-1,-1,-1,-1,-1,-1,-1,-1,-1,-1,-1,-1,-1,-1,-1,-1,-1,-1,-1,-1,-1,-1,-1,-1,-1,-1,-1,-1,-1,-1,-1,-1,-1,-1,-1,-1,-1,-1,-1,-1,-1,-1,-1,-1,-1,-1,-1,-1,-1],"loss_changes":[4.919151E1,7.400159E0,1.6824974E1,2.9793625E0,5.031266E0,6.6831512E0,4.510689E0,1.4691887E0,2.2111697E0,3.5654771E0,1.1889071E0,4.5927477E0,4.9866667E0,3.7514267E0,1.6897163E0,3.188859E0,7.925453E-1,1.951118E0,3.920402E0,1.8348266E0,2.4405508E0,1.9655895E-1,7.011991E-1,2.0997384E0,2.1748357E0,1.1301128E0,2.5475845E0,3.3723922E0,2.158867E0,1.2079735E0,1.6287365E0,9.779459E-1,0E0,1.7197921E0,6.3160706E-1,1.1310086E0,0E0,6.5140367E-1,1.8162714E0,2.7425926E0,2.3604417E0,1.6818295E0,1.769698E0,0E0,0E0,0E0,0E0,1.4963039E0,1.6815028E0,8.177094E-1,2.2486086E0,1.4307466E0,8.269912E-1,1.7680988E0,2.3728154E0,1.9070436E0,1.3502347E0,2.846776E0,1.4971008E0,7.343378E-1,3.351097E-1,1.9454048E0,5.6132984E-1,0E0,0E0,0E0,0E0,0E0,0E0,0E0,0E0,0E0,0E0,0E0,0E0,0E0,0E0,0E0,0E0,0E0,0E0,0E0,0E0,0E0,0E0,0E0,0E0,0E0,0E0,0E0,0E0,0E0,0E0,0E0,0E0,0E0,0E0,0E0,0E0,0E0,0E0,0E0,0E0,0E0,0E0,0E0,0E0,0E0,0E0,0E0,0E0,0E0,0E0,0E0,0E0],"parents":[2147483647,0,0,1,1,2,2,3,3,4,4,5,5,6,6,7,7,8,8,9,9,10,10,11,11,12,12,13,13,14,14,15,15,16,16,17,17,18,18,19,19,20,20,21,21,22,22,23,23,24,24,25,25,26,26,27,27,28,28,29,29,30,30,31,31,33,33,34,34,35,35,37,37,38,38,39,39,40,40,41,41,42,42,47,47,48,48,49,49,50,50,51,51,52,52,53,53,54,54,55,55,56,56,57,57,58,58,59,59,60,60,61,61,62,62],"right_children":[2,4,6,8,10,12,14,16,18,20,22,24,26,28,30,32,34,36,38,40,42,44,46,48,50,52,54,56,58,60,62,64,-1,66,68,70,-1,72,74,76,78,80,82,-1,-1,-1,-1,84,86,88,90,92,94,96,98,100,102,104,106,108,110,112,114,-1,-1,-1,-1,-1,-1,-1,-1,-1,-1,-1,-1,-1,-1,-1,-1,-1,-1,-1,-1,-1,-1,-1,-1,-1,-1,-1,-1,-1,-1,-1,-1,-1,-1,-1,-1,-1,-1,-1,-1,-1,-1,-1,-1,-1,-1,-1,-1,-1,-1,-1,-1],"split_conditions":[0E0,1.3E0,7E-1,-3E-1,1.8E1,1.1E1,1.8E0,6E0,1.6E1,1.4E1,2E1,1.9E0,1.2E0,1.6E1,1.2E0,1.5E0,1.1E1,2.7E1,2.1E1,5.5E1,1.2E1,1.1E0,2.5E1,1.4E0,7E0,5.4E1,7.2E1,6.1E1,1.2E0,1.3E0,2.3E0,1.7E1,-1.6432203E-1,1.6E0,7.8E1,1.1E1,1.7324002E-1,1E0,2.1E1,2E0,1.4E0,1.4E0,1.7E1,7.768399E-2,2.8307003E-1,-1.145869E-1,1.2384491E-1,7.3E1,2E1,9E0,2.9E1,5.2E1,6E1,3E0,7.9E1,1.3E1,1.3E1,1.9E1,9E-1,7.5E1,1.1E0,1.4E0,4E0,2.9754558E-1,4.299875E-2,1.7856205E-1,-1.3998741E-1,-1.3494983E-1,-2.3634356E-2,8.630904E-2,-8.8796206E-2,2.9887354E-1,1.0338426E-1,-1.5287092E-1,9.522485E-2,-4.3111023E-2,7.325425E-2,2.3280999E-1,2.9127445E-2,-1.6038345E-1,-6.4152025E-2,6.693891E-2,-4.743005E-2,-1.2541454E-2,1.223084E-1,-1.5736327E-1,-4.7286276E-2,-3.4984776E-3,-1.6561845E-1,7.011056E-3,1.3503924E-1,-2.3850172E-3,1.4877355E-1,-1.7122802E-1,-3.5251196E-2,1.8100162E-1,6.582882E-2,-3.4509253E-2,1.1275351E-1,1.4239533E-2,-1.1219683E-1,1.5397979E-2,1.8705797E-1,-7.685678E-3,9.4392985E-2,-5.4569814E-2,1.384664E-1,1.3730991E-1,-1.1731053E-2,2.1085352E-1,9.5988736E-2,9.277908E-2,-6.0938366E-2,4.4412006E-2,1.8096754E-1],"split_indices":[2,7,2,2,4,4,7,1,4,5,5,7,7,4,6,6,5,5,5,0,4,6,5,6,4,0,0,1,2,2,7,5,0,6,0,5,0,7,4,7,7,7,5,0,0,0,0,1,0,5,0,0,0,1,0,5,4,1,7,1,6,2,5,0,0,0,0,0,0,0,0,0,0,0,0,0,0,0,0,0,0,0,0,0,0,0,0,0,0,0,0,0,0,0,0,0,0,0,0,0,0,0,0,0,0,0,0,0,0,0,0,0,0,0,0],"split_type":[0,0,0,0,0,0,0,0,0,0,0,0,0,0,0,0,0,0,0,0,0,0,0,0,0,0,0,0,0,0,0,0,0,0,0,0,0,0,0,0,0,0,0,0,0,0,0,0,0,0,0,0,0,0,0,0,0,0,0,0,0,0,0,0,0,0,0,0,0,0,0,0,0,0,0,0,0,0,0,0,0,0,0,0,0,0,0,0,0,0,0,0,0,0,0,0,0,0,0,0,0,0,0,0,0,0,0,0,0,0,0,0,0,0,0],"sum_hessian":[1.8678514E3,5.378709E2,1.3299805E3,2.3058743E2,3.0728348E2,8.0971375E2,5.202667E2,1.4108957E2,8.949787E1,2.9845285E2,8.830631E0,2.4255597E2,5.671578E2,3.1586288E2,2.0440382E2,1.1357028E1,1.2973253E2,6.9945435E1,1.9552443E1,1.5066895E2,1.4778392E2,6.3865266E0,2.4441047E0,1.7876996E2,6.3786015E1,1.0148956E2,4.656682E2,8.1064705E1,2.3479819E2,1.1577689E2,8.862694E1,5.9484196E0,5.408609E0,4.178059E0,1.25554474E2,6.802437E1,1.9210657E0,8.93794E0,1.0614502E1,1.012478E2,4.9421143E1,9.773921E1,5.0044704E1,1.4846125E0,4.901914E0,1.1973145E0,1.2467902E0,7.8097404E1,1.00672554E2,1.2713046E1,5.1072968E1,6.6004524E1,3.548504E1,4.125281E2,5.3140114E1,6.2862556E1,1.820215E1,1.4020206E2,9.459613E1,7.116409E1,4.46128E1,6.206151E1,2.6565428E1,1.1830102E0,4.765409E0,1.7450397E0,2.4330196E0,1.2029604E2,5.2584305E0,2.727157E0,6.529721E1,2.252687E0,6.685253E0,7.562993E0,3.051509E0,7.856798E1,2.2679823E1,4.854539E0,4.4566605E1,2.0987047E1,7.675216E1,1.8438572E1,3.1606133E1,7.0840515E1,7.256887E0,1.4022468E1,8.6650085E1,9.761182E0,2.9518638E0,2.0437057E1,3.063591E1,6.0796406E1,5.208119E0,3.7919717E0,3.1693068E1,1.1752334E1,4.007758E2,4.130513E1,1.1834984E1,5.0266804E1,1.2595751E1,6.3568683E0,1.1845282E1,3.1507298E1,1.0869476E2,3.2618525E0,9.133428E1,6.821282E1,2.951269E0,3.9569004E1,5.043799E0,5.4208176E1,7.8533335E0,3.939269E0,2.2626158E1],"tree_param":{"num_deleted":"0","num_feature":"8","num_nodes":"115","size_leaf_vector":"1"}},{"base_weights":[-1.2941394E-2,8.785312E-2,-2.0359609E-1,2.0560713E-1,2.6957495E-3,-2.6227018E-1,-6.727827E-3,3.5532796E-1,1.435061E-1,-2.2621644E-1,3.5122108E-2,-2.0877059E-1,-4.3116578E-1,4.0810574E-2,-4.4522595E-1,3.108981E-1,1.8537237E-1,8.008476E-2,2.8399602E-1,-1.1078547E-1,-4.4603407E-1,6.5947846E-2,-2.2533496E-1,-2.4053328E-1,5.315052E-2,1.0987728E-2,-4.3801457E-1,8.4871E-3,6.314925E-1,-1.7231101E-1,-1.6473418E-1,2.602467E-1,4.9556926E-1,1.3388813E-1,-7.201841E-2,5.4074955E-1,1.5680116E-1,8.274133E-2,-2.741825E-1,8.303571E-2,-5.0405794E-1,7.376394E-2,-5.850996E-1,-3.8787836E-1,1.22140326E-1,-2.2826572E-1,-1.6489379E-1,-2.721801E-1,2.023183E-1,-3.188557E-1,-4.766284E-1,-3.9784033E-2,3.122587E-1,4.9324024E-2,2.4429664E-1,-1.2728472E-1,3.5222065E-2,5.9751965E-2,1.4738885E-1,1.6697627E-1,3.7087336E-2,-1.0389032E-1,4.840528E-2,-1.3690272E-1,-2.2451906E-3,-5.7395916E-2,1.7416847E-1,-3.3168074E-2,8.758257E-2,6.7770176E-2,-1.8320096E-1,1.2457792E-1,-1.0291324E-1,-1.490496E-2,-1.6044231E-1,4.7338296E-2,3.6421218E-3,-6.40467E-2,-1.9726007E-1,-1.33893E-1,1.6066704E-2,1.7868938E-1,-3.857518E-2,-9.403464E-2,-5.7729125E-2,-1.4524196E-1,1.6014463E-1,9.658746E-2,-7.631582E-2,-3.1883653E-2,-1.641423E-1,-1.4586148E-1,-2.222727E-2,-2.6800646E-2,8.1226625E-2,-5.086392E-2,2.2078303E-1],"categories":[],"categories_nodes":[],"categories_segments":[],"categories_sizes":[],"default_left":[0,0,0,0,0,0,0,0,0,0,0,0,0,0,0,0,0,0,0,0,0,0,0,0,0,0,0,0,0,0,0,0,0,0,0,0,0,0,0,0,0,0,0,0,0,0,0,0,0,0,0,0,0,0,0,0,0,0,0,0,0,0,0,0,0,0,0,0,0,0,0,0,0,0,0,0,0,0,0,0,0,0,0,0,0,0,0,0,0,0,0,0,0,0,0,0,0],"id":12,"left_children":[1,3,5,7,9,11,13,15,17,19,21,23,25,27,29,31,-1,33,35,37,39,41,43,45,47,-1,49,51,53,55,-1,57,59,61,63,65,67,69,71,-1,73,75,77,79,81,83,-1,85,87,89,91,93,95,-1,-1,-1,-1,-1,-1,-1,-1,-1,-1,-1,-1,-1,-1,-1,-1,-1,-1,-1,-1,-1,-1,-1,-1,-1,-1,-1,-1,-1,-1,-1,-1,-1,-1,-1,-1,-1,-1,-1,-1,-1,-1,-1,-1],"loss_changes":[3.2721382E1,1.11697445E1,6.800104E0,4.295624E0,4.813942E0,4.0088444E0,2.85796E0,1.398941E0,2.9363685E0,1.9924264E0,4.575165E0,2.8949003E0,3.626442E-1,2.3587592E0,2.8554463E-1,9.8090935E-1,0E0,1.8935869E0,3.275731E0,1.7332255E0,1.2877173E0,2.631543E0,3.4551342E0,1.0468483E0,1.9130949E0,0E0,3.389759E-1,1.7487346E0,4.1355705E-1,4.2606762E-1,0E0,1.2458124E0,4.8572397E-1,2.303056E0,1.5046427E0,1.0927038E0,2.5694404E0,2.6724596E0,1.5459361E0,0E0,3.3246326E-1,2.605397E0,2.5061607E-2,1.0903759E0,2.4496682E0,8.525801E-1,0E0,2.3875456E0,1.5475892E0,1.3557358E0,2.6683998E-1,1.6100738E0,3.462203E0,0E0,0E0,0E0,0E0,0E0,0E0,0E0,0E0,0E0,0E0,0E0,0E0,0E0,0E0,0E0,0E0,0E0,0E0,0E0,0E0,0E0,0E0,0E0,0E0,0E0,0E0,0E0,0E0,0E0,0E0,0E0,0E0,0E0,0E0,0E0,0E0,0E0,0E0,0E0,0E0,0E0,0E0,0E0,0E0],"parents":[2147483647,0,0,1,1,2,2,3,3,4,4,5,5,6,6,7,7,8,8,9,9,10,10,11,11,12,12,13,13,14,14,15,15,17,17,18,18,19,19,20,20,21,21,22,22,23,23,24,24,26,26,27,27,28,28,29,29,31,31,32,32,33,33,34,34,35,35,36,36,37,37,38,38,40,40,41,41,42,42,43,43,44,44,45,45,47,47,48,48,49,49,50,50,51,51,52,52],"right_children":[2,4,6,8,10,12,14,16,18,20,22,24,26,28,30,32,-1,34,36,38,40,42,44,46,48,-1,50,52,54,56,-1,58,60,62,64,66,68,70,72,-1,74,76,78,80,82,84,-1,86,88,90,92,94,96,-1,-1,-1,-1,-1,-1,-1,-1,-1,-1,-1,-1,-1,-1,-1,-1,-1,-1,-1,-1,-1,-1,-1,-1,-1,-1,-1,-1,-1,-1,-1,-1,-1,-1,-1,-1,-1,-1,-1,-1,-1,-1,-1,-1],"split_conditions":[4E-1,-2E-1,1.5E1,-7E-1,1E0,1.1E0,2.8E1,2.1E0,2.1E1,2E-1,2.1E0,1.7E0,1E0,2.7E1,1E1,2.7E1,1.8537237E-1,1.2E1,2.3E1,1.5E1,9E-1,2.8E1,5.8E1,2.5E0,8E0,1.0987728E-2,1.5E0,1.5E0,1.1E0,2E1,-1.6473418E-1,6.6E1,7E1,8E0,-5E-1,4E0,4.3E1,1.9E1,5E0,8.303571E-2,6E0,1.4E0,1.4E1,1.9E0,0E0,1.1E0,-1.6489379E-1,2.3E0,6.5E1,1.4E0,1.4E1,7.1E1,4.2E1,4.9324024E-2,2.4429664E-1,-1.2728472E-1,3.5222065E-2,5.9751965E-2,1.4738885E-1,1.6697627E-1,3.7087336E-2,-1.0389032E-1,4.840528E-2,-1.3690272E-1,-2.2451906E-3,-5.7395916E-2,1.7416847E-1,-3.3168074E-2,8.758257E-2,6.7770176E-2,-1.8320096E-1,1.2457792E-1,-1.0291324E-1,-1.490496E-2,-1.6044231E-1,4.7338296E-2,3.6421218E-3,-6.40467E-2,-1.9726007E-1,-1.33893E-1,1.6066704E-2,1.7868938E-1,-3.857518E-2,-9.403464E-2,-5.7729125E-2,-1.4524196E-1,1.6014463E-1,9.658746E-2,-7.631582E-2,-3.1883653E-2,-1.641423E-1,-1.4586148E-1,-2.222727E-2,-2.6800646E-2,8.1226625E-2,-5.086392E-2,2.2078303E-1],"split_indices":[2,2,5,2,6,2,4,6,5,2,7,6,1,4,0,5,0,4,0,4,7,5,0,7,5,0,7,6,7,5,0,0,0,5,2,4,0,5,1,0,1,7,4,6,2,6,0,7,1,2,5,0,1,0,0,0,0,0,0,0,0,0,0,0,0,0,0,0,0,0,0,0,0,0,0,0,0,0,0,0,0,0,0,0,0,0,0,0,0,0,0,0,0,0,0,0,0],"split_type":[0,0,0,0,0,0,0,0,0,0,0,0,0,0,0,0,0,0,0,0,0,0,0,0,0,0,0,0,0,0,0,0,0,0,0,0,0,0,0,0,0,0,0,0,0,0,0,0,0,0,0,0,0,0,0,0,0,0,0,0,0,0,0,0,0,0,0,0,0,0,0,0,0,0,0,0,0,0,0,0,0,0,0,0,0,0,0,0,0,0,0,0,0,0,0,0,0],"sum_hessian":[1.700805E3,1.112953E3,5.8785205E2,4.6648785E2,6.464651E2,4.5262167E2,1.3523035E2,1.3537863E2,3.3110925E2,7.947055E1,5.6699457E2,3.4543677E2,1.07184906E2,1.2282193E2,1.2408423E1,1.1765484E2,1.772379E1,2.2920798E2,1.0190125E2,5.309383E1,2.6376722E1,5.076587E2,5.9335873E1,3.081497E2,3.7287083E1,1.4838809E0,1.0570103E2,1.1741128E2,5.410647E0,4.154121E0,8.254303E0,9.422121E1,2.3433634E1,1.6940442E2,5.980357E1,3.268085E1,6.9220406E1,2.4531927E1,2.8561901E1,1.6798719E0,2.469685E1,5.025125E2,5.146169E0,4.034626E1,1.8989613E1,2.9805927E2,1.00904255E1,1.1462669E1,2.5824411E1,2.8135351E1,7.7565674E1,1.0206204E2,1.5349239E1,2.0563958E0,3.3542514E0,1.9733799E0,2.1807408E0,7.599533E1,1.822587E1,1.9704624E1,3.72901E0,8.53632E0,1.608681E2,7.725336E0,5.207823E1,1.4893234E0,3.1191526E1,2.3301931E1,4.5918472E1,2.089271E1,3.6392174E0,2.1369014E0,2.6425E1,1.7312138E0,2.2965637E1,2.119437E2,2.9056882E2,1.483366E0,3.662803E0,3.5620243E1,4.7260146E0,6.09798E0,1.2891633E1,8.596573E1,2.1209354E2,9.392079E0,2.0705907E0,2.069747E1,5.126942E0,1.5327808E1,1.2807542E1,7.556022E1,2.0054555E0,8.863177E1,1.343027E1,7.4626756E0,7.886564E0],"tree_param":{"num_deleted":"0","num_feature":"8","num_nodes":"97","size_leaf_vector":"1"}},{"base_weights":[-6.2112767E-2,-3.6463942E-2,-1.5505475E-1,-1.999504E-2,-1.4564939E-1,-9.97595E-2,-2.2538579E-1,-2.0312423E-1,-1.2378726E-2,4.5833927E-2,-1.8912683E-1,-2.4343897E-1,-5.8657974E-2,-1.8391813E-1,-3.9363E-1,-4.3561578E-2,-4.1780356E-1,-1.5185263E-2,4.897322E-1,-3.1180495E-1,1.2310852E-1,-6.895954E-2,-2.552955E-1,-2.8350446E-1,2.6229516E-1,1.5316223E-1,-1.4465487E-1,-3.6046594E-1,-1.3187377E-1,-6.0294807E-2,-4.6311545E-1,8.314317E-2,-1.544867E-1,-1.7485764E-2,-4.8781237E-1,2.0408893E-2,-4.722E-2,7.927838E-1,-1.0666706E-1,-1.620046E-1,2.7192287E-2,6.8026816E-4,3.6029705E-1,-2.0935361E-1,2.5689214E-1,2.8130116E-2,-2.869318E-1,1.600898E-1,-3.3917773E-1,9.765131E-2,2.0014437E-2,5.6302484E-2,5.081449E-1,4.8776752E-1,-1.8750873E-1,-1.8218336E-1,-5.101552E-1,-8.039572E-2,-4.0041578E-1,1.3603239E-1,-2.968776E-1,-4.9640948E-1,4.3233935E-2,-2.7986403E-4,2.1338096E-1,8.496141E-2,-1.1378661E-1,-3.0629976E-2,-1.7813236E-1,9.710716E-3,-1.1242887E-1,-4.025769E-3,-3.4505557E-2,8.8812485E-2,2.75849E-1,9.523817E-2,-4.015521E-2,1.9676554E-1,1.0827432E-2,-1.2590824E-1,-2.5404505E-2,1.8838903E-1,-1.9543976E-2,1.5191227E-1,-5.192441E-2,-9.381027E-2,9.495702E-2,1.12759605E-1,-1.05505325E-1,-2.4803687E-2,-1.4710367E-1,-2.7657002E-2,1.0974167E-1,2.2943959E-1,-5.4472875E-2,6.555111E-2,3.226364E-1,-1.1532866E-1,-2.4213694E-2,-8.6055905E-2,1.6508019E-2,-1.7217436E-1,1.8983409E-2,-1.4941682E-1,-1.4929023E-2,4.782965E-2,-1.3490622E-1,-1.351957E-1,3.954868E-2,-8.6268574E-2,-1.7099273E-1],"categories":[],"categories_nodes":[],"categories_segments":[],"categories_sizes":[],"default_left":[0,0,0,0,0,0,0,0,0,0,0,0,0,0,0,0,0,0,0,0,0,0,0,0,0,0,0,0,0,0,0,0,0,0,0,0,0,0,0,0,0,0,0,0,0,0,0,0,0,0,0,0,0,0,0,0,0,0,0,0,0,0,0,0,0,0,0,0,0,0,0,0,0,0,0,0,0,0,0,0,0,0,0,0,0,0,0,0,0,0,0,0,0,0,0,0,0,0,0,0,0,0,0,0,0,0,0,0,0,0,0],"id":13,"left_children":[1,3,5,7,9,11,13,15,17,19,21,23,25,27,29,31,33,35,37,39,41,43,45,47,49,51,53,55,57,59,61,63,-1,65,67,69,71,73,-1,-1,-1,75,77,79,81,83,85,87,89,-1,-1,91,93,95,97,99,101,103,105,-1,107,109,-1,-1,-1,-1,-1,-1,-1,-1,-1,-1,-1,-1,-1,-1,-1,-1,-1,-1,-1,-1,-1,-1,-1,-1,-1,-1,-1,-1,-1,-1,-1,-1,-1,-1,-1,-1,-1,-1,-1,-1,-1,-1,-1,-1,-1,-1,-1,-1,-1],"loss_changes":[3.9598312E0,2.343707E0,1.3754826E0,1.5807245E0,1.4312952E0,1.1847663E0,1.0259371E0,1.5321647E0,1.5446776E0,9.344998E-1,1.0912585E0,9.830463E-1,2.9220343E0,1.1301894E0,6.72781E-1,1.6601925E0,5.2902246E-1,1.2390153E0,1.8428423E0,6.040701E-1,7.948554E-1,2.381959E0,8.111596E-1,1.0923913E0,2.5402546E-2,1.5686594E0,3.1740289E0,6.704521E-1,1.3581034E0,9.08607E-1,5.7462597E-1,1.1732396E0,0E0,5.3085655E-1,6.050978E-1,2.4462385E0,1.3087286E0,2.9609919E-2,0E0,0E0,0E0,8.548177E-1,8.694438E-1,9.1161275E-1,1.9258136E0,1.040708E0,1.3532915E0,7.2480905E-1,1.4199977E0,0E0,0E0,1.7627344E0,1.8796189E0,9.511652E-1,2.224369E0,3.7856343E-1,5.8452964E-1,1.0709419E0,5.110214E-1,0E0,3.8669196E-1,2.0200539E-1,0E0,0E0,0E0,0E0,0E0,0E0,0E0,0E0,0E0,0E0,0E0,0E0,0E0,0E0,0E0,0E0,0E0,0E0,0E0,0E0,0E0,0E0,0E0,0E0,0E0,0E0,0E0,0E0,0E0,0E0,0E0,0E0,0E0,0E0,0E0,0E0,0E0,0E0,0E0,0E0,0E0,0E0,0E0,0E0,0E0,0E0,0E0,0E0,0E0],"parents":[2147483647,0,0,1,1,2,2,3,3,4,4,5,5,6,6,7,7,8,8,9,9,10,10,11,11,12,12,13,13,14,14,15,15,16,16,17,17,18,18,19,19,20,20,21,21,22,22,23,23,24,24,25,25,26,26,27,27,28,28,29,29,30,30,31,31,33,33,34,34,35,35,36,36,37,37,41,41,42,42,43,43,44,44,45,45,46,46,47,47,48,48,51,51,52,52,53,53,54,54,55,55,56,56,57,57,58,58,60,60,61,61],"right_children":[2,4,6,8,10,12,14,16,18,20,22,24,26,28,30,32,34,36,38,40,42,44,46,48,50,52,54,56,58,60,62,64,-1,66,68,70,72,74,-1,-1,-1,76,78,80,82,84,86,88,90,-1,-1,92,94,96,98,100,102,104,106,-1,108,110,-1,-1,-1,-1,-1,-1,-1,-1,-1,-1,-1,-1,-1,-1,-1,-1,-1,-1,-1,-1,-1,-1,-1,-1,-1,-1,-1,-1,-1,-1,-1,-1,-1,-1,-1,-1,-1,-1,-1,-1,-1,-1,-1,-1,-1,-1,-1,-1,-1],"split_conditions":[1.8E1,2.1E1,1.6E0,5E0,1.1E0,1E1,6.1E1,5.2E1,1.4E0,8E0,1E1,1.3E0,4.1E1,1.7E1,1.9E1,9E-1,0E0,4.2E1,2.3E0,1.4E1,-3E-1,-4E-1,-1E0,9E-1,4.1E1,1E0,9E0,2.2E1,1.4E0,6.7E1,7.6E1,8E-1,-1.544867E-1,2.3E0,4E0,7.9E1,1.3E1,1.7E0,-1.0666706E-1,-1.620046E-1,2.7192287E-2,2.2E1,5.9E1,-1.1E0,-3E-1,1.4E1,2.9E1,1E0,2.9E1,9.765131E-2,2.0014437E-2,2.1E1,1.6E0,5.8E1,3.9E1,2.2E0,5E1,5E0,0E0,1.3603239E-1,1.3E1,1.7E1,4.3233935E-2,-2.7986403E-4,2.1338096E-1,8.496141E-2,-1.1378661E-1,-3.0629976E-2,-1.7813236E-1,9.710716E-3,-1.1242887E-1,-4.025769E-3,-3.4505557E-2,8.8812485E-2,2.75849E-1,9.523817E-2,-4.015521E-2,1.9676554E-1,1.0827432E-2,-1.2590824E-1,-2.5404505E-2,1.8838903E-1,-1.9543976E-2,1.5191227E-1,-5.192441E-2,-9.381027E-2,9.495702E-2,1.12759605E-1,-1.05505325E-1,-2.4803687E-2,-1.4710367E-1,-2.7657002E-2,1.0974167E-1,2.2943959E-1,-5.4472875E-2,6.555111E-2,3.226364E-1,-1.1532866E-1,-2.4213694E-2,-8.6055905E-2,1.6508019E-2,-1.7217436E-1,1.8983409E-2,-1.4941682E-1,-1.4929023E-2,4.782965E-2,-1.3490622E-1,-1.351957E-1,3.954868E-2,-8.6268574E-2,-1.7099273E-1],"split_indices":[4,5,7,5,6,0,0,0,2,1,4,6,0,1,4,2,2,1,7,4,2,2,2,7,1,2,5,4,6,0,0,2,0,7,1,0,4,7,0,0,0,5,1,2,2,0,5,2,1,0,0,5,2,1,1,7,0,5,2,0,5,1,0,0,0,0,0,0,0,0,0,0,0,0,0,0,0,0,0,0,0,0,0,0,0,0,0,0,0,0,0,0,0,0,0,0,0,0,0,0,0,0,0,0,0,0,0,0,0,0,0],"split_type":[0,0,0,0,0,0,0,0,0,0,0,0,0,0,0,0,0,0,0,0,0,0,0,0,0,0,0,0,0,0,0,0,0,0,0,0,0,0,0,0,0,0,0,0,0,0,0,0,0,0,0,0,0,0,0,0,0,0,0,0,0,0,0,0,0,0,0,0,0,0,0,0,0,0,0,0,0,0,0,0,0,0,0,0,0,0,0,0,0,0,0,0,0,0,0,0,0,0,0,0,0,0,0,0,0,0,0,0,0,0,0],"sum_hessian":[1.6624775E3,1.304008E3,3.5846957E2,1.1341261E3,1.698819E2,2.0204074E2,1.5642883E2,4.425977E1,1.0898663E3,3.1425135E1,1.3845676E2,4.3845657E1,1.5819508E2,1.2717643E2,2.9252396E1,2.6079111E1,1.8180656E1,1.0847728E3,5.0935535E0,5.0443E0,2.6380833E1,4.989175E1,8.856501E1,4.1034245E1,2.8114126E0,4.5454483E1,1.1274061E2,2.7605467E1,9.957097E1,5.368137E0,2.3884258E1,2.1203503E1,4.875609E0,2.8922477E0,1.528841E1,5.140116E2,5.7076117E2,3.7950675E0,1.2984861E0,3.000824E0,2.0434766E0,1.806117E1,8.319663E0,3.511841E1,1.4773341E1,8.904205E0,7.9660805E1,4.366584E0,3.666766E1,1.6226821E0,1.1887306E0,3.662082E1,8.833664E0,6.495795E0,1.0624481E2,1.3611273E1,1.3994193E1,8.4644455E1,1.4926509E1,1.4036037E0,3.9645333E0,2.281578E1,1.0684774E0,1.9581053E1,1.6224492E0,1.6981633E0,1.1940844E0,3.718017E0,1.1570393E1,4.998028E2,1.4208802E1,3.8167572E2,1.8908546E2,1.449404E0,2.3456635E0,4.9785085E0,1.3082662E1,3.8167572E0,4.502906E0,1.2188376E1,2.2930033E1,6.422737E0,8.350604E0,2.18773E0,6.716475E0,7.686048E1,2.8003218E0,3.2583528E0,1.1082308E0,1.4170445E1,2.2497213E1,2.5222012E1,1.1398808E1,6.3586726E0,2.4749916E0,5.395508E0,1.100287E0,3.6444942E1,6.9799866E1,9.29885E0,4.312423E0,1.2593139E1,1.4010544E0,4.741171E0,7.990328E1,1.0265518E0,1.3899957E1,2.8802226E0,1.0843107E0,7.222024E0,1.5593758E1],"tree_param":{"num_deleted":"0","num_feature":"8","num_nodes":"111","size_leaf_vector":"1"}},{"base_weights":[6.8603165E-2,-1.3718466E-1,1.491251E-1,-3.7846977E-1,-9.138269E-2,7.821454E-2,2.6265293E-1,9.7160734E-2,-4.2226923E-1,-1.6071728E-1,3.8780656E-2,-3.520758E-2,1.259435E-1,4.9497402E-1,2.3003727E-1,-2.8780994E-1,1.8614878E-1,-2.2670984E-1,-4.9416527E-1,-3.4694642E-1,-1.1059185E-1,1.5716992E-2,1.990407E-1,4.2183223E-1,-6.4433865E-2,-3.1806905E-2,1.5978093E-1,2.0095426E-1,6.042307E-1,2.910589E-1,1.2731893E-1,4.9038287E-2,-1.3539353E-1,2.4873288E-1,-3.5711792E-1,-5.10702E-1,4.588791E-2,1.5906377E-1,-4.7984087E-1,-1.7690742E-2,-1.7272624E-1,-2.7795003E-3,5.092088E-1,-1.5347949E-1,5.630432E-1,-4.7441787E-1,-3.9947614E-2,3.3923086E-2,-1.5471609E-1,1.8102814E-1,-6.8998975E-3,4.602119E-3,1.9540463E-1,6.647593E-1,4.352462E-1,2.3294498E-1,4.1093436E-1,-2.2975956E-1,1.9603099E-1,1.3467638E-1,-8.977615E-2,-4.3834455E-2,-1.6369262E-1,-1.5805262E-1,-7.4415044E-3,2.5231805E-1,-4.2752296E-2,4.206109E-2,-1.4915748E-1,2.4032722E-1,-1.1775525E-2,-8.0224894E-2,-1.6403768E-2,1.1500012E-2,-6.990834E-2,2.9609886E-1,-1.4221707E-1,-4.005224E-3,1.8899073E-1,-1.6308452E-1,4.2151034E-2,-2.00445E-2,8.514782E-2,1.0847473E-1,-5.6586475E-3,-1.2835908E-1,-1.8837906E-2,1.504051E-1,5.1153626E-2,1.2917577E-1,-2.5659358E-2,4.488108E-2,-1.1942958E-1,9.4406545E-2,2.086323E-1,1.5983449E-1,-8.051913E-2,7.187377E-2,-1.2388545E-1,1.3561195E-1,4.8077647E-2,-1.382498E-1,2.084691E-2,4.216743E-2,1.072173E-1],"categories":[],"categories_nodes":[],"categories_segments":[],"categories_sizes":[],"default_left":[0,0,0,0,0,0,0,0,0,0,0,0,0,0,0,0,0,0,0,0,0,0,0,0,0,0,0,0,0,0,0,0,0,0,0,0,0,0,0,0,0,0,0,0,0,0,0,0,0,0,0,0,0,0,0,0,0,0,0,0,0,0,0,0,0,0,0,0,0,0,0,0,0,0,0,0,0,0,0,0,0,0,0,0,0,0,0,0,0,0,0,0,0,0,0,0,0,0,0,0,0,0,0,0,0],"id":14,"left_children":[1,3,5,7,9,11,13,15,17,19,21,23,25,27,29,31,-1,33,35,37,39,41,-1,43,45,47,49,51,53,55,57,-1,-1,59,61,63,-1,65,67,69,71,73,75,-1,77,79,81,83,85,87,89,91,-1,93,95,97,99,101,103,-1,-1,-1,-1,-1,-1,-1,-1,-1,-1,-1,-1,-1,-1,-1,-1,-1,-1,-1,-1,-1,-1,-1,-1,-1,-1,-1,-1,-1,-1,-1,-1,-1,-1,-1,-1,-1,-1,-1,-1,-1,-1,-1,-1,-1,-1],"loss_changes":[3.02968E1,5.6500454E0,1.0555538E1,1.7440052E0,3.9197333E0,4.389806E0,3.710167E0,1.7311049E0,9.430361E-1,2.6045322E0,2.1725302E0,3.2424352E0,3.0496473E0,1.8464756E0,2.7485123E0,4.517712E-1,0E0,1.4540845E0,6.562128E-1,4.0825753E0,1.2931094E0,1.3445244E0,0E0,2.2124605E0,2.2609653E0,8.258185E-1,1.6650515E0,1.5972558E0,1.624031E-1,1.8410225E0,4.1522264E0,0E0,0E0,7.1895194E-1,6.2399006E-1,4.018364E-1,0E0,2.823001E0,5.8000183E-1,1.6398252E0,1.488132E0,1.3609151E0,2.9677782E0,0E0,5.159669E-1,6.170955E-1,1.8927101E0,1.1656097E0,8.662789E-1,1.3182507E0,1.897154E0,8.541883E-1,0E0,1.10048294E-1,1.141145E0,9.1115856E-1,8.4939194E-1,1.9318169E0,1.2111821E0,0E0,0E0,0E0,0E0,0E0,0E0,0E0,0E0,0E0,0E0,0E0,0E0,0E0,0E0,0E0,0E0,0E0,0E0,0E0,0E0,0E0,0E0,0E0,0E0,0E0,0E0,0E0,0E0,0E0,0E0,0E0,0E0,0E0,0E0,0E0,0E0,0E0,0E0,0E0,0E0,0E0,0E0,0E0,0E0,0E0,0E0],"parents":[2147483647,0,0,1,1,2,2,3,3,4,4,5,5,6,6,7,7,8,8,9,9,10,10,11,11,12,12,13,13,14,14,15,15,17,17,18,18,19,19,20,20,21,21,23,23,24,24,25,25,26,26,27,27,28,28,29,29,30,30,33,33,34,34,35,35,37,37,38,38,39,39,40,40,41,41,42,42,44,44,45,45,46,46,47,47,48,48,49,49,50,50,51,51,53,53,54,54,55,55,56,56,57,57,58,58],"right_children":[2,4,6,8,10,12,14,16,18,20,22,24,26,28,30,32,-1,34,36,38,40,42,-1,44,46,48,50,52,54,56,58,-1,-1,60,62,64,-1,66,68,70,72,74,76,-1,78,80,82,84,86,88,90,92,-1,94,96,98,100,102,104,-1,-1,-1,-1,-1,-1,-1,-1,-1,-1,-1,-1,-1,-1,-1,-1,-1,-1,-1,-1,-1,-1,-1,-1,-1,-1,-1,-1,-1,-1,-1,-1,-1,-1,-1,-1,-1,-1,-1,-1,-1,-1,-1,-1,-1,-1],"split_conditions":[0E0,-7E-1,7E-1,4E0,1.6E0,1.1E1,6E0,1.4E0,2.9E1,8E0,1.8E1,5E0,1.2E0,1.3E1,1.2E0,9E-1,1.8614878E-1,-1.2E0,1.8E1,1.1E1,1.7E1,7.7E1,1.990407E-1,9E0,5E0,5.4E1,7.2E1,1E0,1.3E0,1.3E0,1.3E0,4.9038287E-2,-1.3539353E-1,6.3E1,9E0,7.9E1,4.588791E-2,2.6E1,6E0,2E0,1.3E1,1.9E0,1E1,-1.5347949E-1,5E0,6E-1,2.2E0,1.3E1,1.6E1,3E0,7E0,1.2E1,1.9540463E-1,4E0,1.5E0,2.6E1,1.1E0,5E1,6.5E1,1.3467638E-1,-8.977615E-2,-4.3834455E-2,-1.6369262E-1,-1.5805262E-1,-7.4415044E-3,2.5231805E-1,-4.2752296E-2,4.206109E-2,-1.4915748E-1,2.4032722E-1,-1.1775525E-2,-8.0224894E-2,-1.6403768E-2,1.1500012E-2,